{"bias0":[[0.17807443665692932,-1.215067065187215,0.025975915394145378,0.6523850603946187,2.2590785533898687,-0.631735121392529,0.8480813684260394,-0.17114680275162997,-1.0355916301523729,-1.619672696550345,-0.33878729826946724,-1.7035881991876658,0.44103670022548463,-0.49118175557796095,-1.8581907983999593,1.2333179544176278]],"weights0":[[-0.5862286081587373,0.17057330251003489,0.5910443203471596,-0.24441536003900222,0.49027659835858195,-0.1612087731286167,-0.720143241394462,0.7297601409846342,-0.4470497380695141,-0.776311841199796,0.7004090034440273,-0.8382722596387044,-0.14677116556504788,0.4961092787786727,-0.08815564253416663,0.32205487234304386],[-0.8874710860068791,0.13994764870773824,-0.2522848617369843,0.5660060518109702,0.43654685719267583,0.20447767128332295,-0.8553425557782541,0.48672083119805043,-0.5480438727527706,0.6044725018152526,0.5867143486549113,0.6511170895072824,-0.5850435738580186,-0.9249780535027826,0.5796659776617357,0.4218656025700642],[-0.45469557228744595,0.020676638563441374,0.8030940487408098,0.9162543663222718,0.3804775185395839,0.2830689500029231,-0.6699523052721204,-0.8709171275961631,0.2509689435458762,-0.5578702344723949,0.4614706089618803,0.6621466324498226,0.9465559084174946,0.48721501757444896,-0.5847611982121714,0.98161209494896],[-0.5636617702195159,-0.2767530661865496,0.7381882558806621,-0.904657379146748,-0.6604119431331374,-0.9294787817694157,-0.5217133484781029,-0.9698415650100701,-0.7942232094580479,0.6467864519107653,0.5468834522746007,0.213769512483313,0.9695433243111264,0.9399432560193179,-0.22884322885525088,-0.37073903331652647],[0.1159412298566358,-0.26048013922598034,-0.9648130406736961,0.5387144743709171,0.02632599838626626,-0.8047319608793253,0.8466557493632714,0.9607130920004447,0.47839166049555115,-0.9518735162904493,0.712726330476378,-0.7891032236054134,0.9115866568609357,-0.22118813579608065,-0.8914647808199497,0.5777690930225878],[-0.07246219222701389,0.8165658947623091,-0.683014349101221,-0.11023857536135251,-0.9634077651653014,-0.17837283736087983,0.8184928741911353,-0.7519377675152799,-0.9994148690297678,-0.5428421650937804,0.1971075692308064,0.6335930916031629,-0.020944500249659326,0.8653699291359562,0.7964677758693761,-0.7315672773310916],[0.09797722321817415,0.5083080142692182,0.5221204836925823,0.21085202328433827,-0.5669476502514242,-0.0012591799523541392,0.00380789509657542,0.9558788194830141,0.22940121866381014,0.10471795244934912,-0.539082423803537,0.6390421313545622,-0.8702933812474399,-0.06344820872723378,0.8388305994597856,0.31042443748259485],[-0.26126489350741644,-0.7147161515347402,0.012305806559668397,0.12117898792536308,-0.40266563607037154,-0.1061290301068516,-0.8811090668525895,-0.7991364293233048,-0.09486003639615204,0.5293447227596122,-0.6075014631562774,0.24719752317388588,-0.1784647231439358,-0.8981852711346324,0.6064498182706533,0.6736520144067759],[0.5074133746511258,-0.1439341671616038,0.2681927996842344,0.31095025843064383,0.18746692027047285,-0.45463213873733255,-0.8760666899913148,-0.8249410949597584,-0.3312284171939691,0.47846291164911814,-0.7646242373905228,-0.9930630510650464,-0.6996461251688983,0.13835719664265356,0.8275993371647226,0.9386154024343885],[-0.10472407873827594,0.33668064033229395,-0.6317172571438323,0.5672511472989699,-0.1550723277105418,-0.8298859086303427,-0.03079649365558179,0.9245348492877494,-0.716726606554102,0.5221884574835824,0.7582262761719845,-0.9009554383956732,0.9272106856918259,0.34462088717150907,-0.9735052799289742,-0.21698449075020976],[-0.34302752151652793,-0.24428565184786222,0.1762120474093325,0.7720876829946051,0.8808420725864674,-0.4971036484093796,-0.26115250364932774,0.9433555433741696,0.6341768984547211,-0.11276058579356851,-0.7494901857924221,0.7271050954373923,-0.9204546337412508,0.8633957725469006,0.9530673875976028,0.7327121216924386],[0.4637770494738658,-0.9524858120306146,-0.2919779407954173,0.478200851169994,0.1026318362972487,-0.3703935866268828,-0.044802286607951936,0.1296099736214793,-0.3305697457267214,-0.9411119530360242,-0.8823247919715074,-0.7496778681022354,0.9833677265470668,0.338420054664768,-0.8729060392422534,-0.3859886103511324],[-0.2501539974615371,-0.09380464886854833,0.06792868939269314,0.4916108422122307,0.7675912077458342,0.7982009814680884,-0.12254509788300794,0.41258134564306936,0.6543364752027216,0.6978670900069333,-0.9607887125023404,-0.17336211396665668,0.12922743506807954,-0.9947111737791107,0.36502695773371086,-0.879457126845288],[0.2989520322616174,0.5385524318440077,0.6679829560394714,-0.4381245076743839,0.4494126927162247,0.2342536766004061,0.8295136249286619,0.6129667314967503,0.9145597721454464,-0.6509583595485143,-0.5728294787861232,-0.6370855316873963,0.2271943209566536,0.3563077437316019,0.8462192908778312,-0.279578735105939],[0.7533323630779921,0.5540194883382631,-0.12277966059929285,-0.3463784319083241,-0.11181676113331145,0.1947181787286102,0.40310663118966455,0.3793145752110907,0.4587448785574464,-0.7091048221413288,-0.7825023993538515,0.503200422853193,-0.9178502220205661,-0.3680039221001441,0.8640797946871003,-0.7526110465169917],[0.7443006660708629,-0.6640437674483803,-0.7322713674238686,0.49908847964074665,-0.4742709638372372,-0.7012315416825405,-0.9920754023527509,0.2602431427931369,-0.9226703133538209,0.580122643190391,-0.8868517662224548,0.2888022170120723,0.9926082584614844,-0.5318654659321782,-0.9999882496790518,-0.7790067107500023],[-0.3222917609355481,0.07688586315822943,0.6270110616387785,-0.06526593402180314,-0.7871592722429157,0.4282584296758021,-0.16933837024312037,0.7630351545719891,-0.7167057740255395,0.45492733076290914,0.6089332956295188,-0.11544058161608373,0.43781063329887115,-0.7604255013960457,0.42099344639635716,0.7617034751472669],[0.9279040685985049,0.7547301829527002,0.633244112395623,-0.8400408272602985,-0.9837175069818425,0.7731281104645866,0.7052239800331397,-0.912959967716068,-0.6390188224828407,-0.23052479573189888,-0.379995409731956,0.009161958433650197,0.19379948571067862,-0.15546853207242395,-0.24008500429706114,0.49233102257076067],[0.7528291441704449,0.8540938035554142,-0.45317055112152316,0.40708347634893016,-0.9956260435602977,0.3769712451975129,-0.2389401724718384,0.24860630454300559,0.3274191363971255,-0.931065016316396,-0.7889849643171203,0.0927509633159076,-0.7935130863087079,0.4663892441638049,-0.3191497358065958,-0.8159462291129373],[0.2066596783318344,-0.9410889317675745,-0.6043954124289517,0.018382705331464688,-0.9576457744190491,0.02692859889216792,0.5442300426511673,0.7917795237886962,-0.7833006259720885,0.916443106814038,0.42911238149304487,0.9210947065848418,-0.6627880859098942,0.6395116682675062,0.95225558498237,-0.7233849247935293],[0.4687758761207037,-0.9686439747333424,0.38301944517788433,-0.7245980996550387,0.5671923121240035,-0.4506764189241621,0.6142365005503239,0.8721904437009935,-0.9495516128476778,-0.8469840574679068,-0.42663228171461776,0.4284046235609351,0.4228077597709159,-0.6399698199420951,0.8747318657816445,-0.08830164850903843],[-0.8447450835955721,-0.9630913114000503,0.4297704535532665,-0.08718460984596288,0.3444475401018998,0.20668217376409115,0.712062287605773,-0.29161935015744345,-0.8567200628765728,0.9587603327500498,0.275853083542303,-0.24307030062570145,-0.2915588932551306,-0.5183789945272375,-0.3728562242399739,-0.2845352281626272],[-0.3883027744482438,-0.9999089471079526,-0.614985975103569,0.5180206447353612,0.13228583948411443,0.8550729961323098,0.9266112680858234,0.7612867471865072,-0.14128550462708644,-0.39100623917916966,0.9298455769489815,-0.724375990171798,0.3361484487342645,-0.511861528443432,0.30771340560570404,0.12124701772317281],[-0.5297952312748526,0.7269306984306261,-0.09294135705680362,-0.8745599325111403,0.1572792025924321,0.3206212438667049,-0.972881422923118,0.1189616265133644,-0.9871260844047461,-0.5071760772257449,-0.7831418968427329,-0.6043570271280665,-0.04903911761942992,0.705863862504307,0.5545787732679524,-0.32576810363122255],[-0.8452767979213202,-0.6529087986936485,0.858123195026887,0.384770556659324,0.28876871380797065,-0.4835093968617775,0.6726372763341038,0.1875527491643838,-0.4106438953020508,0.9005689335220184,0.7301377830213345,-0.374078333825712,-0.018373179205852797,0.33024213045047435,-0.8980882242925845,-0.14817018605110555],[-0.30382893588899196,-0.6620697201040708,-0.6115320400536521,-0.7682069536540663,-0.05606480027222471,0.11573167090735459,0.7266352272317518,0.3777157138136882,0.5188319152901044,-0.7731991838056141,0.05739973504408913,0.5946776576401849,-0.9983250002595896,0.8776370273934408,-0.3163422416171878,-0.7533330952710436],[-0.43530100620599665,-0.23334056291364424,0.6867564767422585,-0.7329833009110798,-0.6700104955592003,0.34018280564761616,-0.32603609188432014,-0.3758295092873635,-0.8962573008918744,0.6522362910170496,-0.11005048953572738,-0.6084382316043124,-0.05191562802388239,0.009530760815273043,-0.13718401621484444,0.09880121555329291],[-0.634645573814768,0.06981801039470192,-0.12765848851728068,0.5003087587777606,0.5975653138699042,0.17711454496151524,0.8195968708113173,0.8301170886490428,0.8443704879264231,-0.31427303871815204,-0.6553478957362702,0.7008912093342197,-0.7024253256724062,0.8614578175772063,-0.09796017007245494,-0.7417918945467734],[-0.3153383176893928,-0.804075268042649,0.021046388265425042,0.8747050809531245,-0.16555355036535402,-0.2269784419383648,-0.09065443658187355,0.45080409815892586,-0.7183084474142744,0.9631526995416848,-0.08578234263053053,-0.6570901233501307,-0.84843777030954,0.025043918426714162,-0.05581372016910391,0.796136434348212],[-0.8100332481801489,-0.2064957616470623,0.4647299664204827,-0.26857608603843575,0.6959461405649485,0.8615004649360507,0.11329767903692733,0.9694177211192039,0.26097546324815446,-0.5332869532113892,0.3202942090014709,0.5276292587958367,-0.5050720104620702,0.7081140228598581,0.13778141220579543,0.5063281578973013],[0.0660402389182484,-0.3977014875101347,0.5453689837808262,0.06187827339516039,0.727695572783787,0.06367401527976457,-0.42903278415740387,0.20835207026484936,0.6069607680561153,0.4969668594949359,0.6539093143503976,-0.3349919753997753,0.3873778528104823,0.11404081163231639,-0.11135202401898736,-0.14142721952383908],[-0.6144522808463739,-0.5046657424856327,-0.5304018024679908,-0.5640222026276753,-0.5214685206540468,0.11897744502723473,0.2608603255015789,0.07048971221718747,0.42671157630895995,-0.047655397715160586,-0.4901429662702451,0.1287624525547102,0.7320186234785211,-0.7629818322072419,-0.03974776590098572,0.8208534414734308],[-0.38609667445895357,0.888179571850902,0.9281870561306742,-0.6377863377780275,0.9026731867394622,-0.5507102009307829,-0.5075558548110437,-0.9258248647092632,-0.2447173757568718,-0.32909972517236075,-0.6637721460802593,0.028621118748112684,0.8621917844190721,-0.2088026143440742,-0.9905367911150151,0.7452970700317469],[0.088602561799072,-0.6400553720216413,0.8483554392032222,0.03247989197010659,0.45069362491624854,-0.5547339816533275,0.45519336183457804,0.3063359949759199,0.5044805188533097,-0.8426094576639146,0.8729066913258741,0.1920825404086859,-0.08662049589626475,-0.5613748836640351,-0.8303477322382972,0.5491246601544664],[0.7065353490831671,0.8334733376039791,0.9853980429204098,0.5739336107183426,0.421548373169762,0.9507745295091491,-0.10713757545583061,0.4103659935426514,-0.70978366328298,-0.6229365487186823,0.9746407908058002,0.2957884643406376,-0.07859822148712427,0.1513532713169932,0.8666058284296771,0.2599017250633892],[-0.829480821884434,0.6025721591178514,0.9981553695460317,0.43326437960759134,0.9621707954927966,0.21060367541928282,-0.046717255671370854,-0.5363034195221392,0.06431695828528694,0.7121355215054112,-0.3774297994993599,-0.32265985946075654,0.8111051005747434,-0.4925079664747915,-0.698857984721914,-0.739544137833373],[0.6809938189096646,0.21459155373278224,0.10359430438317209,0.8888877579183941,0.1274555867354582,-0.426343900392141,-0.1622712960650855,0.996870762705066,0.690857990728928,-0.5368598648707075,-0.49331969130967307,0.54550985833975,-0.7732558907749066,0.8673821938745027,-0.5760650128445249,0.16307378944197556],[-0.235483210694518,-0.7459258374826276,0.6495542766740651,0.11161623267562305,-0.9905231869816004,0.037937781856537,0.10354938720599983,0.14421515721367453,0.6430534741528723,-0.6162916317207666,-0.8703286583908704,0.8595477153017093,0.24952696114673295,0.5934347354391447,0.1316438804296911,0.8246208891854274],[-0.42192200165050797,-0.4291422983575987,0.9823049770873177,0.8877671686100038,0.13195030251553852,-0.6283711857678391,0.5138386294149495,-0.08456666600770985,0.23594156399280716,-0.6937165724448928,0.37506165278811965,0.6335228680571247,-0.0548352975796442,-0.6741290970757311,0.4487448741409234,1.0461687283437462],[0.6723060567689433,0.2024764699267846,-0.8072983064006369,0.9133679076555663,0.4375370558731115,0.7365723412154476,-0.2127540697836673,0.9926949335938998,-0.021307155442711497,-0.5863801885044763,-0.749012840925662,-0.7610543669771036,-0.8533713866307204,-0.5886128614683792,-0.9376936590494942,0.30810935252296223],[0.008945090062553639,-0.2649061470759026,0.4515313633792314,-0.3537104515467836,-0.21311528869324486,-0.5139243076467964,-0.0813733747329116,-0.2771940075844023,0.6593511576353254,0.9655400587842926,-0.7118976668171694,0.9943656760896195,-0.7229302527038634,-0.22650536276987618,-0.33557413656673335,0.6042548350493868],[0.06558093291551934,0.6502256095498263,-0.9175486555487828,-0.4656555865687665,-0.5107119396070099,-0.2066807763135001,0.7886057129523291,0.6793736535398222,0.6811521097921127,0.18679630611289416,0.19605238965664581,0.3013162164586823,-0.6775507297636811,-0.7861882439871265,-0.11279276375192916,-0.930720325149372],[-0.10628557170256571,-0.751253182792766,0.9074121000957913,-0.960858165099589,0.058885816587144216,0.933141505460283,0.3441823769865677,0.6988055579377187,0.6123665736633654,0.3441672587574004,-0.24940737118059744,0.3312744825462395,-0.6042738092899517,0.8713415565659616,-0.6963090049556139,0.0013045199144172404],[-0.4191389171612607,-0.5317944691000973,0.7192475314037036,0.9100921691402594,0.03802820646275025,0.10785140775501316,-0.4403598272225824,0.3850487656807801,0.007531127956865708,-0.7453580663553346,0.011289464956195549,0.4754874263287996,0.38068769021575527,-0.9354080146802887,-0.3347825847385004,-0.3938015308069153],[0.26004293639737436,0.48554866602748087,-0.06345007380185771,-0.10861153410138302,0.32710900228477324,-0.26259104489334006,0.42708769650534706,0.21934999521152523,-0.6670005366837218,0.2622630372791382,-0.9881683077900514,-0.11961897855412827,0.12661357184515756,-0.5328106932341711,-0.3300361490152314,-0.25153897274688775],[-0.16552439324990448,-0.5616938305736268,-0.12743836687496748,0.9286249459313347,0.30118493885191944,-0.8618146195769598,0.0239443844142677,0.18437839066852496,-0.8552697213699789,0.8364701960958711,-0.9873817749270078,0.061901757734250544,-0.5727701592885408,0.7318837068825292,0.8355469455409884,0.046646174412717026],[-0.5744446464996056,-0.9848006573258389,-0.22619384548716476,-0.2920417903176936,0.5618780088894357,-0.8288283182621028,-0.3411614844044124,0.09993145594364089,-0.05755785414691409,0.30145304688987984,-0.5826039420629534,-0.3275097423804158,-0.7354428419182046,-0.20430687713582601,0.23323519245286778,-0.8603902168459898],[0.9513938460366925,-0.38349783573674706,0.6570869317618897,-0.5901820125936121,0.071432514631159,-0.6395527381291799,0.48075263487431563,0.19012599848320036,0.8126940385306505,0.45660373341311844,0.38538031455151217,-0.7922660405011024,-0.9020900673269612,-0.2811742753398805,-0.24302414373553755,1.049686915151914],[-0.036483547322676245,-0.6194145731294027,-0.11721007807296067,0.37101700827246376,-0.44307692524725834,0.2718796820657916,-0.028689669429182073,-0.8648918692008951,0.2507501479907163,-0.8689079844501527,-0.6936997699137734,-0.42790023495837703,0.4539786851564631,0.9720688444726628,-0.23479189720324942,-0.861145687588052],[0.5561880300509371,-0.485351145679734,-0.6472808546862684,0.4273515979894714,-0.7721175501854983,-0.07728212714016419,0.41334726255687915,0.5828847949603108,0.47283057490081903,-0.5983313632322589,0.8140889205318573,0.8723499440437191,-0.8671985030432604,-0.829214736642465,0.3720232800454629,0.7613291124760955],[-0.06680699010186446,-0.8660809266891484,-0.6903523232237069,-0.9903012284828153,-0.7688977525825629,-0.37251137357048303,0.6428898559116354,-0.6467948353177231,-0.15257545933393385,-0.14124844288866856,-0.7333456656008992,0.6062523395970747,-0.19733640568235705,-0.12168063681946868,0.5009137610837141,0.8412835366757447],[-0.1986710509059173,0.4910641256681888,-0.6725332358807183,0.7083238503089163,0.6547688985853438,0.5746627358350153,0.5539577701785036,0.24799281249307847,-0.3560581024324117,-0.09238697700170316,-0.538123743647963,-0.6375310834447353,0.9744452599287191,-0.06454495733193966,-0.686221458898669,-0.76660483988534],[0.20797679579586936,0.18081536729101821,0.5660546638208379,0.7036451896796565,-0.39465897193891164,0.33532888976331954,0.9610458581898023,-0.9295578775445625,-0.6879333573461381,-0.5885858783569831,0.021268740840319156,0.7572047921314098,0.16465339345597085,-0.08217448208654898,-0.2106550753276757,-0.9807284813475495],[0.45016880042112994,0.4716806161276583,-0.09354960444085292,0.6408872729687833,-0.008436873082819929,0.3072919081481791,-0.9604908443848436,0.6501176587120665,0.9484457775990112,0.5356671734119516,-0.8325567501099447,-0.43592046548384944,-0.8197460345380141,0.5188593174621818,0.05660026435168031,0.012873883160273714],[-0.813589167971521,-0.8387481125827594,0.9052741309142514,-0.5282525046947297,0.30951663332266,-0.8306410136898169,-0.5240686492718811,-0.5993399913580184,-0.9558610929540132,-0.852910217901047,-0.853188212367781,-0.9605625238920241,0.2662731520468895,-0.20818362483952568,-0.61096783448358,0.10182076804507245],[-0.6732167780176614,-0.7193774377587283,-0.09989285533181524,-0.8343947118684819,0.9722519046452884,-0.04470566387489938,0.4837039350553751,-0.19550417470809078,-0.17245816654462331,-0.2971345593244412,0.3938365404573363,0.4831332323788371,0.8647721814553109,0.8520772958526888,0.31603005053785527,0.6594378399802978],[0.03243955485557781,0.33923388066770044,0.45976358834253794,0.2545127355280825,-0.8143361569362799,0.17970925665364512,0.44748507783968305,0.9638808067295048,-0.5666402032827157,-0.9712483201587293,-0.8262219022521421,-0.876718889298145,0.18861873644757665,0.9137647750900337,0.9112652323186792,0.5229912045229175],[-0.23790332285133997,0.8765041490334511,0.09508552687845251,-0.07062817117338949,-0.13921373389942293,-0.7915795010227803,-0.05383613449729985,-0.0632373112679454,-0.3369514489266051,-0.5477946955344086,0.3597790602312163,-0.8972370094877198,-0.31897197377505315,0.6467376061177705,0.05233838112528244,-0.3176065837870491],[-0.22934507730268028,0.6966630055071423,0.5074879673252242,-0.24367888088387413,0.41361625900442145,0.7743362609605862,0.17267044855868896,-0.03868447608567771,-0.4799860420568126,0.43454770833610556,0.8832133390121986,0.05249211101520279,0.8629635652774539,-0.9459001879372106,-0.8462461430627268,-0.8718091734320008],[-0.14956650007321337,-0.9062009326385724,-0.4063567134232873,0.980003803200356,-0.714285576081777,-0.2004658535072925,-0.9282955967908383,-0.10015980427610593,0.02073787432561547,0.8223557241819766,-0.8514736184495406,0.020416413690113933,0.7488412084456517,0.42197560251610633,0.391725297788613,0.435652744198856],[0.60471563614226,0.5990912628387906,0.12443673675534661,0.9136683402952428,-0.820064127084052,-0.05215643320731016,0.09879036762202095,0.2584237347943497,0.8094111897067902,0.6133547957127818,-0.5098726713524911,-0.4633461848763152,0.25742242869275217,-0.2547055243366296,-0.21758977161587395,-0.9748227391884792],[0.43747918319349055,-0.05236934568064522,0.1787268749451305,0.6834358883027412,-0.6124845252043927,0.39017152533201127,-0.8185734909795994,0.6304319143621651,0.2487721463006598,-0.5174426020664213,-0.4483625146812985,0.8502409616863464,0.4705651403984943,-0.7300209436987269,-0.15651697783735563,-0.9228424794989578],[-0.17833127084485023,-0.4677796589752406,-0.22892291277625637,0.4616778139671712,0.816087271873913,0.9350990907373818,0.06536754370232213,0.30503731217949914,0.33214694077200724,-0.9213426036856046,-0.9978989495495858,0.40464633088140317,0.7439215112827056,-0.9804251278906138,-0.9648190501446323,0.8081581727877192],[-0.5899394714115643,-0.12123438703094332,0.7589041813507175,0.5796289025805471,-0.11144221808270505,-0.1661558106894479,-0.4927050514596437,-0.9855542906607769,0.31371027040290844,-0.4114230846399602,0.5248483844282933,-0.36975595185980775,0.020214606570422396,-0.4388296677309171,0.6776996755103227,-0.8715955859012829],[0.00695470468768485,-0.010369191489141918,-0.9366981499532787,0.7751671375783314,-0.5235923249144153,-0.19916704588657633,0.5426883250320514,-0.3125404782965642,0.10864828112264104,-0.2572631261217896,-0.985601198598265,-0.6853255914328378,-0.8273506166636807,0.5395480514645097,-0.7035680430001648,-0.48784061936570056],[0.7776658771643159,-0.3619763351689306,0.5329610293818149,0.8106624263865785,-0.8786998885126008,0.7712193022220399,-0.24283146321198373,-0.6207793528368638,0.19592773685224787,0.07209123319230071,-0.4100637038876154,0.01447007102232365,-0.12524934224860895,-0.2997771919978875,0.678789854714056,0.4715429373997169],[-0.7531096782004549,-0.8684789940524436,-0.6603926272083108,0.44872355699111405,-0.06957219521945676,0.8080012269860332,-0.1309453863917313,0.9856047783781852,-0.6630233425611668,-0.5957564721004098,-0.139645566547065,-0.08081046853912054,-0.07543217708539039,-0.8557327468314339,-0.6050097195439363,0.4713300378148002],[0.6936885540693399,-0.44159164169131876,0.17549190290887778,-0.014205709817184714,-0.87417531733776,-0.21089043751066122,-0.8372487895630325,0.0363458908992622,0.28202062871387573,0.2564794039459271,0.6171889387489885,0.5984438586744775,0.9284163885800386,0.7940648415858974,-0.8591690705718315,1.0176450492769034],[-0.6548045739763789,0.1678617241912482,0.5389687276893947,0.6907696151904376,-0.20813843076729377,0.4007406653746425,-0.7875908990709397,0.8813848538026374,-0.05448438814466455,0.34694759014153376,-0.3228337957872275,-0.6515132095653529,-0.22833042528907035,-0.08648904672443977,0.10998452619774557,1.5883929814124778],[-0.2047808917436157,-0.9771045548137481,0.5967029421830509,0.9218278758430924,-0.09524184695596935,-0.932533076533602,0.051544040364099875,-0.193071406449879,0.8849575964190279,-0.19204203091788807,-0.06768737881231825,-0.5106709638500171,-0.8312137928839687,0.10126618370213504,0.13026897296356527,1.14045113416818],[0.5088660461389446,-0.07652531782033056,-0.5358038237138092,0.06650262582013142,0.5265295509355451,-0.6951875909174982,-0.6579977700370356,-0.20268201013855422,-0.2373126649925035,0.7879675726659993,-0.73822830777232,-0.9607054122878939,0.8337887713180773,-0.7690133346225997,1.0769455310618707,-0.24921412056671435],[0.1133423508766892,0.10475524409472639,0.3110907615351803,-0.12308476677476644,-0.3001687848306648,0.9479869377831546,0.9290490055618272,0.4485305091952881,-0.5717744461340423,1.1684509674758927,-0.5148815896552582,-0.16343502924075717,-0.3006096755025848,0.7291962420000594,0.2659607374738105,-0.4397127834625256],[-0.12395995064613483,0.02226481047340449,-0.7790525111117175,-0.3030017253030885,-0.07027530377155507,-0.607420468430874,-0.6263463002978459,0.7410326339753533,-0.28126315480194525,-0.5098116357572169,-0.34787524566725514,0.3440592934373147,-0.5476006190921584,0.06582213438754879,-0.7852132759810243,1.1015779758628224],[0.7811098492275155,-0.520073702577524,-0.7676725382196945,0.23138072446065194,0.22666943091725203,0.7735955321098276,-0.313805942781698,0.5534887692062529,0.5997593041026246,1.152443140555211,0.16779212138954946,0.2048449462247164,0.015186918174999451,-0.37560585630358495,0.1436993765177205,-0.03245313845716056],[-0.6133272373911385,0.2981320791980181,-0.27754898624108765,-0.6500158067501727,0.060951063174441614,0.11026093300566064,0.615209636811632,-0.5765919078552971,-0.1156637492592902,-0.330790487860197,-0.7069887703825941,0.738707720435736,-0.8388637748199523,0.1272957930385893,-0.26748027946568376,-0.27370082266635176],[0.3250880837615425,0.48470041627854255,-0.7403259380319852,0.6315110614352205,0.4568024006199789,-0.79977156780782,-0.2113182058725527,0.04660296257396475,-0.5048723875493331,0.9580602325170856,-0.3594901962447855,0.016834717880753688,0.5374260873753006,0.2644354587544442,0.2634777190699216,-0.5091492403264566],[-0.9270385774644851,-0.08745377813208487,-0.7872847379685209,0.724388181849532,-0.5848890799455901,0.9361828411239348,0.40627873063324643,0.5577996103476204,0.7188473741545353,-0.40925225648317876,0.9459836637862308,-0.07711320914207735,-0.9307754511737115,0.2315549276693343,0.09017801465936125,0.8156921647178029],[-0.1243463642301454,-0.1922777704323123,0.09601141950991368,-0.9645199618712833,-0.6044542322531287,-0.141436637693449,-0.20518203566327275,0.2048674112673365,0.9078891819611125,1.0291492056282934,-0.566612059221164,-0.39222529191922834,0.9253734836949125,-0.32301538985508343,-0.8741545338932631,0.229407435272733],[-0.8011107439754719,0.919855803586756,0.24212064455220259,-0.6579431539086121,0.31252175132521587,-0.7569178788552514,-0.723792010754838,-0.8480032803342762,0.4840474635353311,0.551077348357853,-0.7277945333749632,-0.8865156961612483,0.12842638358486816,0.9257981452761685,-0.42652529803733075,-0.8429471922851416],[0.45783149246845806,0.965179633752852,-0.7883937510268344,0.9209179515620373,0.9804508053527802,0.32341167923145964,0.9409108664669734,-0.6942145271489848,-0.5163636844040976,-0.8492668141160199,-0.22596341291133573,0.32891164950573953,-0.9742267994015417,0.009188780654499941,-0.9705989494937906,0.03834209553415092],[-0.6981370894011074,-0.6055551723279481,-0.8979981857384535,0.3261754072065036,0.8159716400962308,-0.39966334259733427,-0.2503996299915333,-0.27057923140769286,-0.9610568080822527,0.8762459613519759,-0.8295054229406678,-0.04630368023294703,0.44942795009712355,-0.7695892965929536,0.31169903955103406,-0.8502152272234533],[-0.4848532991397862,-0.411913125876066,-0.1888821141336321,-0.8509459962824754,-0.501809717677823,0.4855027629478226,-0.12174655134347916,-0.222644571736398,-0.45302596469064227,-0.13963244485100829,-0.09239920125410356,-0.11189961603111077,0.7150249441097059,0.0037643082245736328,-0.4014990496976768,0.2877114770796208],[0.8717521928656702,-0.15984715595789378,-0.7118631494515391,-0.21214784917654328,-0.31087474029370554,-0.16515499358566288,0.45410067612469507,-0.6217355059994196,-0.2730460945174987,-0.6613732706484072,0.599668743262256,-0.18669955104447378,-0.9053029461198667,-0.005887408026404639,0.8521027753134531,0.3985757218289119],[-0.47755791830329986,0.3647283311012828,0.8150504714476936,0.7223411984456114,0.2951070988790905,-0.5422030287483106,-0.6308845111548067,-0.8378506910770163,0.25149332067422225,0.8281361143447399,-0.44449588639882154,-0.3698692133304292,-0.03433958791661629,0.34491036468278935,0.5608856371450757,-0.4227202756838956],[0.9988051294841858,0.12483542610410336,0.6002768852081526,0.7881471003311433,-0.3835450317539283,-0.7423915153718683,-0.024247729962379005,0.19848240593746902,-0.3163430461026606,-0.5890427414260315,-0.9903799969528482,0.40539675123509866,0.46415676925908,-0.4053441559617399,-0.829292509032988,0.5649321068384174],[-0.3791665685879646,0.09395245420055942,0.7081660706319568,0.940270110118077,0.6135889607362788,-0.1920909033931656,-0.9169420075626586,-0.02900884276703264,0.6243881850872117,-0.871734765486761,-0.18206210176804172,0.7631643897991478,0.7950171103053971,0.0984308749954721,0.30777512778810623,-0.8703594035062724],[-0.25063894863562103,-0.7955935274782856,-0.24619671247246755,-0.0714362401066868,0.26453654499041523,0.8657681274589762,0.981533440189117,-0.2770442254960791,0.40709295917187255,0.16799412286295687,-0.021265779829313002,0.15228120370531706,0.02742837333963557,0.4463873592370023,0.20586006681787528,0.26637388120061634],[-0.38728406605881727,0.6151615841901736,0.7062131489939576,0.31150843218275637,0.1653951408856149,0.6542211594764156,-0.6509030120924454,0.12088266366735945,-0.3705984283767775,-0.6989666366008631,0.2825057091232386,0.3034838439459633,-0.3654143252184653,0.7228539839320651,-0.7275802249242779,-0.7149406608472932],[-0.05844397484823283,0.13740995337540274,-0.2712996977542601,-0.3580625565647064,0.011852998371387535,0.8789930539945163,0.40628911289723124,0.18673641410438924,-0.03417420596384324,0.021850895796142522,-0.090425694845642,-0.9287240977859592,0.4790522625723679,-0.42975350468298223,-0.31366636095265255,-0.6426117436773158],[0.5587926446343874,0.7666677432677844,-0.6943133086717342,-0.8142738076986258,0.3344630843045849,0.01662959631432379,0.2082116704016116,0.8063041866746474,-0.960661607561208,-0.5525893882267797,0.8246103852489951,0.18342254286264428,-0.3920482030979136,0.6677648442833184,-0.9820688004376953,-0.4424356342843934],[0.8502108664685556,-0.4971150113065116,0.481111554891838,0.23933525452810614,0.9031431379849939,-0.980742131580917,1.00505535310439,-0.14528624889172242,-0.9710918189543025,-0.3056583225746777,0.21847562962087763,-0.8032380942807895,0.41192876086699853,-0.583332279606964,0.5776703615352714,0.3208903073827282],[0.9738760718135477,-0.6635427075617685,-0.9555566419904872,-0.6267111992892072,0.7339161066404611,-0.7345841336450578,-0.17415384879137957,0.05303133047105299,0.9436180494823844,0.7888116824406872,0.8705686266038812,-0.6328717001414303,-0.7549004928204388,-0.3502765713659982,-0.5253390621085655,1.1993959603522253],[-0.34619373490938904,-0.6050997642341716,0.2731754951008243,-0.036161092415543196,0.42372878601561675,-0.5890644368162788,-0.05683564164446783,0.9412485360848004,-0.4465771202190039,-0.3801042923883966,-0.8252345667484123,-0.6414299724223554,0.6076152065444793,0.7290416096744617,-0.7688057306536819,-0.35392879212563466],[0.7384287928678422,0.28572374720418625,0.8737524484271365,-1.0609743902017625,-0.3030921004305734,-0.4486148547679899,-0.3831142332564738,-0.5795924980400212,0.2700160645533046,0.2592779442152034,-0.021669473087985915,0.3393672324803978,-0.11948145848355039,0.5336064650072209,-0.1661898269777432,1.0503746326972137],[0.5471716496883834,-0.23910716050088812,0.5344767942915086,0.0069128523454523505,-0.40770787508072287,0.5407454531605383,-0.1094660598969136,-0.6649290980724211,0.19206404399777552,0.8893524092284387,-0.7907854865570328,0.2582866055060962,0.20307832347059743,0.7128467534743785,-0.7411661007471386,0.9229650447211595],[-0.6482369180000673,0.45254112589598233,-0.34167344114388337,0.28485318219613565,0.3861253656203379,-0.37560265625345035,0.6297934313791445,-0.046040786279963594,1.045825857911168,0.8036989888307254,0.6259308460630699,-0.49522627038531775,0.61335443045529,0.4404293835018834,0.4608669663433288,0.4088327382685312],[0.10288725394042071,0.28609700521667947,0.5775260933060956,-0.3043126670949393,0.42243184645166965,0.8607351336817675,-0.7779537705957834,-0.7066475959834352,0.11134926424512684,1.2709463821778535,-0.9017243238811777,1.3341363485618012,0.39000840736244125,0.07117230960530646,0.050568722996137,0.4363055632952759],[0.7657498934430363,0.016586908332953218,1.3171613664041788,-0.22040015951999817,0.6705560946465956,0.7145301405149715,-0.04989334535805511,-0.011223531854774819,0.6320111657094698,1.166405361224864,-0.27226759821350716,-0.16799984745044938,-0.16633886660528072,1.0180421978492566,-0.12131848717679401,0.559938138016029],[-0.608480766763081,0.2556215146256602,-0.5061204266851792,0.3649606909107543,0.08695763277601148,0.3877923965082603,0.9743771793476236,0.45914547949665496,1.2479462831833068,0.5020171601185718,-1.1682807284300183,-0.5782360700571749,0.3849548126120101,-0.5051558243705846,0.6678521867209886,0.26976828520208623],[0.8545838303358804,-0.17092492582366242,0.24272122076221347,-0.5807791646745912,0.08732169583153443,0.15352664932843474,1.1998714937826342,-0.44826688369071843,-0.1460930679820612,0.17883501309973793,-0.20832802680753454,-0.582125447300314,0.1443534636369956,0.7608611034512646,-0.5908944733521092,0.7801671761160832],[-0.7599622046524913,-1.1375811860865688,0.8782598203819092,-0.16525152374806004,0.19399313989494485,0.9123857091530243,1.1933855224631276,0.28659148873954254,0.13686364764490164,0.8374518563648049,0.5214172729866341,-0.8313591238837622,-0.8109014161549036,0.07296471380413334,0.6697206721280319,0.09922204140583911],[-0.5248911379436728,0.2907578728513026,-0.40588101483090416,-1.0118428306189466,-0.7359982782311929,0.2693297859698366,1.366660777431797,0.6632377326435162,0.38212042835236737,0.9010536931059716,-0.2665617693922934,0.5059997785023604,-0.22031507386073362,0.051780941179493625,0.0035472547154347615,0.588748573560133],[-0.6707297956326931,-1.5778525593964148,0.08858504230771938,-0.25130271509266594,-0.08024746618681089,0.9509123899608909,1.119851910998391,0.21705291003460153,1.0025103658358046,0.7380980604935891,0.3702391452104353,-0.1940433950010925,0.010736553036190172,0.15784184306426843,-0.1697727442264216,0.4999716068738854],[0.6588902609623867,0.23605309736805222,0.4203152040901344,-0.9962488269582445,0.493490410135946,-0.4192602588575517,0.24103629770670545,0.20976143304211284,0.28679336304948333,0.47913302330057966,0.22596826095228895,0.8831309187587296,0.5174455173968385,-0.4634042253738088,0.7668931164382456,0.8087393783935489],[0.24145900224506023,-1.1359059233190107,0.4366062741964612,-0.7831698060575201,-0.7989860079915951,-0.4304082752543049,0.7688374940730504,-0.3520522345315375,-0.31656043952744034,-0.5618670931948381,-0.18087432499946557,0.17951210013272484,0.0884176301790887,0.6211558898363656,1.1626650239967233,0.825970199376926],[0.4132683250103853,-0.45636404196723357,0.10730635569959573,-1.0721104269478852,-0.27747152044690393,0.6414598863686924,0.5896029890318774,0.17743668577042127,-0.8169963053513221,0.2248864970674162,-0.42117015081030124,0.5510054033861899,0.1487910979005059,-0.37958765182845555,0.9653687582225716,-0.40686604330260356],[0.9103627162761039,0.19058509811857174,-0.5345139258760685,-0.21903235786079714,0.11702314213135337,0.1475330095379659,-0.019353756398967647,0.8846958439353687,-0.1927289639162304,0.14581214742963644,-0.1890681310373214,0.002005167181250863,0.12533380718951506,-0.5658939753756302,0.28243896695818255,1.22748277912819],[-0.8674844053846084,0.14255111266635048,-0.6484665120292233,-0.3465310521781103,-0.8917726957803922,0.7439842194031699,-0.2070568173729278,0.5086328210476131,0.9054067268567171,0.4317151572152329,0.7564131297006681,0.29702622413442803,-0.41973242973585684,0.22191402515127226,0.8615186312179254,0.7140707786212687],[0.7093267417513274,-0.4983976563046965,0.6691695329378058,-0.5080395771704125,-0.8176556244911825,-0.3359887248126493,0.48275094940055124,0.9201768285234159,0.22916990046081862,-0.4994303008844742,-0.31820589949804273,0.1979875804231686,0.4096495862035319,-0.9665759345814666,0.5566802810681067,-0.5899805963476055],[0.753934152683134,0.024416295306257288,0.30482618534991424,-0.5291146240717209,0.18966016528792634,-0.5580724552311197,0.5478726757613295,-0.3759354737736409,0.6167949042707837,-0.6880458550292523,0.7045387138740995,-0.6730078490198858,-0.2995316276360074,-0.29828739731436044,-0.2265363693942832,0.8625398314855574],[-0.8242859829178,0.40160327401143614,0.15076971949901785,-0.3582856385396017,-0.5696003306273663,-0.9274481897821854,0.5923688743843696,-0.9894126944913648,-0.36303126996938095,0.35333620536933075,0.3694083824291958,0.748911723647645,-0.06329512598070786,-0.8116818919257525,-0.7975992943157341,0.8854156754040683],[0.5202174562104598,0.6574865820670994,0.552626352070664,-0.06671246643759954,-0.979530693107023,0.24488989089660818,-0.08763763398871227,0.32059830778169407,0.5631444431722872,-0.11899849504029525,0.5025611914116916,0.06731856866311614,-0.9821542490908933,-0.512991021387792,0.8003614226933862,0.12697174363058883],[0.7463753302316174,0.6128091497780179,0.530757125955533,0.6657226739596827,-0.5028277822127807,0.9741729883536117,0.0498950630525119,0.8494966651209579,0.5005133478423864,-0.8620509382092557,-0.5016326362500887,-0.3767169765454035,-0.5104420081599361,-0.44558914401860183,0.9657672344896098,-0.41950603923787155],[0.6499528436644848,0.48942048877969513,0.7237966742736579,-0.16704421477911124,0.866697730914092,-0.7224016234187085,-0.975824829624893,-0.7361928004553858,-0.5765640649937818,-0.5215233304966709,0.38485026064531747,0.49491342524161297,0.7465928872589882,-0.3810081220853001,-0.08497029225432973,-0.22307189331641553],[-0.5773412234417323,-0.704397517835892,-0.7133538015673933,-0.21605079258671092,0.4624030574033469,-0.8164495271433843,-0.7447439419897325,-0.8486937179029559,-0.3494727539516938,-0.3187338288410682,-0.3366029953701533,0.07538193802194955,-0.588463461711986,-0.356943224158771,-0.053258506390011055,-0.3812857055408466],[-0.10284994284460636,0.4670880076149746,-0.9222221081080121,-0.5101189801843179,0.3621470646635703,-0.871387749645001,0.2621746814929291,0.6185079305211036,-0.05155764195148105,-0.2938768808649628,0.2568481418011139,-0.5556405057568871,0.33669121101558686,-0.26865051003424323,0.7081350602096779,0.7790314194523693],[0.8462381787692397,0.5687298163709512,-0.16086936542876,0.1857968759835431,-0.8008570068839085,-0.26048946008222745,-0.04655727295493539,-0.5828371906303119,-0.10424373666979482,0.05482115679562312,0.36793750390553237,-0.7045080395921978,-0.7385118987934022,0.720049103734144,-0.9170044634641755,-0.34618358046154213],[-0.8380538973191362,0.9130443186033838,-0.8361976836554924,0.1341847620705747,-0.10384032952431893,-0.24632162649874006,-0.5602550608116414,0.5180515891768666,0.9921377880649717,-0.47251440419847235,-0.5532918545411605,0.42429735096280424,1.008911666538952,0.015123699952191798,-0.05488993894010975,-0.2947389532861955],[-0.30240684072334395,0.5653334511481107,0.7465629873365922,0.08200997697896129,-0.8092905876665585,-0.12163083985904091,-0.07291428756836499,-0.5232142492206151,0.05389338016355538,0.8518667994256375,0.9943869111796775,-0.8891610478608662,-1.0562874962132465,0.5066434459864442,-0.05218679790672234,-0.2080113243356768],[0.9411984279079578,-0.9058865153907328,-0.53397593649929,-0.555407707789728,0.46459615021742967,0.4278570382540958,-0.3682309813895308,0.10766015271701701,0.9096797809683012,-0.9364263725920691,-0.510288250474211,0.32784688238049503,-0.35685426018548133,-0.008785650323879464,0.522448120849506,0.4764594451495195],[-0.22302806957691307,-0.7684982670752203,-0.4257590683376592,-0.1618534820619814,-0.1587986586348982,-0.5243210693125736,-0.1825706859538898,0.21237659467151082,-0.4010073602323392,-0.3058997067580232,-0.5037703318864549,-0.29008446189172593,-0.5328100426516982,0.6654429210380067,-0.7705820390263638,-0.6690344178296518],[1.0347306901014273,-0.3900395814567051,0.11013178647178404,0.8585595708696783,-0.9444156281630773,0.12771862542336113,0.6132611368330977,0.17546379195779313,1.161624313567498,1.144934014193639,-0.6569464895187511,1.0853555229837522,-0.46485949505108604,-0.010412344278276794,-0.8587127564595699,-0.09385337078583224],[-0.2051233396688716,-0.9885454607442326,0.9061278931800718,-0.4192317590806517,-0.9127048295860896,-1.098410948561378,-0.5181711962229096,-0.07438727137946756,0.996890617458544,0.46887856344902756,-0.29140954214443926,1.1555570428134552,-0.9776584188795834,-0.45582808209431214,0.0419560629331339,0.6003777105983675],[1.1775288623646811,-1.0571592620600856,0.40084321835788744,0.9062169761422211,-0.4046128266170369,-0.525367525119712,-0.26056374170412405,-0.8225884083786933,1.4723436731641613,-0.27912346785505304,0.31382329051564695,0.41840271824897146,0.36870493643443286,0.7541990822046406,-0.10081961379944339,-0.07224899238855415],[0.5774831836263777,-0.9060215254235962,0.5630371676575591,0.6050030333694514,-0.23995152643624335,0.32290423168927124,-1.2561842390478937,-0.12497413575131713,1.0631991983198967,0.4443325868546899,-0.4555544515899665,1.0226507733053583,-0.30323164931834945,-0.09704487386225052,-0.6370769905608216,-0.4996799259748974],[0.8472486576186666,0.0009126985199874832,-0.03604924617654318,-0.21054762323868054,-0.032474884420760894,-0.9750990772115956,-1.2222676682148563,-0.6947309576105811,1.1646997975577646,-0.27603165337197183,0.1399228415186507,-0.03332129605298991,-1.2461985167709104,-0.03356764002660891,-0.6972517207229231,-0.7239873861411971],[0.30786368776579714,-0.9760145522730227,0.7304480764661146,0.674250506336413,-0.5930257559766136,-0.15265277829677815,-0.3289115863734811,0.036529415090405144,0.40340428906036374,0.3836922812287638,0.4115131759524179,0.6523270524523874,-0.5294718149959508,0.18632227111757135,-0.8127317408149823,-0.09933961952771792],[-0.31544096091495444,0.009429046470899965,0.05791873916794605,0.39855401756523456,-0.8802252582969664,0.45115671281650077,-0.5552958554192964,0.00969880343319708,1.3068320741455919,-0.24410301134197823,-0.9104774823559729,0.1346560414458635,-0.24745799670238564,0.6049417954459464,-0.9853940587251088,0.35781502440436164],[-0.7042405466036085,-0.8757411434493082,0.12223953180295534,-0.3838334083447289,-1.1907264499045322,1.1657407717008572,0.2111741410975298,-0.2856498510589405,1.0946091759945178,-0.014293115282034946,-0.17449912827075187,-0.4860911038342331,0.588596945897561,0.5211984246628458,0.06881721396287663,-0.06631920814284036],[0.33446194489985814,-0.6415588547840457,0.008403294000502309,-0.17193182735955032,-0.835733665407832,0.7303788937096205,0.5662344576144263,-0.32708971578464474,0.13198586801613796,-0.41170109713404707,0.23466485482175256,0.16502173168952178,0.16976460551533912,-0.26722145866029107,0.38716766436909095,-0.19678589666435994],[0.2234497273440297,-1.429019466012051,-0.017191410082867495,0.07076322956822818,0.5389215027026028,0.44504345873390444,0.32449801848427406,-0.5335317987320232,0.05556015572226671,0.34947177225768594,0.44677531729376724,-0.16797604379483363,-0.3705789447226044,0.49795988783071443,-0.23636688609706222,-0.10210611429401133],[-0.3526529455367336,-0.5751555003337873,0.7627612574903907,-0.8720511509159435,-0.11162981889827671,-0.44674431689334976,0.9264590398212642,-0.2934362255489537,-0.5607599520498777,-0.6590670875913388,0.39204534181260053,0.4803698847640731,0.16043187513424892,0.5190964417601045,0.5201331036805782,0.6944137430535001],[0.34752078853538726,-0.37464713372634,0.650300784494657,-0.6874091348974508,0.17172014288616116,-0.49960441097613467,0.48663264806429457,-0.10748256825819075,-0.5231524432644796,0.2714505555510866,-0.04084640472247964,-0.3970832100614174,-0.4443024735450206,-0.984248838219968,0.4743940108329546,-0.4634280329322309],[-0.5273875943166348,-0.7940582649860517,0.07944621205694807,-0.1051143195054346,-0.16606055101338907,0.18905124208364252,0.6606481276381954,-0.47308317772700814,-0.47264593920688913,0.5826651251454814,0.4708969964485927,0.30045133921792694,-0.7479078680945561,-0.9844081440930966,-0.3663219362098819,0.4417068229968305],[0.7503353790826214,-0.33097945803761947,-0.7584891842615376,0.13136825452354925,0.2981382093596371,0.02959283439783452,0.8278105300311027,0.0026291030197457595,0.5042471573257296,-0.4867579679742474,0.02738408883668436,-1.012348263361688,1.0424307971227098,0.4658670599481092,0.47110682959665745,-0.30916150382415336],[0.7549549733168031,-0.08294679306182408,0.27246800219786427,0.4336568317381492,0.059279593528185945,-0.6635425310400482,-0.6621479773284356,-0.5180621891013268,-1.1680711756618942,0.500558814656239,0.29982002632718413,-0.3811825006241328,0.9088383394643291,0.2714903514475583,-0.3368995638588516,0.5910530476471754],[0.8352508443281981,-0.054893236388928186,-0.9207152134437979,0.5199324304808371,-0.6665966243076032,-0.3859095312935943,-0.10714633518624303,0.5948392397188436,-0.18999864982882528,-0.3332304275373791,0.07575124881915522,-0.238650860052302,1.008933939168835,0.25288971522590514,0.9261447764726622,-0.19729218819065444],[-0.049121720641843475,-0.45606105714866474,0.8603036128291103,0.8997619625369224,-0.17267171371637458,-0.6474157421427333,-0.248991425902342,0.4634653721719797,-0.5898110092090417,-0.3418895227423587,-0.13896184549038032,-0.2556730808921448,-0.7075854568118458,-0.5407216106303894,0.1396845957629298,0.7481494723862622],[0.6193781899481186,-0.662895056017232,-0.5462437830820097,-0.3416926207402356,0.016962965330610598,-0.39678479327337585,-0.6534830967113504,0.48758988005041337,-0.008465844175979544,-0.5693104724888556,-0.23615193368524007,-0.23650604845107498,-0.04300780533836644,-0.5012694267256165,-0.8000779746414803,-0.7255572443586511],[0.5576594082955828,0.21179528283092686,0.04411367701424185,-0.5146470356072798,-0.7012296780530501,0.5976453885167541,0.9053766615199637,-0.05281380812166481,0.7739225207180005,0.6746385261007057,0.29725302091371186,0.9599277833264894,0.806564780544702,0.25805538414663465,-0.42468422107989356,-0.07239068942665261],[0.9628493685425188,0.8748469576594946,-0.021682191491270708,0.8324057047077622,0.047610080934925136,-0.39569506599657456,0.35239050746129164,-0.9502860938596509,-0.9804611324758375,-0.7512570032281133,0.26878794237947057,-0.9695554095053442,0.23508111250074104,-0.7014034484700953,0.3794394111867794,0.2789511942591316],[0.9262583762725158,0.06767311801219278,-0.6336832392150704,0.4121559766437275,0.781762712483838,0.29082897347265946,0.3526562064304921,-0.5146322890744076,0.1812229046180438,-0.23645613902806462,-0.6286968072800201,0.23981243618449666,-0.5816966299433203,-0.5290969401032752,-0.5997591622853857,-0.37591148850964695],[0.3175871481690784,0.5393882736535698,-0.3641056075501701,-0.9348923642028497,-0.99116050282343,0.6781041271965336,-0.33253490294159416,0.6347303522632355,0.8973192915852777,0.6070915611816174,-0.9618492793098002,-0.10809522329057197,0.12817899015568401,-0.997693876056588,0.5521540347418583,-0.13707918014855025],[-0.7843748232535391,-0.6676346736224914,-0.05561897258394158,-0.72413229593493,0.22241159636542585,0.7379016740348018,0.4773753971263484,-0.05778780579653017,-0.8389849109836859,0.40424236959282317,-0.8354208106290839,0.7301008593757058,0.06928273398357288,0.10890678857364815,-0.3637325362190695,0.2813419376828445],[0.9028111383960573,0.033952860996125045,0.985286373292379,0.5799444269548041,-0.4982209310432538,0.40971748726576723,0.6248742783504114,0.654153666428497,0.13349421725023403,0.7304871301265685,0.7839144082151084,0.21972296337405883,0.3906190411099195,0.055968906650727464,-0.7094680662023121,-0.6940582584561124],[-0.5183374577715186,-0.6298821297692276,0.9173273239938041,0.5793588854501691,-0.9848842322892236,-0.6485240058797164,0.0307210538949781,-0.8060886279176241,0.5422448414147726,0.12861199000903464,-0.8722510669560016,-0.20026484910875328,-0.045283746055088184,0.3642804251069651,-0.09410025201119422,-0.6104769512787463],[-0.313842278668775,0.3296777103835721,0.5291910680638028,-0.47807729568560486,0.3609569961483303,-0.21794763012582796,0.6946288977075186,0.45488745726169777,-0.19606607478864052,0.3107213451803887,0.22397395004898427,0.7548128417477368,0.25048296812954923,-0.517368856027667,0.16325783992196802,0.5328215728440964],[0.46585087595208474,0.016537519697328494,0.4318872255278233,0.18313573816146145,-0.22102565060281926,-0.2165662933250181,0.621666439323948,0.08771956973854494,1.1830206436912545,0.502189521008238,0.6625233974239935,0.6427366257456334,-0.8671313550700394,0.006893618856358987,-0.4668287545974287,-0.942820966197399],[0.4517733899691119,-1.3877336942372285,0.8758471733954292,0.29827128225613264,-0.6800384071975796,0.5957596843439547,-0.05300709838219833,-0.9471422564267127,-0.09225360548400398,0.04535420492058317,-0.6522597172858761,0.39084079470749605,-0.016979011266695005,-0.6869318624502296,0.42662869763138034,-0.14435241032942323],[1.2122634704493798,0.009874029475748695,0.06434240167806533,0.919733679639444,-0.11974102091526583,0.14533959921475414,0.1297633762824332,-0.7406973805220971,0.7052320703006933,0.32513011459682845,0.06367426966919208,0.2924781113940997,-1.433764149905312,-0.2183042684259208,-1.1306786141893255,0.13250324178281453],[-0.12634663084236383,-0.5860736408166107,-0.23679226109426124,-0.2524215298564937,-0.31972778146864866,0.2895017614287462,0.18287250567438756,-0.34890529843508644,0.3590870591854524,-0.3391895277008228,-0.5872437317222945,-0.038041651916813995,0.14560505874559287,-0.34480209162614694,-0.6211237286122474,-0.011778115005115176],[-0.03462972538489004,-1.0129491142722,0.655180226788562,0.7872934798625947,0.20228334787267593,-0.37057222914378507,-0.9945663115595281,-0.23163854400532302,0.039623280653518896,0.7379019449024838,0.6040706290644124,1.381005165846584,0.4513164019098133,-0.017529668559048455,-0.4022401989950862,-0.6267992968789009],[-0.06540263914002152,0.028168615159100754,-0.3413069851771238,1.161794420511298,0.23572073684011613,0.13137346395354876,-0.28324550144793925,-0.18719817471922887,0.2985139786095358,-0.4155187789983003,-0.3470354102029016,0.29474274665720107,-0.7933208553474259,0.9608272384433292,0.03272447148396407,0.19273659400431417],[-0.7062556288242234,-0.044091007730773825,0.7738042548976652,0.4060664289390905,-0.5312737192237843,-0.4909765068123742,-0.5612985524902657,0.2084883958655355,0.21094456627428182,0.8036233286731773,-0.9355065933376863,-0.04551743399581472,-0.5216873417017062,-0.05466377260247696,-0.5804017226625013,0.46289168814983594],[0.3428904334005629,-0.24118471388415022,-0.022680575575197967,1.5266324125930448,-0.4208395043549919,0.09397139436895222,-0.47034472364202684,0.5913617320655666,0.11459770550807398,0.6946880867152909,0.5108705398254932,0.5208707471187719,-0.38589988736997655,0.5949905842931901,0.05880265993357433,0.41763662604959356],[-0.28456715594290416,-0.5035095495509285,0.1439290428340683,1.018700330295322,0.4024922327827492,-0.01934255584572755,0.08140862103618907,0.04806629386641632,0.7706012609415545,0.8614082712899401,-1.022447699728534,0.3299739802902066,0.08057519693375659,0.6420097882292947,0.014474467508029991,-0.7318410260392094],[-0.38290280879202365,-0.9280261750670167,0.664045902474269,1.1542597952663636,-1.0273957813201195,0.23817570074414915,-0.20656964923549548,0.5422221463210106,0.33644214691938196,0.2715937167157993,0.12609963406567645,1.0270610438734076,0.7262459752406603,0.4592172768433374,-0.2906252020634632,-0.2145480361637602],[-0.9755327082106312,-0.29913745772476197,-0.19818502541015046,0.613663380019757,-0.9918906978086718,1.176782845339394,-0.2105958990673136,0.7835429636214616,0.8054594853679119,0.5646085684274191,-0.02081650169547768,1.0654839955909616,-0.5917777502713876,0.7099730797374275,-0.505535158004697,-0.6400064465529337],[-0.541130917353288,0.22891038122366542,-0.28855868185426875,0.37112403856013143,-0.07136689263683867,-0.03856693020227787,0.5679888119116385,0.2831135679599683,0.2258390125362063,0.4198355366801913,0.4213660399198929,0.9497270823833727,-0.2911365732041285,-0.5649917543124412,-0.4676908197440684,0.4490817001713186],[-0.3022607743473817,-0.9501185309732844,0.0005101289935441238,-0.2329817688714643,0.35285951139526367,1.277780253167225,-0.46884986779885274,-0.09975306763523893,0.09106951633111572,-0.28376015517912,0.4090335576258615,0.9123914768481564,-0.4800535367402254,0.4257613942312632,0.8846085795724801,-0.36707790365356796],[-0.20410216786473118,0.3567044417393305,0.37810040731098726,-1.0410316370886057,0.7982720441870608,0.5113001541144284,-0.22501383175660994,0.988514359038689,0.5584676472498376,-0.0978243117519149,0.9455082883933955,0.38691090839300396,0.22254607370766918,0.292988207530374,-0.5075018752316646,0.40189565391291204],[-0.70340141680053,0.21545130315923336,-0.31085061936547753,-0.5236661413341271,0.9395407244799673,1.023424946404706,-0.04199968125507299,-0.2862285004792259,0.09094630251282113,-0.29184015650953293,0.9862591300123893,-0.6712439131954283,-0.04077640253626247,-0.4570876467744703,-0.32587065756453765,-0.4806895738626189],[-0.5388021008811051,-0.5249512211338047,-0.10328835237654299,-0.3743728591175957,0.6044325743954042,-0.49281183961204283,-0.1705890527791234,0.4141507759584422,0.18353586923542659,-0.6451528263200055,-0.2063252761927613,-0.5435740607252667,0.6754712235448479,-0.9682961162463797,-0.6183418726858436,0.34010641003370173],[-0.8517760034791733,-1.2355819358599658,-1.4322814522066811,-0.30713590984046946,0.2979506101083561,0.02928198217527032,-0.7014854881631657,1.1972650736815342,-0.699267919508679,0.2582490442886219,0.11629916349810425,-0.7372583562232707,-0.30820107078228715,-0.8409277410093526,-0.6387571551737754,-0.5628245101685995],[0.10432858213839594,0.4556404920551483,0.341968578224089,-0.7768472259221757,0.7249600011859827,-0.14805856344455867,-0.9267298095504052,-0.8319370028297084,-0.5303489776348536,-1.1158394590984706,0.8614471673279538,0.31472286078193124,-0.12190073351707861,0.6319030306678891,0.3142894702816203,-0.01552097940638526],[-0.2802155202298141,0.3594660898646748,0.5510576136913546,-0.49659854873259346,-0.36681756751092054,0.8636952808984701,0.6241002151255451,0.8331083245701661,-0.7606146394117492,-0.2702287860760511,0.3749482964547319,0.6591161243233414,-0.9372674045339465,0.2751092241365081,0.2652906482569319,-0.32129814633930975],[0.5252975781654188,0.3007349176688549,-0.5404270216491026,0.874588036188053,-0.7502886265686971,-0.1928376769966637,-0.241554848159586,-0.1923462061392725,0.9774793315838237,0.5708270036718842,-0.5855061342250117,0.7032805678950176,0.1766065452252292,0.0453437714042237,0.1685864378909262,-0.5863443007394212],[0.4008658510820551,0.670906022357638,0.35454806699179975,-0.998501639983766,-0.10391406710119222,0.8844629750074273,0.03975854801852896,0.292597091383773,-0.09617993023660776,-0.3900076084328693,-0.16499063160182448,0.123066997763837,0.6366892069096428,-0.9160087987530626,0.9708026576433746,0.5631218450715902],[0.7319022696196829,0.17259201848168804,-0.02861008079037508,0.22773067027260718,-0.13114161418286152,0.05054031837790762,0.031136389184170055,0.7446162481098153,0.6166356290734807,-0.41241831747249313,0.24833091791060546,-0.11198685063457481,-0.24515055649016482,0.8819410544661912,-0.21911587170101032,0.03203776755834098],[-0.4969994170546116,-0.5890325066897508,-0.4230988094421535,0.5230446006680396,0.5876912870794226,0.36265091212122136,-0.7977223284990378,-0.23713467367586882,-0.821635871945475,0.679043409852276,0.28427509226383174,-0.3118553008364361,-0.5664734801294435,-0.401304112641535,0.4102553432508933,-0.3888254110935616],[0.2874700630105655,-0.8313311470084649,0.14908333704087223,0.49624811122572243,0.4316460135907634,0.45216387827137683,-0.7032146775106561,0.36764805255438565,-0.4340045765289764,-0.9095126179761014,-0.1052795816740293,-0.09768550478999466,-0.10622584408664967,-0.21173451383655964,-0.3759823504669312,-0.7122287861920535],[-0.17420479795467564,-1.0026462913523504,0.9707579649093192,0.33436412971658247,-0.9405039562079415,0.5750045863858404,-0.7288767206587901,0.7459869215397292,-0.07344910808224869,-0.5017250268380807,1.0062173361464029,-0.25595421030172394,-1.0066814727055242,0.4588718056025918,-0.010922191052943309,0.8055009048880098],[0.9238788831824407,0.5188235107338789,0.6058970676076155,-0.7608660392652346,-0.3351907267587896,0.806476105993245,0.9837682920468767,0.5381897546639854,0.8145373010477089,0.5225346289747695,0.30395460219971326,-0.7390238824910426,0.48951498586849845,0.273839259888419,-0.4599956582463789,-0.46549482174455536],[0.4149595660007612,0.382643726583777,0.22039535734542584,0.5214681095866174,0.49473136872051865,0.1450626720942554,0.2611111392100214,-0.24482243804975734,0.5835482719164471,0.5200619110198811,-0.20278524150309404,-0.9013059953060435,0.06240102147342699,0.7000433326291878,0.18424805559486315,-0.48930206705953855],[-0.6488496103092887,-0.43855775297024113,0.42037699116903327,0.4649232667765462,0.2617302701034603,-0.8667742541884634,-0.7138071530764833,-0.29963282725926865,-0.17563001846841847,-0.30135311757179023,-0.6792420278466056,0.6941955339186399,-0.34981326015278785,0.13430143892143767,-1.045037696990035,-0.9859870230544587],[0.597040004395337,-1.2606451023333223,-0.20097256983498243,-0.39156059771398743,0.08317896825895436,-0.9775370571240265,0.7424441367273495,-0.8211456891752482,0.6475298638823497,-0.17417298372111423,0.49978243549152,0.5100062257970551,0.21807460145270727,-0.5235230792089024,-0.3375121657138541,-0.7605124599125186],[-0.40582448028647283,-0.41158821217129504,0.21893626389069984,-0.8172105114381717,0.5509359731122826,-1.0627169323412715,0.6755071855282697,-0.07302772906681061,-0.7150138067341784,-0.3114963646900784,-0.30242643572301536,0.7417488985080064,0.07887414601735603,-0.22101701006540525,-1.3168567378536393,-0.6038497845240697],[0.44965938690810714,0.1742868502164438,-0.059351638003399085,0.8960849005987289,0.7978396597912112,-0.3492123638116693,-0.6297624741690474,0.2409659571107784,0.18444095900407598,0.16629304811235696,0.756039014226376,0.646162304009584,-0.2417777026240458,0.6490259553629821,-0.2068215531434337,-0.526112624858949],[-0.3438699995167489,-0.10618896937412736,0.2137060399339024,0.8779787778981983,-0.10907872684999355,-0.1781199982771482,0.23797880087163517,-0.3660007488420289,0.3556559022602053,-0.16661532844984156,0.5429626572956455,0.8205220923404967,-0.9413762835111151,0.33773741096149884,-0.6232612408879074,0.6117124697286771],[0.016293957776668158,0.38782300548987564,-0.259333379291692,0.25250048001455166,0.29210386096802193,-0.9798411626883373,-0.8199617885351266,-0.5017273405913686,-0.04793060548629506,0.2425900292008685,-0.4025442501705486,0.45755517615217184,-0.512935676264083,-0.5563502411028292,-0.03102428864703166,0.3501151414826695],[-0.2366997596804926,0.2622177728228797,0.13222729720563478,0.9852784934711643,0.10659931284727045,-0.11058308837445124,-0.6736883835348115,0.022611960026266337,0.5489810235194682,-0.3888663190150858,-0.6698340861304765,-0.2527327806227879,-0.5884209122526806,0.402246714852156,0.04604206657958162,0.10350285431648999],[-1.194395992556544,0.5832850402229115,0.7451663800812459,0.19613795128693282,-0.15189114979977963,0.8935047122634862,-0.5484002337397536,-0.654518789851677,0.8487694684463094,-0.500906457421395,-0.3702253075123601,0.44939043732785505,0.6879750230594044,0.5539887216070478,1.0598395665773457,-0.6371224610389715],[0.04222955687894331,1.1242479251659105,0.25693246343348847,0.09501983987133777,0.1655136863077264,-0.3686379603627628,-0.9288556968417221,0.09776313909049868,0.3061475983977502,0.3433522286681121,-1.1517611407719337,0.5071851357120714,-0.3574467350613034,1.4705437796877605,0.39690208316343756,-0.31443173700034344],[-0.8339232941087382,1.039160181469236,0.09900421724948093,0.0774028293672975,-1.0983594604297797,0.6232816282007505,-0.22004470960243122,-0.38648228771395143,0.06444546800694512,0.1464955056237819,-0.9536292142411066,-0.05417527200108129,0.49149663887831163,-0.14713001542290247,-0.439937865334419,-0.2877355517986976],[-0.1935758138261046,0.6991053728723288,0.27103634575105195,0.4342999503340042,-1.4031424329212523,0.14342995610510484,-0.9317893828137308,0.1466082552114564,0.6624279339765893,0.012744944052293105,-0.2682063897630929,0.2726813153174023,0.7049815841730901,1.2084392531952237,0.130270381365467,0.33732108475262307],[-0.10248461936309337,0.47199533043796493,-0.2621480223885248,-0.5540341502021342,-1.2668632777075939,0.045824708592018634,-0.5290577263903357,-0.7967268271529635,0.5221219403844624,0.11851085496390522,0.813350325151632,0.23992763246111004,0.14987211162334452,-0.6436131559577651,-0.6154553540139635,0.23462863611912418],[-0.2727841015923477,0.5707455576570694,0.15715798444172135,-0.3097635352536394,-0.18881430885381711,1.2045848172162235,-0.8797153574509304,-0.36341421916497213,0.7816391813564675,0.7259675994129211,0.3559712214345204,0.31293290091517095,-0.4457321303725939,0.9087849716874614,0.31968298756645325,0.3946629643956547],[-0.9955678133721227,0.14941242111755196,0.20988175029599726,0.14571420120768705,0.25809575135134116,0.4778413942703662,-0.09953365670344344,-0.4435833846163087,0.5188623029577518,0.2804101948043298,0.3378008336956914,0.2818982484278947,0.915910497336827,0.20639346588320023,-0.014398654179487314,-0.4017529067483577],[-0.15483756676307953,0.5279400915311312,-0.43264432237675204,0.5320738856142008,-0.09986754184770419,1.0178815134255828,0.10982733819436556,-0.6221410590485805,0.18835128117732036,-0.6252233423978473,0.5782803464381351,0.43424063966996385,0.07950953340488541,-0.3301387360831428,-0.18826428383375446,0.3970729645831665],[-0.4851822748263798,-0.09907140078144543,-0.1615519938484007,1.152116082107179,0.6025809124529904,0.046086293344281305,0.200401130826449,0.10468476995238389,-0.352305486889412,-0.04389083044158785,1.2937252595404414,0.10377953997101928,0.626133218791731,0.9083281108740204,0.6129331202732465,-0.1287479155899505],[0.1074955765425389,-1.054859795329711,-0.6463627899118092,-0.2920029429726079,0.6091074005478716,-0.15495964254475997,-0.7249548597437915,-0.7419559553493932,-0.16147460735608696,-0.9208046797528425,0.9956288124003358,0.5251232114088813,1.2105638009480442,0.4046243269330521,0.6292402833709346,0.5694455518153494],[-0.7099475995829151,0.5611359759471375,-0.43151828094618294,-0.00805780000024981,1.2257592082177067,0.21785016603262675,-0.8215160611055078,0.6422811864159829,-0.4035661151458963,-0.9605928199760683,-0.2084946738539192,-0.9318218439827811,-0.0029438090011913434,-0.5194622269668024,-1.149822314891591,-0.32238157209895285],[0.3457520483819221,-0.04332189752817278,-0.6613881269237221,-0.46599329348012863,0.043353447880460826,0.48576864532012964,-0.16298557052079987,-0.4032925563704372,0.2799676632287726,-2.037402916423701,1.042637129275283,0.1985542427919313,-0.2722502658058132,-0.900779623071665,0.4632156034130526,0.3637386665208636],[0.41992771184449434,0.20343826538741486,0.46119633012395495,-0.548723255900604,-0.46435427227099474,-0.07224698009404844,-0.6616816950726785,0.39318206357964314,1.0088839775834433,0.2024291109665611,0.4302015134174915,0.05335333141229942,-0.22468630714301435,-0.31097409633919454,-0.15322497326751316,0.6342928971231555],[-0.2281590629467152,0.49246014864918636,-0.6401673041594401,-0.41064381304821224,-0.6410273400256049,0.07827393440959471,0.15873224868543795,0.08832381623537802,-0.3502737647397705,-0.004866558203963589,-0.9784264419350398,0.7406301300828775,-0.37544195146905246,0.04385137981724244,-0.4055416445065177,-0.38742911567624716],[-0.027929036909943587,-0.5404958713157458,-0.5175483693157573,-0.43005203565610595,0.8065651815678487,0.26103984719467827,-0.14900844814726982,0.28932916166716294,0.9065570182902422,0.2518293577715299,0.10244765651034794,-0.8135535749508924,0.10113328549231922,-0.8890217380182291,0.24974715817084167,-0.3772449143001723],[0.7996102154549656,-0.3137981226399791,0.44952287178936934,-0.3978476688984789,-0.428885620368604,-0.8232366072399866,0.27120927496802016,0.5606379002397262,0.7439285438972436,0.6402909293940597,0.4516886681484922,-0.8679070729061853,0.6103327868772697,0.2335425107675284,-0.2891406141879308,-0.1936461892791128],[0.4708358805336992,-0.9033354872024961,-0.926912905767925,-0.5877442287894095,0.5407123692232145,0.7367948760497472,0.9879285763365903,0.31865806518259976,-0.011687854808632823,-0.3305341480177412,-0.009982810313342767,0.8394947125343774,-0.976285392831759,0.23789690319642537,0.8677331943655573,0.15382310949606887],[-0.10768553782931735,-0.28732420530565844,0.6062864470295453,0.8322655900607032,0.9457865102410801,0.3415887548699921,0.5492223718347516,-0.7333963826127724,0.34851289379967315,-0.7555795963107484,0.7510558928198191,0.6791702174525419,-0.7810327619570545,0.8801525237448822,0.9340775275117691,0.7531717124758498],[-0.6813563501622215,0.8198433068101575,0.7587949261429787,-0.663307364110676,0.7781624620149532,0.8262705293025173,-0.011351577927679598,0.4884787855602391,0.15695276436206687,-0.7391041935014716,-0.0818009190498373,-0.8481990645622858,-0.7763793115316623,-0.5512648789400291,-0.03044142471989044,-0.6165322555357968],[0.793261853057619,-0.33361873279343923,-0.07750003753963994,-0.7461930441995324,-0.8682293313376034,-0.725128607357411,-0.7507504896927872,-1.1196442861729308,0.6876023535967494,-0.8918825488902498,-0.6046999814191117,-1.0331058408466816,-0.1049095179264701,0.03383891018201141,-0.37614224767372056,-0.8998568593445385],[-0.09137708887643654,-0.0013603206867097404,0.23110208910406124,0.4695824520823399,-1.0499784384542765,0.7759761569751313,1.0134970965093593,-1.137064441194293,-0.037768873527829185,0.4281100258000385,-0.036294086200226165,-1.0246272975295048,-0.50964835021659,0.8232663115711326,0.3981885503181513,-0.8265583314029642],[0.8139169960780851,0.5071413755336451,0.8559985361666631,0.9410886610626646,-1.0207740990246401,0.1939106134708714,0.4490540782730299,-0.6730644363765691,-0.4942538544515884,0.21476745382525492,-0.297342205841055,-0.3068913063448258,-0.6877264980304534,-0.5985333619724008,-1.271586244375922,-0.10619235470558122],[-0.15428164926154364,-0.307955848645364,0.6041402422636027,1.1754591071982197,-0.2856780129830444,-0.7610612924787903,0.07569422813417989,-0.5471975110594847,-0.5433281235535832,-0.7257055252508828,-0.3953710661875852,0.5395047764712511,-0.09715582879245502,-0.5519340686982475,-1.1208815318301113,0.5525567997649794],[-0.8643620458749115,-0.733179593846753,-0.3833707775911243,0.21627498729440772,-0.2419913069596527,-1.0380580901903471,-0.7134411320744996,-0.5074894273126834,0.4173770868232051,-0.1693605045947153,-0.5705670145836138,0.44305346338073565,0.4868394791272144,-0.524701062449651,-0.5553441720710188,-0.5336285213260301],[0.19444084449627044,0.12481672344133246,0.3543198916593709,0.7873976474630775,0.3446079283435214,-0.5364766629985523,-0.7353321885565056,-0.41986499900116786,-0.5452871692976995,-0.43066389897854995,0.14377196982956672,-0.6870399069788092,0.3591579913076522,0.6637633213694355,-0.40739412071365394,-0.33085985807741874],[-0.2649680520295972,0.5156183951032266,0.2926185613840708,0.2860125740153417,0.20331784961377292,-0.28728091355830637,-0.8977715731149195,-0.11780523861247034,0.06304888349703737,-0.19295172968864602,-0.7084696172076842,0.10625179137993039,0.8739003233830384,0.44562193867293065,-0.41192735608548253,-0.6739303022325444],[-0.42884813068213556,1.6138522406333558,0.07900180116768099,0.4303041087447115,0.49675821436151946,0.3710505376096899,-0.5615508682181831,-0.2023495367444287,0.3386140846622951,0.06685427121383841,0.0022021076233295603,0.2126657020097037,0.5098093318315964,0.8175706792017553,-0.45553710779295875,-0.5572853400998191],[0.7437954131042689,1.4579784358830485,0.20032298939091858,0.35289542788500056,0.3163039053318735,-0.3020104591072028,-1.2906863449519133,-0.9612961105373273,0.4560457726491633,-0.5071754603597926,-1.3112748495753015,0.23114838991160597,-0.06590605261355116,0.12294721618463939,-0.2451350545327895,-0.751597635855088],[-0.5566959433089719,0.7497747629025391,0.5053981239020661,0.012578420354452951,0.5614415338524146,0.15074719489186483,-0.387344085375622,-1.006906256880209,-0.33153518802171433,-0.0071321143825767985,-1.6576895426291405,0.543658468505462,-0.23462393616125,1.1222053266911334,0.6135178269055477,0.24856794377017108],[0.09339038464395522,0.5763291243147799,0.9356903598304845,-0.10155804868783004,-0.06180000873217256,-0.773822789700829,-1.646046924727805,-0.990674279357198,0.013132916808636633,-0.025869744069218808,-0.24654309537220914,-0.1566886063258991,-0.002117055501059021,0.35507716429059716,0.06630009994328875,0.3203369728457654],[-0.16521846922890823,1.2462409857152197,-0.22257724166480705,-0.06356471563496523,-1.1052732739610434,0.45752601640932716,-1.1851024927210836,-0.8392735764234747,0.7112297469531451,0.4443795776272487,-0.4194512039850461,0.4161756633138818,0.6099610682291395,-0.0798196034395186,-0.06058438379746306,-0.2614037173784691],[-0.31482015576015715,0.4866389759138168,-0.5367107975963381,0.3114644001865667,-0.9388271642640392,0.17657392701824204,-0.9345543648128584,-0.919842775582676,-0.6644066994748382,0.03509892516840496,1.06335275930716,0.2414502359043551,0.6427984606391782,0.41543884609500087,0.1081195100298423,-0.1471746306324226],[0.10574126252216945,0.8510435418351688,0.12701801127610587,0.23368858698402883,-0.7926841538163184,-0.23068018249975059,-1.559663773794206,-1.308208759651366,-0.1735154663064731,-0.1257017178599302,0.5755255944285853,0.23655458306150787,-0.16076069227163597,-0.031715374770700265,-0.7349149285995504,0.06999198779544172],[-0.8537310864055223,1.242809088552646,0.0018438515828235744,0.16937157425545593,0.08215288003670554,0.2661919582202087,-0.9221126364485495,-0.8506955947440543,-0.7680697106058167,-0.028556871469135395,1.7090996942025716,0.5986944767481649,0.30143887534155867,0.5897951781592786,0.14228233473425464,0.7177016280529415],[-0.030154299566375307,0.2939508568947876,-0.20969315981960165,0.428339129739015,0.01228375341823257,-0.23308807547981525,-0.34887225866050636,-0.379048606447458,-0.709804207954575,-0.21166517543350152,0.6123530744567967,-0.41680019068544827,-0.5529930849640595,-0.7652981943878512,-0.4888030728198967,-0.11007234143959133],[-0.3684324997833616,0.6188215121931796,0.009500577791579678,-0.12488497505192417,0.11302140658341384,0.924217705754228,-0.501749181346312,-0.6951267167703556,-0.7011880841244282,-0.7248646189810329,0.38791568032247437,-0.3239285891593925,0.12526124289444024,-0.0243868548766775,-0.9216979831594504,-0.7871739293522761],[-0.37907329394039335,0.4089144606761841,-0.4804677454623881,0.22825889826488435,0.6069751658316079,0.5024557892831865,-1.0788030800955628,0.09548476090393285,-0.11631429464382657,-0.45582163693332856,-0.3391036298826439,0.03694885128127003,-0.6638951555217519,0.8788881811600187,-0.5834948055039433,0.5385065576470134],[-0.9267748956314592,0.03011800178815417,-0.7161421112921855,0.12502345532977027,0.5986070767055115,0.8787283819643377,0.5966313281198421,0.1106987343843839,-0.8457498095540573,-1.1548881608579034,-0.37254649354043934,-0.9475575849486584,-0.29066164816658807,-0.2550597504756591,0.5599015547465005,-0.9718818465568421],[-0.5355723611074563,0.6461765505681262,-0.3416887818220444,0.8380818240903923,1.0986559192356908,0.8558074226490127,0.2374187749344091,0.9370114712053107,-0.33968000204133253,-0.7213831276910163,-0.14799996403684218,-0.6718825613849551,-0.6901395430498583,-0.6308752407187086,-0.9535410584701309,0.26403835689115057],[-1.1563529272864934,0.22812021673029392,-1.2281316283323698,1.1095977633514096,0.6642155065345002,0.8331931249827853,0.7594213763478492,-0.034369820158215734,0.38631736943133477,-1.1817213673991152,0.20459915128045472,0.8220502929216202,-0.6362387055763838,-1.1413357736270282,-0.48568291073526043,0.17267326967141067],[-0.5583981071648155,0.28709083778836875,-0.6684696735205273,-0.12129969398047202,1.3416127180893593,-0.8712695261784634,-0.8376745238534733,0.42947263256259455,0.0618022680192422,-1.056196824010205,0.26638725555314097,0.39270898913274027,0.4105177764123917,-0.2528801679776968,-0.37234673989192413,0.718364141273523],[0.23244549269213963,0.21813738217145384,-0.25770753523428713,0.693035103835212,0.977019486860093,0.20816697422223107,-0.2416602893736052,0.780543335957245,0.5982586633474996,-0.4901192612837376,0.45903714726132466,0.920907278120017,-0.40411586548698564,-0.12443654581691502,0.7933703986320133,-0.5293061333427149],[-0.3600213526623378,-0.27481165469800833,0.8340734651023939,0.2574207116647397,0.32056787628485744,0.21842633790641836,-0.16749326662849398,-0.8587945470985567,0.01434005405973522,-0.8315278246311756,-0.7878738562621629,0.6103476037562057,0.062207801931848154,0.05264520704577621,0.14275266408582432,-0.2391588323931348],[0.6451323525066254,0.2727435028523494,0.0125767831798805,0.8982978635132666,0.5412897561135015,0.6824356641233692,-0.12211811764310158,-0.9821130689300925,-0.12201247548764536,0.41553397024178185,0.11407375647443385,0.6209883928010262,-0.3822963548745374,0.9275527236874755,-0.2353041110634147,-0.8152220165859796],[0.9266296947732271,0.8976277387957249,0.7834802432146943,-0.7411460572287701,-0.7180599236862821,-0.5480164693779626,0.7078524015486791,-0.47543615082864776,-0.5823389985068392,0.025602667329200704,-0.5928968368476575,0.4592223734431039,-0.6081362334055026,0.7342559095847448,-0.4915610334943413,-0.7147686312460974],[0.8116467480189561,0.8557740875809632,-0.7971735567433771,-0.026908829560215144,0.7498000380911233,-0.05266708201749598,0.7402789959024202,-0.13194880345544932,0.036281667000194744,-0.6619749813614517,-0.29468074258299326,0.45192662731373423,-0.45185385021181856,0.32594230463309404,-0.851903089597424,-0.37221758588273396],[0.5620895728469117,0.46798898323783966,-0.5767896671605085,-0.7313431872326501,0.2784749717084521,-0.7538242063488027,-0.08342737775342245,0.2349102593499347,0.959829170513617,-0.996308823055278,0.626230927577736,-0.626618240350029,0.8691809135996619,0.6973039866517524,0.07211183880491351,0.16227587007065106],[-0.3733539474059966,-0.32707970596412245,1.3615441878159538,0.6861681925824379,0.0020941703794090435,-1.0048344350296796,0.07880717478231987,0.2899747954446357,0.4490893009115019,-0.19696443233375982,-0.7617423705875305,-0.834074646258477,-0.14581502016799275,0.740498590327039,0.047283644146059976,0.5189909674951801],[0.8777677474285979,-0.3355173343243953,0.028335592899528864,-0.15658784209642818,0.1727063461067628,-1.1454094468715683,0.10952781494756603,-0.9127508262772809,0.02397804243701395,0.4764164582316291,-0.4700923317742276,-0.3531601808707358,-0.5170715511368159,-0.4093733083967738,-0.2364696900534358,-0.8271190765434174],[0.2783675339427704,-0.37580927845312134,0.8763154524489609,0.6212666225934461,0.016122520644895864,-0.06566471733855171,-0.18437583563055368,0.6636279664605356,-0.13002046917655546,-0.12383780076231458,-0.23178844720803476,0.14191592858992566,0.44304683041639253,-0.3411248190307406,0.1329152239339454,-0.7164519469488291],[-0.003915691980035757,0.7445642647978745,0.01766759884562313,1.1294475197175882,-0.7850188874543442,-0.26122830332539315,0.14557439523937724,0.09613453203175125,0.4292792721886262,0.7673392554754848,-0.6886556586589319,-1.1370188629301612,-0.7100803073854091,-0.07309304600137992,-0.8924222718171956,-0.7000006579246063],[-0.22963634444154724,0.21003332161971106,-0.3520080959720339,-0.10208581018492659,-0.058890152456365016,-0.1680888539891611,0.71462612115623,-0.01864464919724313,-0.2070864363371304,0.6125373248579159,-0.7538235616342589,-0.018913006343389546,-0.5285792269587025,0.4637215143639303,-0.8008169761005686,-1.1883352039571542],[0.018859550816108236,0.7353301087473765,-0.8101960780758908,0.5533153171716126,-0.15868147270000724,-0.9156993317767346,0.13835117446056205,0.17155434984783566,0.2124240741581656,0.018859648196716844,-0.9867120584168579,-0.8403383894758986,-0.41762242638313424,-0.7273235043903723,-0.5451006413826407,-0.9029451848711141],[-0.7250697171874299,0.18378702266657046,-0.6781264820212265,1.2398254773036168,-0.17476499100670095,-0.01851745107441918,-0.35166603541846136,-0.5562134904465337,-0.6675269433842123,-0.15528799047220065,-0.5488471546702667,0.18605368490810859,-0.21312433083826077,-0.4757165376026231,-0.5873982148480874,-0.1959232889778878],[-0.09555018829107319,0.9145937527397812,-0.19171279032069574,0.9025689128885261,0.45024323364702373,0.43803850993929816,0.48026388434386186,-0.38151042673389335,0.10529737825388238,1.0105987215226415,-0.3009912705285619,-0.8067752413497767,-0.2010857278964434,-0.3864570313106794,-0.7226543504742015,-0.1668101302602757],[0.7016114609755898,0.9689116741632082,-0.2412754451976824,0.6359425877507192,0.2304929498732642,-0.5747630775046014,-0.5821321891672465,-0.12106935897230796,0.20280485626628594,0.07540721887718409,-0.6127871380867128,-0.44965502801315194,-0.06459908903319858,0.061129239514112026,-0.24087983805372803,-0.5503331955491403],[-0.24895784268762705,1.7288318066177695,0.6283852917238283,0.3298263183441625,0.871857571902717,-0.2978105099009873,-0.18611537897568745,-0.6258808352305419,0.7153706845520854,0.3842298220173284,0.5401630997927148,-0.12135621323943746,-0.6587387124847695,-0.5573874290589718,0.5408508258351344,-0.5986569045054895],[0.38425956762255975,0.5636396420001784,0.39845544950489464,-0.020819762024250135,-0.0785418195376211,-0.14952225607782127,-1.953745191399697,-1.2595628090120605,0.14329977893855056,0.41080998175883116,0.4086665684110948,-1.0634677986801229,0.15305341679096507,-0.36767136290176466,0.15026022423100052,-0.7861284931897042],[-0.4726233664660899,0.6894749621774808,1.0405258785366338,0.0012268743044447608,-0.6778535901533429,-0.6293007999051065,-1.1272916581483967,-0.6499378151184665,0.4711191985759842,0.6398780164273729,0.768346655585731,0.14093328236758532,-0.44338897610662126,0.7009322368721355,0.03986606657243585,0.6300313865080444],[-0.5472040369569388,1.4558490305288336,0.40012087085235243,0.2752580519319061,-1.5654123147497854,-0.4514954386053528,-1.3124545375761871,-1.1063892698544469,-0.8827232196868126,0.42345096663159354,-0.17991340050755034,-0.06319827269482195,-0.29939074789172276,0.4579812292878274,-0.3833609340459362,0.3034811141420151],[0.033072951320253945,-0.023673903929917337,-0.1845459446614846,1.1177966987995018,-0.8313668947405741,-0.902042772371271,-0.16791984638450785,-0.8979468841878009,0.20678985514985737,-0.04741099730153734,-0.26446783367418997,-0.6366992118906949,0.8930347805748887,0.6330380727931115,-0.032515839937608516,-0.061628766968805176],[-0.43938186800506634,0.16944646377411876,-0.05537959182855424,0.10926196975735465,-0.6556356470624577,0.7486327645335858,-0.020012401707249897,-1.1166286762535225,-0.35532086974944865,0.09896829224799882,1.5993690430611889,-0.8267805326246623,0.45105358821623426,1.0279459915223572,-0.08444635165918019,-0.605699521955258],[-0.11254701795265333,0.3921883153162675,0.02539668421877656,0.9118878884593593,-0.6849711543919051,0.6368614486866642,-0.2554574811337977,-0.044568004234808174,0.08103482029035365,-0.46177208887295984,0.4843025645281751,-0.4212246133016111,0.19440970099923108,0.4587381381720805,-0.4481966304866939,-0.4904234116829513],[-0.5072593183588369,0.14273761013454883,0.5794105309077937,1.334196259990888,0.36152613380762255,0.15829490722328718,0.21021948945415547,-0.6401578309408671,-0.6678332419764752,0.2674494176112992,1.458628748802799,0.4776279422446056,0.6493610226416987,0.03058001287772997,0.505598545322147,-0.46366868430032676],[0.32427097080050526,0.7332829935276742,0.07496470038986612,-0.04373546223272113,-0.42955289318751566,0.13938366539607755,0.1538266411718349,0.25438058403320135,-0.20086923418990899,-0.3801471162042196,0.26313372381042105,0.5198206808783319,0.09142747380533729,0.5790387645081689,-0.35241392319864273,-0.15574660497961165],[-0.4960884795890437,-0.18359881132247827,-0.2575133278921603,1.6025573562760893,-0.18168912423508918,-0.255735690687022,0.7017401011877228,0.8260447951420434,-0.4885973234591116,0.3365103993450803,1.3955831473145601,-0.04434599455682355,0.25844212579704745,-0.2960037770846669,-0.5303649169180648,-0.6173402629005064],[-0.8635911012870365,0.7607057305915832,-1.6790362077985141,0.44343312637824284,0.3970754438540329,-0.06830148067008088,0.17412743411951456,-0.14193441458583653,0.4054156976448874,-0.69839365795007,0.90717669103841,0.08574361741273293,0.6179489692761156,0.3384076576574453,-0.26400112349876564,-0.4771949592155964],[-1.6936663549750473,0.36976019816109107,-0.834647157722338,0.434993470114974,0.6745129448537744,0.801190916356875,0.1314676206006024,0.5341456215833658,-0.8230538488809112,-1.359241923114971,0.7357303583605155,0.5798012775983044,-0.005554298579793371,0.46940112312700766,-0.5741214651006856,-0.38425288029318116],[-1.202588289625738,-0.14995500113514343,-0.44484323504319506,1.4360751051558602,0.7008414186480583,-0.25887588884476714,0.713902504986262,0.9651496475883644,0.9257802768340534,-0.8108534770802778,-0.7299123586113989,-0.9896948650405895,-0.06991359722776268,-0.7180506646040145,0.49480154587739456,-0.28502609372649224],[-0.3766448657066384,0.8609827796984868,-0.051288816654605704,0.30764697669932006,-0.17976289003439747,0.35470173605010763,0.00395117312276618,-0.1576391811091075,0.3867959650127919,0.5248375475326278,0.6551806984766586,0.1595910362817745,-0.5070442380774737,-0.7629220589398755,-0.6534704107106065,-0.9213977940725064],[-0.4925410026704412,0.24614699710013987,0.33738132113977815,0.2213672905972644,0.6732721566922216,-0.6052759102415586,0.832852047449264,-0.43111147845450315,-0.6568166903027223,-0.5625258867586325,0.5361620157955966,-0.5503534036500934,-0.41479351797459707,0.9637078762409175,0.4650962245976341,0.10989774201754461],[-0.061419927414264754,-0.8178303467119014,0.5639372334878274,-0.16572876427703748,0.2961967155002621,0.9338416473996328,-0.989420651249049,-0.8183698381342395,-0.142889749882732,0.22553680754249633,0.4213682934778836,0.4563329590046738,0.41880233847167975,0.45955342474866745,0.7599864581747975,0.7817675241431278],[0.5766513675773443,-0.29647474935534673,0.12584099081800793,0.5683056351761234,0.2440143329754504,0.12571507053951889,0.813194588458708,0.13448965583123426,0.9725432254437033,-0.45977691291555767,0.19667296794819503,0.6914836998788415,0.6082420053869816,0.9265073761718684,0.8397287887939598,0.45514403139081294],[0.26685670355261426,0.6295624757342121,0.5179195460330172,-0.493090289429713,-0.7206316893580322,-0.049070633046339684,-0.27198566859765,-0.03229197738118957,-0.8953759275130636,-0.24702031542559097,0.9916408841063773,0.31463565919325215,-0.7361126295693744,-0.750782559172933,-0.9737751898835123,-0.1421943171073403],[0.06861113002890222,0.4665398957507781,-0.031196675481608267,0.4709407600105561,0.10844824532017315,-0.060794951893781785,-0.03134479587711562,-1.0205652560730014,-0.8104905423594537,0.1907058645212776,0.19419627234745823,0.12491753093296408,0.22670797612839938,-0.5921694682012969,-0.7328054339826937,-0.3175313667064637],[-0.2838706111018752,-0.952632064527169,-0.25028874702212806,1.1134530507053888,0.35268646398541126,-1.102670211457404,0.15436207135717206,-0.11851299739126117,-0.7742249850151149,0.11878559672109569,-0.7506601036630193,-0.3769562246894257,0.7522186018522419,0.32841035050906253,-1.1369237214644616,-0.9244757227269121],[-0.042093814782091156,-0.15894549707948868,0.056118982615177816,0.5892990565642294,-1.0154762896324214,-1.2019171163343367,-0.39357668185301437,-0.09993323428044606,0.23010357541549323,0.5704427884485841,-0.19976541300616724,-0.3896972185961413,0.1667504360852917,-0.2063664640620858,0.47864210177688205,0.0656610939332387],[0.15342317367071664,0.7202754190710431,0.6203706499158951,0.7461949257408829,-0.5493749579344216,-0.17205482483237386,0.04335409611210427,-0.5989286226279941,-0.750276300649753,-0.255761095509422,-0.3741705387378151,-0.7403033247001154,-0.32706601089772164,-0.0442858101818767,0.1386533136294108,-1.0770564694591205],[-0.7420474831918811,0.4448904377030904,0.08902418987391553,0.7992981406892374,-0.35534760724546244,-0.19228111616141513,0.7120936393290788,0.4132572740472524,-0.15404672790722487,-0.6797521229064091,0.8472705192186682,-0.594048602928583,0.0450914562395799,0.6468791278145719,1.004795878874706,0.4842793969600043],[0.0706260690803056,0.5484425099541227,-0.4900363802186695,0.11242065361128761,-0.4814085289324823,0.7845659853045576,-0.44261140729944654,-0.34990480495714216,-0.42403360920676453,-0.056839733442147246,0.6262310978572367,-0.10083265490951414,-0.3187203037912158,-0.955723539132211,0.4693240867558908,0.5526066081221105],[0.09222851801871185,0.46754855526447764,-0.9100768711619216,-0.444689892660299,-0.07751978020302845,-0.3259175177880426,0.1829554729674923,0.28552974803695513,0.4120390156430067,-0.33350377425159405,-1.053987349916442,-0.3380704166059805,-0.21062359029238226,-0.4303606010103678,-0.4795287889538251,-0.8754543367689259],[1.0460668478878443,0.7791807384193218,-1.0097682016246865,0.449578584271449,-0.6341229039022587,-0.07568228198871604,0.15354178805636004,0.24480256859827138,0.15935161620177782,-0.39502350748502546,-0.4421990021253344,-0.4475608219183335,0.5038948881181089,-0.033762695008188695,-0.2441025445174143,-0.5011668107662606],[0.539911030701856,0.9217142263907884,-1.5318568226428655,0.1830762116001974,0.6388992753221936,-1.0022502156317135,-0.6255427246167149,0.21442489868616504,-0.06931877560873764,-0.02834756756432711,0.13939943015930786,0.1672561423828277,0.32381431692332874,0.4757264658491759,-0.4323632479037926,-0.46290581066552366],[0.20262681021863937,0.9509881224361031,-0.24440817614538843,-0.3729279445154382,0.9841098032450216,-0.8340785680233195,-0.7540968844470661,0.2189531447898233,-0.49225913386139974,0.11450237404873456,0.6535474242817024,0.5955057360952456,0.025446826896347387,-0.7449039637088214,-0.25500424609426764,-0.04215900436032721],[-0.017145291342464022,0.3911710117085526,-0.4111972687631572,0.41664955352257127,0.6941763813463643,-0.7667889098787991,-0.7004416838213489,-0.7375336948578123,-0.22481048346762403,0.3918699621548096,-0.281804334922939,-0.09753067491597539,-0.30726480733790584,-1.261409275959623,0.6827174833909273,0.3455083965113674],[0.18823428801103573,1.8043256643927896,1.815054794624663,-0.09286544850924436,-0.21664993008651226,-2.0034601972239794,-0.1060761754891807,-0.13322448052399904,0.7169052088351159,0.3547854635705536,1.4565801636031204,-0.0024279328173193787,-0.49702942431866853,0.44567796082851346,-0.22484839468937928,0.8492184302313781],[0.011542108874283757,0.5453740338404289,1.4892784072819274,0.17159113812832108,-1.5866437835129275,-0.4813316744415888,-1.225929561156817,-1.7163274298562807,-0.6321110771361764,0.8380669186091507,0.7528751271100744,-1.3147166915364734,-0.42310066905782096,-0.9430030679316956,-0.4300794588115742,-0.10748686875402665],[0.3321905473110555,0.40875102979919353,0.2421645079075338,0.7174859565055934,-0.9665263309711848,0.23484698602081747,0.24903197478123895,-0.617702208866534,-0.11613908164690488,0.8019866737508222,0.40064234202368426,-0.7985915218839746,-0.20541810717757358,0.3645544245300998,-0.1742061743183771,-1.0567157310366004],[0.05097672985101421,0.6322186999481092,0.7481082359889432,0.4770203010051081,-0.5497198167840647,0.36238076893734994,0.5343093798256372,-0.5689282390109501,-0.1968844349904493,-0.1984397946580804,0.808499429957388,-0.7966400288011205,0.006938607082367399,-0.36206000216590006,-0.20397805115559225,-0.3063629158561471],[-0.11666393489076787,0.784219288674134,0.21962209033466326,0.6871071910979004,-0.05291736322638036,0.7907487997780087,0.15141636297136515,-0.6608820457346543,-0.5488753593134923,0.2938929152063857,-0.31525291232725255,0.13181554054529804,-0.3494189276499294,-0.4820296381073135,-0.7716945874242991,-1.1545209171523634],[-0.06955449038373888,1.100197804427736,0.04851766448849169,0.36015471663543464,-0.45154405997873953,-0.41213729368122415,0.4079715738960488,-0.013488921105916657,-0.1854381380117476,0.0872891403973326,0.5153568463633955,-0.14937146458245049,-0.513366407765418,0.6117920003855218,-0.548063681695869,-0.8095464004525974],[-0.06775253671535576,1.2406180775152857,0.32381376094004066,0.0006282965809754509,0.03668956267111777,-0.30569298291113145,0.5980241512606793,-0.25317686225440655,0.31515783607470366,-0.5059605017203018,0.7051309755126562,-0.43892723436564623,0.06763684503663753,0.8466527398170012,0.5168315566819769,-0.22275650356955914],[-0.04752744049996095,0.5989667655816332,-0.2223638567696531,0.832794626582127,0.4692161784993597,0.25972279517204794,0.1888097849532475,0.0414156662607195,0.2501194729207805,-0.3416172153289822,1.151445901534233,-0.8676794947724688,-0.8738539458825557,0.33014322896257153,-0.2786004475384182,0.22309305840975394],[-0.9285836330324042,0.9528840404793936,-1.2937675199758256,1.4422343707333718,0.5958181264826546,-0.028874207813372414,-0.28251661302201675,-0.7390076703673067,0.42727374629565906,-0.7166524605693154,0.8270121545763737,-0.32840835477499153,-0.9116883384526859,0.47984771712588925,-0.9325315840671332,-1.118012934388967],[-1.0183472130577946,0.4092760741012226,-1.7226109208433538,0.7340093480578281,1.2964947138502767,0.3775025289141214,-0.4729915572133278,0.9024359956610687,0.19617928330762538,-0.4439722631157366,-0.5702710756200238,-0.4880940044099383,-0.6016185591598285,-0.4635339272066516,-0.05674879556115786,0.052252274926670915],[-0.5637132471320221,0.8989835184263698,-1.2567216017327396,1.0738529014903218,1.3125987193537585,0.09672296705371118,-0.3441546825958075,0.5406977845337431,0.657647080247566,-1.072829511760639,-0.0484083182674087,-0.9943014320041191,0.9571005579083527,0.11298580729882454,-0.7315743920794762,0.5582425262612136],[-0.7962444923977792,-0.32029608700607204,-0.8997371045224003,0.8454866342698584,-0.05678394489682279,-0.518387327191381,0.40724554342263136,-0.4288139648679086,0.7191888118153698,-0.05539334559165948,0.5202269248325918,0.0580911715464623,0.5748732074867835,-0.8152074919944545,0.20154858693402708,0.11368398681076419],[0.750781725653692,-0.5066374304029776,0.9629801998398835,0.23813950178649315,-0.8645451164483359,0.6068167402736016,0.34744621011418403,0.38244450971763716,0.4355452146355048,0.6062112839986175,0.8141487297064208,0.032112545713457466,-0.611871689899896,-0.21288750169703702,-0.28718689702772326,-0.12629798001225143],[0.976496594694105,0.3422040913542817,-0.47659488667593924,0.33557199396474047,-0.6290663726172452,-0.17585893101995392,-0.6098812881946994,-0.9642033096784445,0.7398623392710226,-0.1623421329125279,-0.4069758547920614,-0.7987820478569008,0.8207393167113636,0.4762056465120369,0.03318104683935542,-0.1265265181041237],[-0.8701933220628363,0.9971529722122074,0.9002467052928516,0.9244265966357956,0.11853846218080667,-0.5078001758266081,-0.18529182362499974,-0.2004909975802144,-0.5997598440886515,-0.08496126396289547,-0.9932488252956406,-0.8815132125876197,0.7141376236602924,0.41562679940013886,0.09285815896583745,-0.2174509702288979],[0.4317073045581947,-0.7601985900042953,-0.7831686502415905,-0.5664485383020601,-0.3558802163870813,-0.5595705746698934,0.3884745463029348,-0.2273428973477345,0.12419696447048298,0.5446679103364598,0.21975439875848546,0.006180945156172353,-0.9769020347262451,0.20777439103119402,-0.9480498343992906,0.16448092086927704],[-0.10017710963687876,-0.5522012815757745,-0.06770830651990688,-0.34773548522180553,-0.03573753337012164,-0.9470390424400004,0.25455773375259844,-0.6396690004188798,-0.39779744943143536,0.8015996880424143,-0.3895921446542277,0.10662367522022156,-0.9627727294836217,0.8151797817818993,0.6216968550545032,0.22647959536926912],[0.6710510091438052,-0.037840741087112294,0.0029692752202670034,1.0216889558770887,-0.5108505851089236,-0.11175139340053768,-0.5971125195784222,0.3286437779385823,0.23527284929457165,-0.1834565490648242,-0.24507951149307272,-1.1607934574289216,0.4943017886991592,0.7715510625337548,-0.40380431754408025,-0.7126119544544265],[-0.7131012563997594,0.4558120868055425,0.3149185541233317,0.8496731699673059,0.10939721449947325,0.5910642189103444,-0.5619996499366231,0.09900045440436596,0.90618702100088,-0.2108196162731516,-0.11793604530372605,0.3349738561258342,0.7431841455443727,0.16839972951332885,-0.8770991622769907,-0.27077802043338384],[-0.6479224813567189,-0.4049860229893692,-1.1112899000937178,-0.30068762695533613,-0.09303133607814486,-0.636664899769048,0.1675744412510363,0.05519040823110935,-0.4373955912480748,0.05977287486920034,0.1408415163842246,-1.2814779707620036,1.0776259222043005,0.3966108836610072,-0.17241092664595092,0.5999427916663651],[-0.15058676929558854,0.07143307398263221,-0.9107245219316249,-0.3904326560053164,-0.6009793596258415,0.05871826289486722,-0.9987966545551273,-0.259916853292261,-0.10503539188882792,0.004364768001045066,0.13401565234814827,-0.14239220821234772,0.25691607963523594,-0.11329232577917563,0.7971830408214883,0.6283994331638005],[0.716451772493751,0.9592257784895891,-0.7562500123476388,0.7954108967578841,0.16346266704398887,0.7940572854279889,0.2765676981556339,1.0397892193445508,-0.29786854398751,-0.8650891595934721,-0.1725894562141244,0.2404141513963806,0.9357257880654397,-0.14779341589905656,0.21563170768968734,0.8511951468154677],[-0.2411006384304994,0.9771698518100933,-1.5588706855927026,0.5234311292859176,0.11545190415767041,-0.5118866377890424,0.07977586490970408,-0.04889829275776767,-0.5438259607078127,-0.6964279396684964,0.37061498730350806,-0.42539910289069255,0.7643243970469444,0.2745414795746263,0.9043374465873214,0.3913865342686769],[0.4716226964881394,1.019257387563256,-1.4255182279791725,0.41014103071728303,0.4643903347609059,0.9651280196394098,-0.14259870253982315,0.40215013291298257,-0.987770360210767,-0.23944875026698942,-0.35774181757083356,0.21583783563797093,0.48944459261664724,0.10211979689002675,-0.2657850449574699,0.5628693786518678],[0.04644340842332772,0.3838062856639845,-1.0702582186705734,-0.6513220212553674,0.5161088296350045,0.8479247037745005,-0.06734106605537894,0.3942644293141891,-0.835222841652791,-0.9793981997734401,-0.934226546487848,-0.6984141349514954,1.1400129583916734,-0.6769391451052235,0.7211984559532975,0.6757020676478627],[0.8188030965194872,1.2946908208141,-1.3658563359353033,0.3771249589713066,0.7410746607544916,-0.18613058687280074,0.11646587934207231,1.0778889935981868,-0.4083680240280195,-0.3076932439702999,-0.3501654742313754,0.3179467808191443,1.019484722200476,0.2334292157891093,0.9762953404095152,0.6086378707946107],[0.24939981536575198,1.0865471170256764,-1.5818697906001782,0.18957171676810744,1.9342420919051642,-0.8498693997671728,0.08445625132904734,0.7147484089685068,-0.1520077372369491,0.06230247845305386,-0.10049132112597677,-0.13366480664457425,0.8616275615336185,0.4296320097512569,1.2685274821741077,0.10629521188476994],[0.9816938216657342,1.1307705219360704,0.35271593945351054,0.11158187277066683,0.8897435004736944,-0.6248455508839469,0.5007030935754951,0.2891739935186812,-0.19825146197728502,-0.18699255075491136,1.0178500522485234,-0.7082141722365862,-0.31524398525266584,-1.0335677239793437,-0.0320739120486709,1.0444141122949535],[0.11606845699148412,0.546593117894157,0.8151018724580384,0.7343096204760804,-0.07282263147149542,-0.19082499821364743,0.33441385821959474,-0.14097631402788524,0.11125713766198278,0.035830463088360257,-0.08854158197163498,-1.5032472844429778,0.13766940451334275,-0.8281387877671047,0.49965341161869337,0.6601798669335978],[-0.0347287140230311,0.29105129990148787,1.6125294481611583,0.8794082011120167,-1.2063835483458807,0.3090552405188776,-0.13434939346267163,-0.46081002696358253,-0.6958847432733716,0.21833056567332215,0.090978810056948,-1.246547796951315,0.4513268194836625,0.33855383536874123,-0.7100834357010167,0.03112511450348842],[-0.6428450843298189,0.10351092615078157,1.9889528232255491,0.9880324748964622,-2.014845259936369,-0.1624212727689726,1.1634976119915807,-0.9801726127089619,-0.34231749045583376,0.37916081193820245,0.5088220541878786,-1.257447807952054,-0.5253266093268808,0.5774428175483698,-0.775757944243163,-0.6843202012776699],[0.8216982176426908,0.09696271821237212,0.870104736605863,0.6294636315759806,-0.6587241652140863,-0.5621601784132018,-0.0353112431244873,-0.8156986304153293,-0.4487801751869968,0.23688211155608552,-0.17780754368631507,-0.8069423392489136,0.35051644164827345,0.05274881608173164,-0.7506675307947848,-1.3880748044329267],[0.28055936901750655,0.1281240755373692,0.8086780580744937,-0.03746208898873478,-0.8336152858318104,0.10099907211775384,0.36187735669421955,-0.09274982755750664,0.40295401476598075,0.5140267777586435,-0.5082214131796607,-1.0178845515501465,-1.2420666369748004,-0.3925507095028549,0.012732131682418022,-1.2358760649812854],[0.4408675006865841,-0.22490555951185004,0.4667637196589634,0.6912869232768725,-0.9737411834855263,-0.11693140027640463,0.008089195421552854,-0.24058211133664525,-0.39861322539523447,0.4247907336876124,-0.02045724883763849,-1.0841634007793686,0.5306700824301097,-0.6144754206511444,0.02706680343240685,-1.0833460218765558],[-0.43800124431476856,-0.04581691373150655,0.3929803360214402,0.7512348053571493,-0.7721380262207558,0.35574977103932315,0.14745909897270335,-0.8797611417194452,0.16352481420401146,-0.11320591141311295,0.3387865438112914,0.4492642534257843,-0.25449524588875394,0.7384846710307339,-0.7497914747751633,0.015062778194581801],[0.25520772492235194,1.2380603324784032,0.19027700122399357,0.23410877744755612,-0.5607796345616474,-0.6552286590221154,-0.023376028315422827,-0.6773268773701043,-0.08577077180311765,0.1929403195095022,-0.7034142176317068,-0.7174112834540064,-0.7156573309307517,0.9127398814116048,-0.15396154166760395,-0.2015975305051934],[-0.5776037568991294,0.666725125797952,-0.5355951819585887,0.01750273963485051,-0.856028663125109,0.03638185415210897,-0.0021662121756469426,-0.12813583863487338,0.07841675716515692,0.051251718397374864,0.6970013849238951,0.012088219430739013,0.7569445383456687,0.16031294288059195,0.7531666434095635,-1.190069208484725],[-1.177742428731597,1.3295185245564023,-0.6804291108140869,0.6646018266077657,0.6405593438471815,-0.4621299742655376,0.980046857500902,-0.7891045228626611,0.9298346129700106,0.22689686701492448,0.4869702206842751,0.8693249489563311,0.14186588142623255,-0.6918710260966056,0.7578127512216222,0.2792138001456507],[-0.751219429282776,0.9181820456437237,-1.4626376616591141,-0.018032439693967176,0.7941091717819632,0.662520596972995,0.1826478145942577,-0.30572514466115264,1.4047375520322833,-0.8398545845618347,-0.6525235200506947,-1.2190129185980394,-0.5578841989276767,-0.05492849662580784,0.1927101203784762,-1.074327847039708],[-1.0129592978175017,-0.27542582298261925,0.2646225576286712,0.03184439813558324,1.033966474254889,0.9735837014661995,0.4730944302539821,-0.13380360618175904,0.8653098071301883,-0.8123456997812137,0.6000023231317839,-0.2523426586573724,0.2655117581432202,-0.8864758826100058,0.39459039734353313,-0.0571718878894405],[-0.26360803201793737,0.16989999681350376,-0.8459760323259873,1.050714486496424,0.3353466300831472,0.416903220440972,0.8563379057698168,0.7832664643084045,0.3303775058728446,-0.6720540480034487,0.5968037313564862,-0.3107311937499688,0.22863664723826918,-0.619185643369927,-0.559386166001885,-0.48029764490812055],[-0.13827501765619044,0.6803618023476242,0.19721764272822095,0.1793820570119063,-0.46663123371976684,-0.7323940415451704,0.11246785122780048,-0.308351331996083,0.2911821714141132,0.5580304936691515,-0.07984969464188986,0.5537894647056251,-0.9236291479927178,-0.7410916892750623,0.1266692519405188,-0.32347620634329705],[0.6987333776251444,0.8510027169826869,-0.3396357171777445,-0.970991330600358,-0.36709666988016987,0.9351046657832318,-0.518634709162559,-0.05410688121238508,-0.9670542510608992,0.4552513341186893,-0.4326030353391519,0.5814915404022135,0.9317457261222573,-0.9395185565947415,0.7295600991313279,-0.6152396631568345],[-0.28206043313788826,-0.7042706316485908,0.024807900938249403,-0.25739723620548655,0.9346128359824813,-0.19394152417570065,0.9982504590329476,-0.7288774898096677,-0.37913951841330823,0.22444989822025146,-0.3776044482699541,0.14670774278493134,0.5838122644247584,-0.4424227074883624,0.5513341529869539,0.22939945957548477],[0.749071936433269,0.8480278241426353,-0.05537044600661627,-0.9051210508967944,0.864885476352589,0.17536468435374453,0.4201117025796967,0.24926699460871024,-0.8519043846166768,-0.3647760443011183,-0.30556763425713895,0.7185555017206178,0.5430692919773196,0.7873768349030441,0.5158576911077063,0.8498982362608856],[-0.43334852568648147,0.8995368390831138,0.3354525477247298,0.040712187518111335,0.4235326585533982,-0.09055691594981273,-0.6731380781737171,0.07561495146337142,0.8406572076233885,0.43133401361385626,0.39036931639989264,-0.7206850535744402,-0.5854234156958079,0.531295625280032,-0.8838542519686979,-0.8553170364113929],[-0.16765040291627634,0.9703951649844865,0.6679257572431736,0.6911301735196799,0.6369418237043696,-0.1859080425634243,0.14932830577348025,0.4201889701220352,-0.4996366604001011,-0.9099606699000214,-0.35380482356689913,