{"bias0":[[-0.3559177593947219,0.3704240980317486,0.1462490531296991,-0.6547345113047359,-0.8528765673953758,0.016088958329061483,-0.5521663116474234,0.25955134505200994,-0.6570541063679202,0.5217372911879131,-0.5672356058504517,0.8347130182417626,-0.16165457479895906,0.6124493343052929,-0.44486762745963815,0.4605657937245985,-0.264926053141667,0.11440066300719023,-0.6569344163434168,0.5144164585324812,-0.1445790981196083,0.5281373945996092,-0.3555831728496761,-0.4158408460287973,0.8396937162558463,-0.7980556114587268,0.41958626335621896,-1.0917033559011544,0.16862113821495991,-0.6823709691517147,0.2009548324039647,0.45495021203948877,0.4484665443919775,-0.015798556821545445,0.7844426446537053,-0.5466671290738195,0.6575192610299931,-0.31042584480291047,1.0786269511044029,0.21757271434386902,-0.2356720416682389,0.9445460816307473,-0.8961421982126688,-0.4239612054298691,-0.8268794140389991,-1.0386511636461881,0.01671004750761348,-0.3609491062680706,0.9317546197251463,0.04941769148528694,0.7234536576017466,0.4555094180828447,0.2531145357169776,-0.13415109078959075,-0.8726254838582049,0.7931551740566689,0.39347162053322104,-0.43264541558123815,-0.49874730787213994,-0.18247354683715322,0.496450545108081,-0.16833137571155393,0.09691045298154852,-0.7093039326926593]],"weights0":[[0.7453563822828759,-0.5263177711931657,0.8671765848795563,-0.6924759744321866,0.46407796433449566,-0.8400298386445717,0.7189484121319347,-0.05955649478410718,-0.34402232401405897,-0.24798948500488893,0.19714321407088997,0.602627361882375,-0.6527158553319553,0.5697341484530074,-0.06501169753668756,0.01403283812481293,0.3260288057972809,-0.6239778641052125,-0.8361592351184617,-0.9480379605623324,0.36688536075285105,0.7591781069821779,-0.13411999029501687,-0.8780432854962533,0.006781147852486624,-0.188661433275929,-0.8681069446919301,-0.6092208478961594,0.6898563927321193,0.6669712320525656,-0.05405977293484454,-0.006560960224072154,-0.49227806419236586,0.15393340652542142,0.574554912196638,0.9962082743940581,-0.7683482252200899,-0.3711917152760187,-0.23712435693479617,0.3880983281862773,-0.7518392456338574,-0.44169209054259384,0.36492148025792814,-0.3783659710110612,-0.08014057131177033,-0.47105599521231367,0.8018528013281927,-0.3036044987906219,-0.2551796005519461,-0.4264164842635405,0.009154140764063845,0.4978095249099268,0.22444620138016913,0.9973441959795595,0.40914559369117054,-0.42684269204545955,0.13955178240443922,-0.26464477158799404,0.2970652865476775,0.6740527205199054,-0.6970903060956355,-0.22408498102822083,0.4186220503818785,-0.7170496143630188],[-0.7067864103331445,-0.8121333278335156,-0.8095117947946104,0.21243387141170822,-0.7132806653046768,-0.18173439915881906,0.9148270971344634,0.47354198276902304,-0.32650897949060276,-0.7788905833526503,0.6559762628134218,0.9351782607840344,0.7462006436328472,0.995056840086322,-0.8241639987643452,0.05223398906166943,0.03908743081768162,-0.14109298156019245,-0.08104373005458154,-0.5059819813470268,0.6116851444346005,-0.4597714375576951,0.7930471424304493,-0.7420410720490984,-0.2919840241861418,-0.43352543369278207,-0.3864677911209887,-0.5343942244315333,0.3610508091916531,-0.02328783607889684,-0.22282052273754238,-0.5486843648045501,0.10262501690259973,0.31545774092519685,-0.19680742750460212,-0.09167925472657523,-0.4646833216602816,-0.12237284386299285,-0.7637009231093552,-0.20067661568372352,-0.7846732810572316,0.18158739852113226,-0.9588185082226245,-0.14960225390855786,0.679312506467429,-0.87952845133978,0.3747205254800132,0.6053027725513274,-0.5531642001273699,-0.9922874213273052,0.18606894026399434,-0.005116008354793533,0.8302737523381762,0.5649235178640661,0.8349589819182297,-0.4800145938415319,-0.8170337789253389,-0.6432672811000046,0.04424057197524567,-0.18241442517914486,-0.3859409040045281,0.6731708694649654,0.6717729383185369,-0.78899629409577],[0.8039013494349578,-0.5091413583880215,0.635158083161554,-0.35692168427379944,-0.6853948683678934,0.0756846233579862,-0.6563144725910179,0.6547896277221656,0.7852522936939925,-0.48370106882698793,0.5188985510475648,0.15893070056459524,-0.5356216317215481,0.4559307245697042,-0.1946835301189732,-0.9367533365162367,-0.497420940372977,-0.8178942992468774,-0.2576462348854196,-0.6398695048382432,-0.5255666980123272,0.8948333805373514,0.9256345013425586,0.6645378583320813,0.345247580004274,-0.583590569714197,-0.2630375156020386,-0.31622970981505494,-0.654498750120613,-0.032438156511652716,-0.732229912785087,0.9294787376862579,-0.8581539333384024,0.1694597667846136,0.14323162578461224,0.3839043647037914,-0.4669685394065325,0.5567824711530636,-0.7641744381473713,-0.37578356287624903,-0.30479559916614685,0.4844621642076745,0.8763546469260275,-0.46654007482998106,-0.13795007152645722,0.4210020080292711,-0.3165880605993392,-0.6803650788980791,0.362835858567333,0.27827060250523483,-0.7588080548329809,0.4616152714977073,-0.41307749196685917,0.35879419353009023,-0.551107454672277,-0.5674370795509884,-0.332705427986993,0.12347825962322756,-0.473406005378204,-0.1877536199386104,-0.27081788507616866,-0.13452092505567304,0.6639776870395611,-0.22857936833604076],[-0.7649579539814526,0.9398340141260302,-0.5175028312474625,0.29340044523290865,0.7919274622967896,0.012604530560539118,-0.9198838373079372,0.6895189656152148,0.9658711414211667,0.17901164375355827,-0.08321723329033548,0.014368143034073855,0.7299735564767276,0.4348799540215127,0.7683416090477975,-0.7733923178528194,-0.09415546260672791,-0.34076444640178827,-0.6173982401330096,0.9992930498288959,-0.7394450482774958,-0.3047667488870064,-0.3589882167187268,0.423596264400234,0.8899891963516116,-0.9911097206421263,-0.35469867484603,-0.22584183272712832,0.2733362840638114,0.9163038132953174,0.7272599844278915,-0.8866703283174361,0.7265786447991889,-0.8206384370042532,0.3283500319939374,0.7135341284866001,0.29630756972158,0.9990239347229792,-0.037344962885058286,-0.3862452534560056,-0.7193610691715984,0.6393711656675842,0.972441411713451,-0.1957603551994962,0.9726142750939977,-0.8305416499038196,-0.955138862246808,-0.5781756530701716,-0.13917118838333997,0.39814296680086203,0.7221068328109961,0.04882620025624562,-0.6387367400083579,0.4132628738022466,0.2371829099868017,-0.432978323941011,0.22494573486852198,0.9311508357538341,-0.6401080290909797,-0.5197547310287086,-0.9878484706903278,0.44792555102983567,0.020217456164516978,-0.3562717254164941],[-0.3329052424026564,0.1975267536833636,0.13121793464195286,0.21760359650662586,-0.5146744768932869,0.7884615422835137,-0.19603033005223336,-0.5523677210888833,0.5676556601516485,0.57601414979052,0.8187842849760532,0.7084127570461347,-0.012454747807342792,-0.02048639543064701,0.8149714308957077,-0.04670692597237569,-0.04930428780816798,-0.7840175165516432,0.9061818787069256,-0.6965211056533454,0.5806657339920578,0.7562886142108103,-0.21418500333416557,0.3434161989537534,-0.6089393835442353,-0.6883291927767974,0.8419739129317803,0.5075038794835787,-0.9613719556753861,-0.40258772528865683,-0.5070687062262111,-0.29031196699222295,-0.23448373938834333,-0.41624117241056713,0.5108006599978248,-0.5396604787446748,0.14824821285510703,-0.6342072014534796,0.9380159306872313,0.9269164566583652,0.28244527109810824,-0.29883465764051786,0.011979600123413814,-0.5619194456893197,-0.06725326246041208,0.9018633501933493,-0.7538724854069504,0.9603552509253579,-0.7306761381744854,0.4181041547565747,0.1588859536353242,-0.6832867502578721,-0.10920707499477977,0.9430661259296607,-0.23661121663791695,-0.5308479789429424,0.21744472267004267,0.5445355614876164,-0.8251018349022284,0.7573674476547525,0.03094588287992961,-0.633297879828854,0.09241274029774749,-0.25775812311135493],[-0.9667609114163526,0.43085927821646663,0.8104855703405376,-0.746353557403511,-0.8303182005570072,-0.7317514295981393,-0.15297562739920967,-0.4597007964519495,0.7005994598879148,-0.5399367378700363,-0.9067928158918586,-0.926081772614046,-0.8209334135883851,-0.3546513598766291,-0.488293280820322,-0.8039076276004772,0.2157705397233789,0.8577251677310647,-0.19892837698806431,0.7094325891286337,-0.984288064670933,-0.797951429237437,-0.476722125579753,-0.7224781781275749,-0.3957369004023822,0.12543262205499484,-0.09254239231813044,0.788495950917318,0.4114507013936948,-0.7117019860057416,0.9422321383785324,0.8700843539902035,-0.4073115151948753,0.560219692546664,-0.8241038012443009,-0.3414013409679044,0.8672898923657009,0.1971128900075214,-0.3888947084913056,0.21885520599804353,-0.9373113172007905,0.9910287855144502,-0.49985951571139176,0.39687936651170963,0.164789750065093,0.1921818606130392,-0.5232325461659431,-0.23305906434093748,0.5077874968689668,0.07760711301648504,0.20552824614835274,-0.9276060661302763,-0.9648302190473982,-0.5493873264910665,0.36139213658962865,-0.7476363157099506,0.00023216782731050323,0.7223272944346439,0.9714733526644057,-0.1149395226246206,-0.012091273986973627,0.3703410546796655,0.6538455362220039,0.3250019134965314],[0.9453707915215264,0.5580705352302531,-0.18450999382669808,-0.5895107687837778,-0.09490696749599814,0.6547701529802246,0.017187213266128376,0.14978356348051558,-0.6586941036176914,-0.5913523005306727,0.17677187556206464,0.4667710943203942,-0.09906171659874485,0.33825539818059114,0.6760230939306564,-0.14395860556477413,0.27264535620039654,-0.7415150626738507,-0.2579769977099997,0.5270735753495679,-0.4695709407237608,-0.1461445083272661,0.9599386077196801,0.17356490255129398,0.7792973666632181,0.07269333894728747,0.36622062256679055,-0.011938756955959473,0.7544320675378686,0.4175398011784206,-0.6293877261818688,0.6551012302503321,0.400380867897812,-0.5313194594861357,-0.10229488016509447,0.8124355920787334,0.007841483999876608,0.9642691265668599,0.9158005292434117,-0.36157249699855576,-0.7238040766140041,0.24646267485557272,0.3349642745012351,0.37503961706365896,-0.864776395768476,0.10778425424027716,0.846794657788398,-0.1712996175996453,-0.9129814753751943,-0.5478342380989794,0.8951054581862341,-0.5075054477521663,-0.2741896142427608,0.47005404589795385,-0.22293183346737988,-0.33272282333849523,0.9958593241906577,0.3392319509577977,-0.9006378635704918,-0.9020121851034508,-0.47273640984506315,0.4103674544737359,0.05309467085864217,0.7761641883983574],[0.8244866234700021,0.34950153390440075,0.9030487455682985,0.367876411708971,-0.03127917770208155,-0.6226704841984553,0.09991132156534954,-0.5869336392073932,-0.7359187182222631,-0.8136611982981676,-0.25274441422778726,0.10350713335606332,0.12504682498968878,-0.5990743927706129,0.8688049690256001,-0.09171102272622156,-0.15519465793529796,0.5064523900041804,0.8610439801103189,0.8120582666703855,0.07126129426607353,0.488060334702469,0.22316132608247852,-0.35593787841595936,0.9218494111260187,0.3245333225123732,-0.6519879444641034,0.24621083871157423,-0.15679255811214832,-0.7027916000182322,-0.8144743356790638,-0.48695346125136885,0.8862475361665492,-0.27163067870251134,0.1907668192293428,0.11794253614210515,0.7912960700318985,-0.7526977819515521,0.2989455902042486,0.5741699341842526,-0.6805575864693598,-0.713709040853281,0.5149782557926732,0.14732800438767102,0.37869619416935807,-0.3508088516352713,-0.9716603694733978,0.1135155689250098,-0.9678602886609259,-0.3427753640874004,0.4839768990071296,-0.3386132206527347,-0.21544852396567182,0.8134475670670116,-0.5825188952634617,0.29888389889271294,-0.23130941781460035,0.8331632432286946,0.12247732461305838,0.6898366409079113,-0.5362593254845245,0.5574342032022455,-0.710713152844036,-0.8720282946503479],[-0.009764714620239756,0.7594759868009056,-0.6186534806492034,-0.20769341718196044,0.10967821922281518,0.27793355206100867,-0.389068487062066,0.19743246536479497,-0.33466792623173847,0.8998370983022435,0.1300376165556869,-0.11388694973762326,-0.023384632008159323,-0.40171373659894927,0.4799597701196594,-0.9082138323814692,0.6762622941707508,0.4168458086502391,0.7930658857665411,-0.4424092010458922,0.5429913730948162,-0.7291167804945815,0.40720964048255026,0.36397516376500816,-0.987271965905495,0.7900355318197592,-0.17662047969625883,0.021041258678676567,0.8133268463777477,-0.9252330608822551,0.7179886374712703,-0.9342295474586438,-0.3449371628599238,-0.8067440629056185,-0.6804965805157588,-0.670577588303062,0.9230813527505624,0.9734809339390629,-0.4260728202066548,0.02082364222826283,-0.6150194557936721,-0.4834314327446103,-0.38970479167169303,-0.17973716046825516,-0.25478722794544917,-0.20459466426633288,-0.7428174970779867,-0.05300931583954627,0.9733113038720429,0.007211921896731033,0.8328310773875676,-0.6323233603821181,-0.9027856608285402,-0.5801296609440391,0.12118266455693183,0.6647589382867207,0.47086401363982566,-0.9925365568029385,0.9944076106056419,-0.747135916525149,0.5165128715024607,0.4170312843237194,0.6662406880220082,0.1195023924689953],[0.795067864592911,0.6084485954398222,-0.3018317503557557,0.7520309549229147,-0.6870814718193745,-0.4014165263383791,0.24413970170042543,0.6572465719332881,-0.4791849193800035,-0.977628794201637,-0.27439493419893657,0.1899275064513215,0.6003018043484998,-0.5154453206923293,0.6821887887853313,0.573912095144179,0.8068233470186739,0.745454078271022,-0.5704558486862241,0.16352647244662344,0.6733143409684326,0.14570532247348722,0.39685537841105356,-0.8811857022255243,-0.02074656406952191,0.5844799234761995,0.7123143742406501,-0.08143996615892035,-0.9319400276685328,-0.35261179937230425,0.22477695585159663,-0.2332033974874531,-0.4899669059730305,0.021680516953784812,-0.573354377631607,-0.9379249807857197,0.777610331637459,0.9434866949343534,-0.3727536616141003,0.5149017469057637,0.5141686374102117,-0.8990051028040952,-0.9792350584117201,-0.10861045071367348,-0.35413289816718185,0.42922330190883207,-0.7003145063624616,0.07273005238697272,-0.44494972888573725,-0.0034492122096820843,0.8342214175077856,0.05239569069622263,-0.7209040789553303,-0.10400517721539859,-0.6537467199163076,-0.6933491334210142,-0.7343033821008149,0.7903360301153362,-0.10658199922270206,0.11247144196021996,-0.7336153181845787,-0.1250664807075157,-0.3413495626228298,0.014868967479603867],[0.27774021780919744,-0.4014721526574533,0.5389070414192514,-0.32883206789394537,0.91471081561653,-0.34596179555642403,0.4944503929661066,0.288105983229084,0.03853014319286774,0.6871492104601287,-0.5346326469446875,0.3324069527590161,0.6610676611452295,0.5336750734462625,0.21504995819539108,0.7498832622881106,0.6925974891903095,0.6835133064991115,-0.7445232922018599,-0.49749569997210663,-0.6415949386696327,0.27941066715932017,-0.5897412133586484,-0.7377350252889625,-0.5920720919950739,-0.7340062097249587,0.7706259506127351,0.3885920619481984,-0.44157380262088597,0.16278198624173346,0.9224283218247469,-0.2723537781513278,0.013893116355308655,-0.39954317830348796,-0.08160601338312334,0.34979814551538335,-0.1463962859815917,-0.16542792716910848,0.9132769223697765,-0.003993613041197497,0.3950171935375524,0.1959301333697272,0.8430474705778888,-0.861647529698925,-0.5452533113108263,0.41239854511996543,-0.7480638337403511,-0.20810133594368863,-0.32621651674102015,-0.45304783679449034,-0.030380092426715688,-0.5265088140877208,-0.5993050480271245,0.4475376293942632,0.590790397535518,-0.925033454970864,0.5459834151518363,-0.19115018023714858,-0.652495187485127,-0.892565037015327,0.5500743550984195,0.710019124229708,-0.43980243197886315,-0.9982362883469997],[0.29761155442176834,0.35716231071318094,-0.7750652993853898,0.8866415158525667,0.7068643818383982,0.14295803704358323,0.5687344127618807,0.3365153435913739,-0.4277000660340087,-0.07502928641750828,-0.18328268025164218,0.6661428270544141,0.3623715930756517,0.846890829774003,0.3173147073144913,-0.6987192621217271,-0.12491399123736158,-0.6915836632489076,0.9348635662896372,0.5674775252245139,0.692940115180094,-0.7855137122004349,0.5959523896699992,0.21862026102023635,-0.5799952852223789,-0.807516407089216,-0.8177247042917318,0.9550623408038754,0.9975395218904755,-0.33768334551228196,0.27494590187224643,-0.7714262359253968,-0.16571575913983305,0.39202636437999927,0.5017173629506526,-0.8725794390964872,0.026978984002786977,-0.38738906482686963,-0.538561581428078,-0.19079318884161223,0.5355696509944439,-0.8533487724100891,-0.870660214475443,-0.9449128677153003,-0.18490600881915997,-0.30472425875427755,0.3427613680326804,-0.8748863014595627,-0.6038995792400262,0.9139625007800256,-0.7495742747065719,0.16853954382708825,-0.6046197582312451,0.4389498139726029,0.4776077889977062,-0.2180610295305072,0.3986204046430626,0.5773222849538744,-0.6269774098556509,-0.4816590995029977,0.03041363725719015,0.28519516315825655,0.14450019123832725,0.8878159968944948],[0.678897541762972,-0.6934950419784003,-0.1250870944545162,-0.5749610071860707,0.6869774747689272,0.3753534797481116,0.6876879251845445,0.2984518677197191,0.5674452257259353,-0.6719343309064592,-0.9497741952098687,-0.2473012374878835,-0.2500447828483051,0.48264845786726335,0.5133219333862867,0.2258724100694658,0.3338196820125364,0.21541502224136566,0.9078660849016545,-0.5160125637584222,0.8165204349055384,0.705631788649098,0.38387819262378625,0.38003168839956103,0.6893223678967718,-0.1112957537892521,-0.22868668773018966,0.17582121955788632,-0.900477692719612,0.33150354373612506,-0.8085054717497968,-0.5190491265811632,-0.14777676170350726,0.6971429668001877,0.6758829451728746,0.8482045291489951,-0.7216189890288834,-0.21338759215823816,0.3978409537968414,0.5242092547796856,0.939474290461811,-0.1997447837108703,-0.5454130080667635,-0.4287699130985639,0.11119190044768192,-0.10976468083129612,-0.2173201570567919,-0.3089962156419886,-0.05598710537196887,-0.17694020115064238,0.13549055860961667,0.7140349084106039,-0.3539576839065387,0.03270486335138527,0.15668706166085028,-0.4559793131076771,0.8397590623458908,-0.24231869743924409,0.6458526040249825,-0.5544400375939779,0.0019456603350487681,0.14618729821916926,-0.07113264054556959,-0.4904491875897367],[-0.47088240711245005,0.8738253995776104,-0.08817023373612819,0.9422840748640703,-0.7439884831838655,-0.1758325507219577,0.21733387124899445,0.6928454680952414,0.892273229516639,-0.26635237643970866,0.09401289546190736,-0.18974357974846573,0.19353823792906308,-0.46538666333278506,0.07089968824166323,0.341110924367802,-0.5734585694973019,-0.3107767863962714,0.6997243015873394,-0.6935798605682107,-0.9894789956214456,0.7708703994261318,-0.6284657441412104,0.4287826090850258,0.31922203580445196,-0.03785987287317862,0.07140287324768468,-0.6243708685210996,-0.8329148608122001,0.909125625363306,-0.9402603734169093,0.26201673336516673,0.00980101219606842,-0.467552528228233,-0.5992901342953472,-0.7365247728777079,0.18797080639919717,-0.8391029445793524,-0.9872750159952031,-0.3028805794818886,-0.8917442781486478,0.6043261690202736,0.8735885898775042,0.3661602639088259,-0.24801081301487546,-0.48566413330394953,-0.15714596156029817,-0.05152521172575029,0.3250942085367271,0.5770557020728091,0.9877290324339413,0.11374175412690196,0.1375477715987872,0.7777045858342158,0.7896330543144358,-0.5969687132452718,-0.7349057930320982,0.6924004458702263,0.5553214638633265,-0.13739992804354323,0.3567850603713074,0.750332593229449,-0.36764601714158346,-0.8905884989610275],[0.8392980186193533,-0.2492704400320217,-0.5547096210106645,0.9632993928389535,0.781873081381074,-0.19091601570254021,0.4319140799954883,-0.3565280950116813,0.4303364542308292,-0.25354247660412726,-0.6281530269856391,-0.4100957816252792,-0.704979350093231,-0.4076055441443562,0.9398755646207264,0.0051004212800439186,0.16317807247204796,0.03298834133244226,-0.6931669368074139,-0.6380309488807593,0.13819539419040355,0.4053616493836842,-0.7455427418577281,0.9797185960277359,-0.2714065204153747,-0.07876892157594532,-0.7434738406342746,0.9592082472924258,-0.1886943878739741,0.6439067218515689,0.9122195856690573,0.5741852059360011,-0.15647673348235766,-0.48553345711854096,0.6146182917607742,0.07998941433821996,0.7129275625335112,-0.9334438811072712,-0.6229740626819298,0.43723005637291074,-0.9130410144968053,-0.30332362852685896,0.46631701985500723,0.5988045619963623,0.5465010281381418,-0.27173957740949256,0.8374728802519568,-0.4177694365569607,0.9585450513890397,-0.6081729854352642,0.06392291132983158,0.10530975817838692,0.5496933474399659,-0.25737117879969956,0.22483691386424512,-0.5147042865540034,0.714348519473324,0.9287077917825268,0.9382088393441725,-0.6303723803470056,-0.12046605157886597,0.6463314744513442,0.8313966866057283,-0.8101098773404609],[0.35482064710243616,-0.9908715516328682,0.10660613353783195,0.7694758125694924,0.7116682274255743,-0.24032267466902993,-0.824335079604191,0.9100911357287218,0.4653230865242934,-0.01645628062230642,-0.9380065027682133,0.9651355075227392,0.3207470148072041,-0.9464866631570305,-0.5706277404910831,-0.8107863853865186,-0.6496423028222814,0.35416086233644334,-0.121906260315641,0.019541485204343394,-0.403072082103057,-0.17042389891165577,-0.8654461907254867,-0.02898128889397068,0.26682669726490615,0.5240129922166122,-0.4829992351718973,0.02286149037607436,-0.7724279635959831,0.8711285840917853,0.9683933469980932,0.5750570366365808,-0.5304844498894158,-0.194649782546101,-0.7939561133605623,0.8850711645685494,0.2988716012278986,0.9397475260878424,0.4302506672831195,0.5144902491600847,0.9172275729887158,0.4291011922320314,0.1778086689839396,0.5315510800186185,0.16875358540421104,0.12073252717018426,0.33868713935234895,0.05659138708021444,0.7605479618517383,-0.9957193494017363,0.13777914128140162,0.35097330988415726,0.3729729143158671,-0.8915686488591209,-0.3907472089103692,0.9565217749041154,-0.5879097846885013,0.7619294757575289,-0.9719224089786737,-0.6539901226124913,0.6825898054217446,-0.5494432981504846,0.7731428369477845,-0.9658729526820207],[-0.1469178564256649,0.8099483192988588,-0.6015243912088954,0.9426047281760515,0.1686950288994391,0.4361596325631316,-0.8290866521170847,0.8711260025125258,0.9276851589583257,-0.18014074152913562,0.03841683970038945,-0.03472203736005963,0.3053379416069073,-0.605103313587221,-0.5129954114457382,-0.6985022077010479,-0.683722765639638,0.8164359766571441,-0.36169431958422305,-0.057096526120732016,0.6581106960634691,0.8589866967618294,-0.902327763223359,0.8134159872137658,0.5183307403833117,-0.6745442381641662,-0.6486377160788788,0.9635729791780765,-0.5163901747538129,-0.5006070682232744,0.34025084873892597,-0.6243332920026055,0.01254893913644195,0.8551399686065202,-0.5933734415350687,0.13755296951217333,0.17160110352069635,0.5355101015454324,0.9454534598425106,-0.30630269676092925,-0.3718247430666938,0.8317503948538858,0.4679887831194809,0.23247975324193204,-0.7692977307051646,-0.699410518034954,0.18318152669989973,0.6025531375974873,0.05663714147888066,-0.6050507264758089,-0.45996546909229685,0.36123883099340093,-0.8961101538564354,0.6103829427160388,-0.6882882609070591,-0.8311855707796998,-0.7095607196244168,0.888321894592806,0.9576425026582227,0.4182133603832736,0.9791095635160938,0.4238733719840888,-0.2953989831004118,-0.6954329179248767],[0.8217613095410554,-0.18454811494492485,-0.15972277930509782,0.14015161676533516,0.008324037942059714,-0.5895659148364882,0.6213742969163187,-0.03620469494268441,-0.6913195226279084,-0.9119263699420525,-0.5552525568796265,0.9129120209042001,-0.958378321729847,0.0026949771342374973,-0.7610831594296567,-0.3168891153549793,-0.39589096805014923,0.746510294951997,-0.9227899228164215,0.4669800239138082,-0.26319929643116813,-0.6926040734817127,0.532304242994603,-0.354632247007438,-0.771029264341589,-0.578655153756801,0.5583744156884307,0.7415702882058708,0.42955542684462755,-0.9088639506046372,-0.40239028115495246,0.6618995398787835,-0.08995158093023625,0.23973769139650458,0.7294888885113198,-0.5482418539164535,0.1587012119673512,-0.9964954351696155,0.6230699554991999,0.20960104012165925,0.7708806907027768,0.7757312377617989,-0.6409495070547718,0.5579349930581934,0.6086240196927812,-0.6202305566172104,-0.44789329661969335,0.3016104146005987,0.2839520310939312,-0.7196986754841586,-0.5896775621739732,0.48031613689372143,0.6167567254927495,0.309909291164965,-0.8112295596957038,0.44551144409316246,0.20894564010778383,-0.45139725294891364,-0.9510991013834751,-0.32794039330161173,-0.9762903379340336,-0.8985814422036563,-0.6500678681492432,0.7507828470429734],[0.2545759968481407,-0.7494016145189362,0.3042401267240056,0.8466218256145066,-0.007110155617413683,0.34310556295175365,-0.5638774777502766,-0.5842034408046086,0.3490295971495241,0.900230472085074,0.8821432827183144,0.34997445487496215,0.41972230681698197,0.10174372165275103,-0.37682221548346717,0.6036560253897525,-0.05442587823495448,-0.6346383175567982,-0.1449840621195082,-0.35857624359164775,0.35314058798473846,0.6564254163270518,-0.7532618961332321,-0.5929169489848306,0.20621995609256527,0.758391634809372,-0.41378979872694877,-0.28783104775729584,-0.8338414938830816,0.2690867627171263,0.5376665617295981,0.25123790507151855,-0.14408337082203915,0.5126651454424738,-0.440115825812999,-0.8923492222411371,-0.8127446226230324,0.6103615608707214,-0.6143405167889591,0.6627995391822894,0.5638745341310667,-0.13873721134364814,-0.7146821280844865,-0.531897118362171,0.408500578976674,0.3280561356670346,-0.9068663868334375,-0.761971533460901,-0.0055511352142554315,0.47981132529601256,0.6240811401316064,0.459368566837149,-0.47624717353797497,-0.19022697546894385,-0.593641326138167,-0.6905454270049092,-0.3511423547764959,-0.7152869518763256,0.3447297323890297,0.027380909422584532,-0.33357377618571193,-0.3793097537319169,0.39176174335969005,-0.0945842553493107],[-0.6481065613418742,-0.5977660242275227,-0.11789988153981668,-0.165241040991569,0.15519010419531187,0.9408937841786951,0.7549386607488136,-0.3206623183436572,0.4136939270758546,0.8972316021682967,0.7579633300091442,0.5392873057040515,0.9511460327200412,-0.20762385786476,-0.6326161530596381,-0.2616059848736111,-0.12302847461801714,0.9682260996234762,-0.6266295414559928,-0.6644383884159796,0.8034704989974857,0.9653482593889182,-0.6008244156281652,0.08159730109144747,0.11828433392482163,-0.6883737321423496,-0.08372626240769476,0.17177868151994669,-0.7537940405230092,0.4801600023500272,0.2101056927492475,-0.7169639164675822,-0.2300655637029564,0.44111515489812425,-0.8989360211873769,0.5321264255270988,-0.9417427187628602,-0.4302007111282259,0.02761850916420272,-0.5227753773389712,0.7581080866568919,-0.33622404816938944,-0.8886575964141971,-0.06414140763480713,0.7080371067999836,-0.2795080625458116,-0.9863826074202524,-0.5372358784570646,-0.9393527356074154,0.39869522744902586,-0.016240844014461908,-0.7762108967619749,0.6795895820716364,-0.7795070890490179,0.6794760394526105,-0.594859355438442,-0.995803168554875,-0.721441884975264,-0.2983664678752378,0.37967072535733637,-0.8539119089512655,-0.2551023285599524,-0.5287706435163739,-0.1482550847606401],[0.8496613923101792,-0.07097141643589133,-0.6492369820802024,-0.2532778396912283,-0.5674391668922407,-0.9836806625932244,-0.7038937960300417,-0.6673414814735387,-0.7671447176017644,0.9489486974359505,0.9477613221599099,-0.6978634134828032,0.9898020778467134,0.9643725418413587,-0.5497619688023445,-0.9789447018600512,0.9485922944150964,-0.40941817587710083,-0.3201575620035816,0.5197020362759759,0.1953812971718769,-0.9123732803994556,-0.5957065483188513,0.8471700747606801,0.25174233471381835,-0.17154329512319666,-0.28900056743443847,0.807378081260709,-0.10245018021589603,0.35781266796323274,-0.8930931257575128,-0.7959316219495675,-0.9654850834428679,-0.5746189210080506,0.678776598912795,0.04921826886335379,-0.7784802278682039,0.18531893195502613,-0.02697311224462673,-0.7547276840252767,0.5135383988760165,-0.2972028120391549,-0.6534897635157744,-0.5962628866982802,-0.04880285188235445,0.6686614501564399,0.4013191554298925,-0.4900199685450083,0.21190847247365063,0.09239398378274788,0.7154705741173799,0.4336686936959284,-0.6027512767912947,-0.7750005581620159,0.7611222252286691,-0.22368931180237073,-0.725296081347238,0.5464046486534582,0.6243076434115133,-0.6002046560831058,0.6735283601162823,0.26685153250493854,0.9754869878699057,-0.8851193490970484],[-0.6044528314056143,-0.12845356771210437,-0.4614212851225322,-0.8053157891267381,0.6125993423228069,0.2532397571654188,0.2637841004255057,0.39268151432501663,-0.30129655400566313,-0.06281154707992431,0.32077778126711776,0.6375634494140712,-0.8047889498978152,-0.7432173062939346,-0.4150648195025024,0.6999214099465514,0.3613227629439746,-0.3364267698008788,-0.9580992022921745,0.7189724490326022,-0.5689805108460024,0.4214498538185478,0.4524740369296476,-0.6488301674326866,0.33949632695483256,0.24065706951090404,-0.989564933307713,-0.45042558582592773,-0.5271158216039471,-0.5241988369803153,0.2922764647910894,-0.04074440009314384,-0.4903804818305938,-0.03464722113850305,-0.5951243199764851,0.7167311362608013,0.29892181746778146,-0.6180741068386356,0.6267844045687219,0.159724551023809,0.843247228723774,-0.5642383352921505,-0.4973456845049231,-0.35855036644780003,0.24115002185981593,-0.6723140311893627,0.3367025944527391,-0.49806936913739497,0.20689394892274526,0.04215399602469705,-0.5748236720640545,0.21106050952466027,0.4498394526551188,0.6128662855006808,-0.1468726513821349,0.9841265288563428,-0.028821935010598265,0.30118546506692234,0.8374394432116647,0.48365133168906205,0.39182228057532464,0.24820289328322387,-0.13359880410447755,0.6835783456228259],[-0.08617570054818768,0.8897576483142111,0.606607417382212,-0.03149873390479141,-0.9435538910252611,0.7828148487355775,-0.16645599995363536,0.5918185827638831,0.012188349360206407,-0.18101394990079178,0.2790987339714637,0.355941096558674,0.8865084073124394,0.3847874401499234,-0.9251655626814113,-0.20641525990426068,-0.8181542579139649,0.9534685556371094,0.6715781485733676,0.5235081429455073,-0.6829177433055496,-0.7852684984189371,-0.26039703721041585,0.9334306176421465,0.12979551276145385,-0.5026006846095905,0.6240311215809906,0.6253406916220472,0.282251384579405,-0.9929625411869419,0.5268100414642614,0.015231258824632388,-0.2170073955369609,0.4082696519728861,0.8550156460315368,0.33132958536405077,-0.8713600800298356,0.23900671156525055,-0.15449961953842872,-0.9301056954121822,-0.2098255461251286,0.02165297681907652,0.11522107011458216,-0.2723085301858029,-0.18427408983213012,-0.4467761781543871,-0.44692469630756726,0.18459769227999523,-0.5612835760615199,-0.6121516826279814,0.1157793472632993,-0.6010527074779665,0.7558710211196238,-0.833201069692852,0.0839434804986543,0.4618651023828819,-0.09075616817262178,0.25959749396047616,-0.14051606979205278,-0.3371634617980892,-0.3929305037552503,0.6998882645725413,0.6547745027995733,-0.08669165403918289],[-0.2708846576408642,-0.7188424463108267,0.5274122867427367,-0.35523110898233556,0.02899773052129384,0.9076339710145349,0.6625796771418127,0.7028327055223933,0.516639790308985,-0.9062926372612023,0.7782791273847833,0.44197070302873676,-0.8169628772864567,0.9864078910898861,-0.2470947916549816,-0.1326908050450858,0.35411433354362765,0.4556527482722039,0.8685195864378563,-0.7990117343622288,-0.6139264109711824,0.24321973263963814,0.8004217568862264,-0.4286770340495254,0.01498763456601182,0.29417408894252106,-0.03561854244718066,-0.4680576295075295,0.6682587299630494,-0.5315300041805677,0.7036712398780074,-0.15150462763434602,-0.5770581457912602,-0.34706650561184427,-0.5595665664841274,0.7983535516272611,0.675381998297218,0.13615012476978383,0.15995845003268205,-0.6702177727046206,-0.98745810436584,-0.08584094696494904,0.7422690166266988,-0.5040030788268235,-0.32394318370544883,0.2891242843036437,-0.3601513836767084,0.8478204627048465,-0.5398603491385516,-0.8309609871684838,-0.8133598423454675,-0.38580764556006575,0.5066892666673342,-0.8125914055807786,0.9988405903426332,-0.925906010016281,0.8810514570164862,-0.7431206234695704,0.6750609266401697,0.5761007936447295,-0.33517961466746826,-0.78744605096846,-0.811371363426483,-0.659387880485482],[0.3252855818518696,0.4269142883401369,0.4892699133268841,-0.5079297013946007,0.2598938712690051,-0.8852758489811204,0.7519184956443539,0.2534162528102002,0.3822767419069124,0.4663791882292019,-0.894954661538719,0.7736605198467874,0.47050488447661376,0.6821504757895294,-0.26490509109148075,-0.7597877190438423,-0.337005310254773,-0.17433275910976498,0.08572013017651225,0.7059406815601659,0.04414683066740732,0.26257507031349325,0.09319296358771822,0.5503360263698909,0.8203767688288359,-0.20147329281356996,0.5734685467827054,0.7572984754806971,0.5221010232732493,-0.26701390370454015,0.9045255867002389,0.7378505038976639,0.3233813873072129,0.5081871312554198,-0.9248505273221571,0.5984437560115106,0.32632152046280627,-0.634477747507813,-0.7637009512323755,-0.9736717133146462,0.7187826754751439,-0.3557931404451137,-0.3014433753573317,-0.8133110572494773,0.06548022401285447,0.9135296614435624,0.6017163196620061,-0.6567652045000738,-0.6183183744523659,-0.016822692964513553,0.697613254748433,0.14570037710494832,-0.060399600930176045,-0.03191172129964348,-0.6584958549746038,0.23154181717037248,-0.13115124399924294,0.7053689473687192,-0.8516337078053957,-0.5871513822599401,-0.12569677012270586,-0.8976543941117914,0.36058487635887015,0.3315784268737503],[-0.03739046076943531,-0.1165242319177695,0.20528689053011595,-0.8876361094558899,0.9375717231065983,0.022387288627391033,-0.9796391165787365,0.5458226958385315,0.7901746918435446,-0.8701366103108067,-0.35096010432309743,-0.3489766642272256,-0.9523059923586991,0.6417380970858773,-0.2928611151326461,-0.7044171233462304,-0.11962363077195592,0.1903226820471542,-0.9365338091449378,0.485382258283678,0.3339916267099825,-0.7791589128660756,0.026263523262725075,0.5279987132535764,-0.3548617917113672,0.30882489165535554,0.13297948203161125,-0.8430057891708089,-0.5721036083325362,-0.6728049650559348,0.15709012765157992,-0.4571799338231861,-0.1953393834690592,0.857706714399626,-0.21058042491324336,0.5917912372719183,-0.7310745861164888,0.7792780606879994,0.28881570901072906,0.45385927823765404,-0.7282764901569335,-0.0982662376170026,-0.5531910866542242,-0.20761804352670177,-0.30630813424916625,0.052065636083052036,0.5959238208922499,0.6702468059547027,0.569714512038936,0.6372631903757042,-0.14770519022209105,0.763114508522484,0.4082755074127853,0.1831672054749216,0.8076050698104966,-0.6135211804481391,0.7683527440582374,0.9955065682664188,0.4125743372849915,0.4431830994097974,-0.26696878706036287,0.2350422630623199,0.9591336553597498,-0.6016060041474088],[0.33400272287947863,0.9634892609699799,-0.6379811894569516,0.007579662462360304,-0.5704337790366083,-0.9645861778851654,0.1239707585934482,0.029854466083836018,0.5302502860235478,0.8470151739726337,0.5804803944255601,-0.3033114073091947,0.11448183291860836,-0.09107491607627938,0.9200654164589614,0.9981096808544931,0.24987782739666287,-0.39326721018110056,0.8098955638162675,-0.8186637172792716,-0.3737361856896486,-0.9671771532357697,0.6596707460549127,-0.25135730140255497,-0.7972777339002072,0.8804473067500562,0.977371986030888,0.6682376145928359,0.4849344220147458,0.9698296319343869,-0.3262709306521263,0.6263799542808222,-0.8351463339322939,-0.9527533715043484,0.9237424368584934,-0.1760572830410556,0.0507222867515118,-0.9342097165078093,-0.2429300249779045,-0.17094267096960658,0.3683158773534645,-0.17865514972979446,0.8244373454137679,0.30150807172012284,0.8715655724492881,0.809224803360941,-0.08030393603699149,0.2759688961575768,-0.05093967860936033,0.4470472345483276,0.4466590077842638,0.16618788655139438,0.2404025096317628,0.28690960852199443,-0.2045723429813876,-0.45238818796317737,-0.9766430117851231,0.8169145064521959,-0.5848444985298193,-0.6050330154205164,-0.5414322764549271,-0.21544214349858704,-0.10003149143002799,-0.45692731334864456],[-0.09059937981490696,0.1249537756146144,0.5744651946266879,-0.1703662932818497,-0.5364395433173896,-0.8846222301312822,-0.7220598816438808,0.9935320988734686,-0.5676475368775826,0.5229857784903547,0.06823763256817794,0.49281847795210365,0.9762205450533472,-0.6645787965039338,-0.11777354609972712,-0.994168842001356,0.5469198392615531,-0.3454679415030194,0.28247027775183775,-0.24556514584815858,0.8763057688706628,0.07183311382174407,0.09953255398546657,-0.04730142761031242,0.7552776060508903,-0.30168334996300483,0.6279688047038503,0.6711735298466794,0.06351039521937585,0.2992598505444801,-0.5987760652514517,0.5759064017472793,0.36943751573130656,-0.6622804295844738,0.8489730248724998,-0.14441832665917087,-0.4175784837581473,-0.02899501430684137,-0.6470025159621727,0.05281198466784587,-0.2364656843342372,-0.8330925549645228,0.008915830668687397,-0.7716221817477986,-0.7911544474925645,-0.10977654666728731,0.46713874637450514,0.10276575472873972,-0.17117581584185304,-0.993336052610858,0.6774414839827778,-0.849385041723526,-0.5538324500574133,-0.22865370766837334,0.38068175024523176,0.3833402267530073,-0.4162959557903809,-0.363019176211659,0.9382500535039995,0.4596663675372996,-0.03902034706222801,-0.5319974255661928,-0.9429049916255385,0.28716450098907464],[0.34083695859279395,-0.39025812536521753,0.9626372489692612,-0.6930582685884782,0.7389506652388116,0.6178090773182949,-0.3989961384501223,0.11571970871325576,0.5040099542946344,0.18014602697191173,0.9716815492778794,0.7295370784862245,-0.4297702894952987,0.5250460856485499,-0.08713279286377706,-0.1089869845401894,0.04046792067679106,-0.5297860250113641,0.13358538456654756,-0.7443536975417204,-0.8828853230608001,0.5353999605719384,-0.9625622263749563,0.0919794370901501,0.3171387430060917,-0.264270233183867,0.6339530465039505,-0.9681847642000909,0.5332319105846466,0.20737245287399375,0.46588559120417905,-0.7273506355875538,-0.4089597682398214,0.6029683162809694,0.09801660015364688,-0.1507929406707499,-0.0904983157172019,-0.5903842430164941,0.052850246287699854,-0.5922584906578046,0.8773981905308816,-0.664390632134156,-0.7886587016659689,-0.8563918734230649,-0.665681607806653,0.1292227673267181,0.8170602655109165,0.8524858390190402,-0.15134931417955244,0.1682462164543579,-0.1370713087968204,0.12341516981086809,-0.5125640800313923,0.8734127834278691,-0.006512314825513843,0.798005193585144,-0.4356206388717073,0.012923949388821132,0.2463342961942392,0.3434402514596442,-0.039992460287170184,-0.5745448230930646,-0.9435625690267471,-0.09595820950786094],[-0.8030581116392983,-0.08960562554823737,-0.4892566789368774,-0.6497718874605867,-0.769538300138719,0.9659762561923892,0.7205651306132961,-0.5041729028130885,0.3117823628570624,-0.32891659730367206,-0.794103791055522,0.5766991884906945,0.1088057391953996,0.5461230834160022,0.48189149092487615,-0.9819893350044883,0.7306167411831703,0.15026173159443812,-0.9676288517220463,-0.20521072948292285,-0.10594436661887041,-0.22804609033484624,0.18256380152285612,-0.7432977231436251,0.051732933082441424,0.07468781999606122,0.2950314809085479,0.9916872514676263,-0.762421277599087,0.12529615689087792,-0.9535682362618833,0.2657499105074794,0.2770317039586401,0.00395337740253221,-0.5094497621633538,-0.01237910657831276,0.2310664230004975,0.05685601286364528,0.6359012578778194,0.8606501959865656,0.10754793466918655,-0.6030518245023808,0.3780321258507193,-0.7898372373375241,0.337915011375191,-0.5343437803579155,0.5244306767574867,-0.8977864914727134,-0.23824499180998504,0.1558771014935767,0.2277794091505616,-0.13844248475567067,-0.5427440963881275,-0.5396214873071727,-0.5932958807768709,0.30282904640553765,0.5571109614064294,0.9589168497837088,0.3362494413789512,0.010667184009631958,-0.32393074952166023,-0.7314479891577899,0.18394886153930456,0.04067344986152044],[0.989394553381131,0.4836873910172388,-0.010143022363105936,-0.30928992742132466,0.17128872695457376,-0.28353331009836036,-0.13845220432980698,-0.12626141798006307,-0.7021356275016319,-0.6882814863657114,-0.24320775340491807,0.6248890001229768,-0.001290565402402577,-0.15102358294318163,0.47400583853215394,-0.44546878934269285,0.5219280978987697,-0.40011457733343525,0.4177582804336646,0.9832644829836961,-0.04628738213922112,0.1410020869189752,-0.09434961918639162,-0.09670120755091949,0.5704232076546691,-0.7339303549573752,0.5489021276311781,0.6168308916310166,0.02571459755553951,0.38560353444674145,-0.266797201652062,-0.43284737324299916,-0.6469390692961904,-0.6669147510469816,-0.14713662890547807,-0.6047385833314504,0.6699298308635273,0.9937545643437857,-0.5843900862414341,0.8655119380914036,0.46589610892620303,0.4168067268325939,0.03561434030108401,-0.07135566857577447,0.8889072933009254,0.33315972739926303,-0.7621679902520166,0.5725875282333688,0.7232696770857494,-0.10411482038697761,-0.019332704605754536,0.6758907621203065,0.05443620211441624,0.15989790524391112,0.27062196611317035,-0.29109562061628946,0.13081905582736963,0.8942070552363934,-0.07793804298827867,-0.5440170019794462,0.5111332770687482,-0.9298044784688589,-0.9093411298228146,-0.8022231231422778],[0.1855564504244962,0.947590729850782,0.4142079126486893,-0.10113553958623045,-0.8865902229176528,0.5362962226634036,-0.9229054613729303,0.8799018831313232,0.1549034484068732,-0.8827611110074466,-0.9940212684436809,-0.8307283741240206,-0.19194807361108523,-0.4407341389939442,0.571705454314291,-0.9028196881227831,0.5453824408811159,0.5322352832436679,-0.4776637057971056,-0.6714880518595039,-0.8452174672452122,-0.39634607890353124,0.6200722871746667,-0.4447644739816552,-0.672854561726733,0.5096393028536443,0.09905413100820559,0.9999518772993832,-0.7483695786437936,-0.5605252976645722,-0.4381183511026331,-0.6568036036270481,-0.8232476128928088,0.44261288265678944,0.3228314887613237,0.4940500764863749,0.48650165180404414,0.9894835395628208,0.48942879909712533,-0.8941735699441709,-0.5241256624515891,0.9309704358081947,-0.5228029703979102,-0.6878252640924305,-0.30986360065302154,-0.9393499657257348,-0.14114186226174286,0.5525811674775789,0.3140129248756751,-0.21238418830321903,0.0438753817124391,0.38906567636654765,-0.21474457798523305,0.26707960120308183,-0.6431149932985418,-0.5849211599979517,0.9437272568436827,0.7945031771348297,0.03367472933024329,0.026031567298818947,-0.029323713134078444,-0.9297952039744192,-0.42134853994054844,-0.8583530240915038],[-0.41839493586650706,0.45242763015788984,0.6865716009858501,-0.7842583753932724,0.8558830876115769,-0.7297381838397227,-0.6598349867712102,-0.5372613921227982,0.5327313821572185,0.6574675478890254,-0.4698931489216418,0.5546401002682515,0.9379949636671987,0.40037969360089154,0.6929228277123842,-0.001275988324587643,0.21415048148441482,-0.051420668551184406,0.9787067290765794,-0.28861013902847477,0.5839209731702246,-0.32432663092110225,0.17186985681980352,0.6319653609032354,0.08618411457373273,-0.18770274897305933,-0.5934536811676788,0.5302542630108638,-0.37170383674256613,0.6549529476068434,0.5913900586038571,-0.5391712104488979,-0.010250867257481991,-0.1223306571586983,0.7639148636735499,-0.7838850202578891,0.32284599015131665,-0.9868568289650039,-0.5210939524788747,0.6963329243643328,-0.32786688261140906,-0.06560680897233692,-0.39477013719588877,0.9299444138113234,-0.5313966397585201,-0.48318803378826436,-0.2033650811365294,0.725096947366335,-0.04968978853337919,0.3071689028546449,0.6273082803963572,0.5898514567674573,0.974336201471508,0.6547798166438538,0.4371652290631825,-0.5474649410465591,0.95009385491315,-0.1533275135761422,-0.11404886151477621,-0.5892594979046074,-0.7667155089293588,0.2130903768585708,-0.24183311901139945,-0.9998054841403072],[0.4257169025399547,-0.5739424165429169,-0.03815073166505505,0.08558309971164692,-0.7029080999331244,-0.8876995872194252,-0.6503582355624146,-0.09064463154609265,-0.7064317859004374,0.7733138969259773,0.7672157290509176,0.00790484643891525,0.4119966657852679,0.7310199468783347,-0.3200922768211066,0.7456952008079979,0.7855648599339085,-0.08026191635651495,-0.47122405751902646,0.26219862887064044,-0.5337931555507703,-0.24135702526172814,0.14659638302657899,-0.1852702485739265,-0.13119145275015268,0.4007278199306691,0.6057958227259593,0.19975032196530923,-0.7268613978104661,-0.6957679224172446,-0.9692728979483265,0.8500879888419243,0.047539254355364484,-0.6072997728076,0.011508961242140377,-0.6755401037075198,-0.8333030388005491,0.3053704040015637,-0.6717871928236381,0.28499123542868987,-0.659974212728316,0.7063695690742762,0.05408343597641461,0.9356035595859753,0.029439984198601544,0.863883295382292,-0.6908804255615588,0.2878562139139243,-0.23729411934175854,0.30023083943553497,-0.23408635103028658,0.015282894183909752,-0.510688218960693,0.7291400853775585,-0.1334533493339557,0.6728283248956539,0.27698657307632507,0.11303583892059856,-0.17020367559585756,-0.9143170247953412,-0.6971360326931478,-0.16044695930442382,0.8886333327736534,0.08285156776572718],[0.10754291478577378,-0.16245498121637725,0.7164448560467017,0.8079771686727074,0.04588431349391996,0.25742262626520623,-0.4831004190684272,-0.7815925031443417,0.543824860010071,0.06416346041207785,0.09241304661346021,-0.8720411418545634,-0.766737564637575,-0.2918674427615149,-0.917790878367046,-0.25655675497118324,0.17931089785781948,-0.010853887589685333,-0.4349351069300174,-0.8725033276410629,0.3894760784392842,0.2129144705030428,-0.7985483435841987,0.03345763169493249,0.3870627410792929,0.2483073086202336,0.0013080337265702622,0.5736616390032172,0.8144661403412494,0.11862187566732746,-0.04348991451381098,-0.4963385778270121,-0.43824928955822257,-0.6692240307226512,0.8288555179931291,-0.5380586688804326,-0.3089961057352186,0.2050533823328233,0.4262113305620178,0.5676615753854842,0.9647860557883619,0.8118188487987437,-0.22208375399210795,-0.9694308848286545,0.03279831696865132,-0.3851830768004348,-0.823825368285924,-0.5553778216905426,-0.1665801725760954,0.41976914920494307,0.19595616347957057,0.9707183177215855,0.7738561434317405,0.6829992158051321,0.3577980790453756,-0.30245618561190635,0.6214339860484349,0.13695458213779854,-0.8100948558582522,-0.04925571452616039,-0.10291436373083414,0.2417799100866225,-0.5011954861327461,-0.38102537736984454],[0.3621916062214679,0.2550551665668188,-0.8963652509421786,0.7616673106354861,0.05857119087769914,0.239339593983719,0.910276292673177,-0.05795078289969524,0.47626347308711453,-0.8889336309490652,-0.3177632964059299,-0.7520239014426476,-0.021428823465811275,0.8119860703752875,0.5396768583501774,-0.23163694616113667,0.5330960350793789,-0.992782436501434,-0.3166970992338937,-0.5556129681410884,-0.9686969984043206,0.15676112332762912,0.18027295795310863,0.10131563103292315,0.8324997395760098,-0.8191187161350231,0.5520342370586031,-0.8246772837472932,-0.9362856542463893,0.24679278854745584,-0.9278480711341045,0.08678357799664152,0.6370500850929511,-0.05202340454700939,-0.8430098939507152,0.15597465650581874,-0.6503922764568446,0.09893762299306819,-0.6062657462750398,0.13085202343588886,0.5303843932639839,0.3860694755696993,0.8462702674323088,0.2314080697529389,-0.6083226838152167,-0.7587994843334884,0.04789626520550418,-0.8625981134538805,0.9378903697264128,-0.9368315659029887,-0.3933526137833657,0.4470457850310042,0.8634970865338442,-0.191931799187236,0.05623482321438605,-0.3431351043610245,-0.2961975188571666,-0.8072067067491638,-0.26395969357154797,-0.0808394270594791,0.3777108649242693,0.6635073368697877,-0.12141341331126107,0.13765196352145934],[0.7228134581040023,-0.5845647570895918,0.5975923380985612,-0.8253255428216005,-0.14679327804801057,-0.9908964447882047,0.7420119850196247,-0.26648931318085156,-0.759684697461634,0.04886653909698147,-0.571094817289282,-0.15205735553738842,0.6347645542012802,0.022053568752086004,-0.04700180243838681,0.4098665324459819,0.36871929524513414,-0.576268574255464,-0.8121084026892146,0.25973691696906487,-0.0775379938272772,0.11240688376651804,-0.7676474818124485,0.27912400275769655,0.0161757352456362,0.04063793673217675,0.0018874446624252046,-0.18477484805486227,-0.6919523369321601,-0.02287087849099343,0.5500076678205067,-0.07275561480311316,0.4677877585384819,-0.507665115960341,0.9450705978988575,0.7884425671253585,0.029959740518020334,0.3322182297764409,-0.34718346843106507,0.9879375879399211,-0.1332534370339069,-0.34547793408080113,0.37499320119229457,-0.9757175842127817,0.05097723860036836,-0.5188273796019567,-0.1883071082070396,-0.7636575580440293,0.5578264609048067,0.24996197326031744,-0.6360202217031476,-0.41303451277317244,0.3706148668026173,-0.8498620853267163,-0.3138217670336196,-0.13846011165753003,-0.6362456932545899,-0.618799058229174,0.27276957655658657,0.25706153970667744,0.4611988186642117,-0.26116572261609977,-0.5661240537564639,0.11875185539405328],[0.48925764100732144,-0.10806778956424944,-0.5442440358737903,0.8217079309808115,-0.04045668447289096,0.7716205012573422,0.7461240682599626,-0.9094539330454737,0.37716864711326176,-0.09886436001244324,-0.5464753615122143,-0.8388262477670071,0.00024709631477650036,0.14464684575790923,-0.9692467037620688,0.07169639188794588,-0.7637745086030304,-0.013743888325520325,0.21444170701505383,0.7786535378907522,0.41896753445717994,0.7780797433759743,-0.979932286678187,-0.5904642838759389,0.14987302532339927,-0.23271344538390076,0.4784335367720103,0.888758527707527,-0.7638304817540786,0.40392194560599387,0.7158344475114223,-0.5725776334760436,-0.2615282496641132,-0.2507308400271152,-0.8910713646156984,0.3206295857475729,-0.6233606019959101,0.26674070027906316,0.039822929683406116,-0.04934751859368992,-0.8305644244713202,-0.385035782213151,0.6164624921617845,-0.16135134853744992,0.40366869540816064,0.6584592012514727,0.9906738761856824,-0.4840946601563686,-0.18659814490828885,0.5196723673835434,-0.8817278150867783,0.37256947469933754,0.07365019214330112,0.7543702842750609,-0.8939170853145151,0.06828527587653146,0.48358730000832345,-0.2261165570218977,0.2235316294077092,-0.965499607804059,-0.6751141639282153,-0.5853556898667318,0.28284305689407885,-0.004186977188116368],[-0.3479181777937011,-0.8974231752567597,-0.34615153905396256,0.22456140799008492,-0.13718273893075708,-0.7178110593709714,0.35000621143987976,-0.813862051939193,0.45307866071767805,0.9947585829842687,-0.0790544771620853,0.687004524124182,0.4551800764926458,-0.9222312189226775,-0.642423529262741,-0.9432498811884732,0.5536240088919805,-0.3272381003823365,0.2145700861964764,-0.6707194865255425,0.25867841107270545,0.8588859939644866,0.6524460068272864,0.8102381792179345,-0.4848216385888528,0.3507505196390842,-0.15340412631847797,0.19828376675358428,-0.8827537607075072,0.6552070991529068,0.4230753002932698,0.011078520830407812,0.5047077034864882,-0.26030928358040384,0.47159916534655394,0.04542887353157607,-0.7356741618004747,0.6866394090130677,0.905445870340401,0.8483079296268979,0.32499704378330074,0.1409235065884844,-0.8476803047198269,-0.871583262798108,0.7097652749346869,0.23956424246584127,-0.6873188155382718,0.7801205527535476,0.07159800592824306,-0.24786537013816898,0.5296979783557246,0.2515317612232607,-0.22393414238240947,0.8965195450224499,-0.8769230185803971,-0.9195329477463489,-0.337930202232034,0.8711398884390312,-0.1392355426990312,-0.35631728407360536,-0.3277161302134081,-0.14228139259788142,-0.3674179667519363,0.00789183173881376],[0.3543338568291755,-0.24912500195363957,0.6952030647108219,0.12117058693191704,-0.23592305205848504,0.9771040132740821,-0.240429821037914,0.9143848454102902,-0.14486873293445807,-0.5762431801033772,-0.5636113877707424,-0.4252622913307868,-0.9542430931729599,0.047203076810433654,-0.4833870395678471,-0.8251469627015567,-0.356975179789778,-0.4106010390315149,-0.6526018666279825,0.36543029162028234,-0.40949593436945475,-0.08630627446452038,0.4970389701983345,0.847835754218129,0.18908796328650215,0.10432764379335216,0.017863953404145313,-0.1524415178766254,0.6033829485977271,-0.024996776817568317,-0.16162307958978586,0.1870528925826601,0.30909422280170606,0.10283671623944125,0.332603489821565,-0.49213054724420996,0.358104499289639,-0.41633212805816944,-0.25542929636295514,0.28805367803860293,-0.8173822238368994,0.8685530329980891,-0.8420601430144227,0.7037003352386236,0.30048655789473816,0.2209092891924804,0.6625013741394585,0.3847699091442764,-0.979445385885544,0.45018360126914625,-0.6050194163419889,-0.9209719565018532,0.538411512613013,0.5454467681331452,0.3926514610474323,-0.3748678372430769,-0.7767500898456482,0.04088584329457829,0.4850059327554124,0.1565975398890643,-0.969268627858366,0.7534173449596572,0.951081220339953,0.8175252598778272],[0.2536092749565522,-0.6254779776042362,0.4117444170303828,-0.5351053176422524,-0.3118288760169147,0.8994293089229296,-0.643538782952032,0.3636546104233373,-0.725337769119455,0.776985574231478,0.2272754051738232,-0.5465408806231561,-0.7964220090417744,0.8953483656164629,-0.8438789942962769,0.9408942422394212,0.5023509993283272,0.6008443497226398,0.3953402967684597,0.9310860965824147,-0.8710049856526815,0.3667150803269018,0.3836063693665757,0.2495343414720097,-0.8809272768886196,0.7585649209645217,0.5655080522955973,-0.3258265287481157,0.6771812746400393,0.9792621505068115,0.1518028212950451,0.3616279813001717,-0.7021803740352567,0.595784885928374,0.08264759232782498,0.652222321793959,0.09361641536862225,-0.24236613233438895,0.8947108598907648,0.2605665850354186,0.777869155806793,-0.2145679292325808,0.013236007715191424,-0.8919463740920838,-0.024261129909415608,0.41403346243147987,-0.4682193180759047,-0.5178801807338287,0.9875471672303949,-0.1861153431557123,0.43768602355600084,0.8758264831149595,-0.9723512390887619,0.7088426141819247,0.3030813075563395,-0.4301731846436551,-0.24007084389873495,0.9464259012720007,0.37439195034034234,0.3149427975520829,0.45857538475917853,-0.5241613766275652,0.5591397008031335,0.2996645601823993],[-0.023002437284472627,-0.07948280740876065,-0.26809382234897355,0.21696474738100946,-0.544281953742522,0.8567154560460623,0.8223863447761879,0.3143193863165835,-0.25541899386849654,0.5950763417374312,0.4425539599593095,0.1098567054659742,0.6130730346306729,0.5583817146633709,-0.6990075159149357,-0.35387011661510326,-0.2130183416463226,0.5211606122493873,0.1026785851924544,-0.008974379584486644,-0.3945473494316498,-0.45322984911134395,-0.709145329292224,0.28449110079874407,-0.9677093332974623,0.611819066055334,-0.08434039583581142,-0.5578994012722683,0.9344846683428806,-0.8709373534082948,0.7986244431774239,-0.711273396266448,-0.8434009052020917,-0.4731183305846951,0.8885007401765344,-0.6767152177607223,-0.9450900275438288,-0.05175098300101251,-0.4859927900585027,-0.17609142086659735,0.20317038147659294,-0.08177104118089687,-0.23184291228806217,-0.22204996210364608,0.5818238434787413,-0.3853282673533338,-0.9359028486365856,0.8502777639231422,-0.4298190558189917,-0.5482260509545099,-0.20617274108688524,0.4341425301392637,-0.3571896013201748,-0.7158705737868908,-0.19528967079446535,0.7604340499297573,-0.0008553055842346652,-0.5303594198561472,-0.9831092780969151,0.7606456371505325,-0.13709695518973206,-0.021680417787967306,-0.26518543662033817,-0.9267593373455119],[-0.5271828954843727,0.7080660733087527,-0.19623675715661876,-0.21119578346920034,0.595047131654705,-0.30297599416438364,0.1468699125193021,0.15127082611386394,0.8640831977711226,-0.7337712111417002,-0.7508746278616891,-0.8729396033570321,-0.03551034290416593,0.7947520015328537,0.8632527059111343,0.8477876304534038,-0.07427449969913723,0.5649546400903954,0.8892149256918409,0.13897825404222947,-0.6432900601281992,-0.6003616422303527,0.597269508401801,0.9998063182035896,0.5010975518528211,0.2766398770441179,0.7412909026206407,-0.16662509598445344,0.122006695684957,-0.38705210407058543,0.1443349448128367,0.1728408897566391,0.3064861518404109,-0.8737187229015511,0.521229786111046,-0.5326150599174976,-0.9446211770657786,-0.17630476455561242,0.6806204781805412,0.909924884018699,-0.3310467299739377,-0.03087999087335777,-0.6415581710033847,0.7603852925830181,-0.6426877353459002,0.15924448086732737,0.1299273438712426,0.31295234747604245,0.9006083700617696,-0.16985017091820473,0.1446827701159384,0.9695159295868955,0.3684580328009594,-0.8511248428434852,-0.731876979302959,-0.05518031754771567,-0.2339932428440297,-0.1361652922417633,0.37811174949102455,0.9513368585577975,-0.3224506848324368,-0.41352367216381697,-0.6778975489843211,0.6530356503315742],[-0.9177699548218599,-0.8014078569845292,-0.2866865298064048,-0.4513956420556977,-0.28962673492616414,0.791875732770531,0.7870441629892969,0.4477734855435397,-0.46899852885989624,0.1454197005751782,0.4068378987798129,-0.7825131323390051,-0.44551676865551043,-0.12319059672978643,-0.41383730904736526,0.7485255377684592,0.05133053111094789,0.21169297098309497,-0.46621099322094267,0.5766652761994482,1.0025446511146832,0.24816386398619508,0.32252637493866815,0.017091550521111974,-0.050533645850757355,-0.6816113706074799,0.5067518352819205,-0.3066670140573347,0.8548088769546873,0.48198725762633665,-0.24656095847528742,0.9665110636720395,0.45230542457697137,-0.8609277249160872,0.8206261795199371,-0.5406257904772832,-0.9740303137328256,-0.7201030737315448,0.43303248340884876,-0.3946996430914924,0.26363414462500245,-0.4597839849788955,-0.20280527702481554,0.9850532522041021,-0.11382654332983148,0.8438835872505684,0.6856472834677306,0.6035516601542685,0.9022469979550755,0.8239561229747128,-0.2261977631007427,0.7297092446430087,-0.27275526519375454,-0.6233627019733171,-0.26698108088949346,0.7383734207223922,-0.42395124422893105,-0.37224649504886376,-0.5935207390233296,-0.30533570799415616,0.9482567122236802,-0.8506098404080236,-0.4911027024622429,-0.8153535848292592],[0.016980361014974722,0.08420950907691653,-0.7552870285606945,0.12234911104165187,0.07977336433076539,-0.20077608968711486,0.6672858156802383,0.4355953429379496,0.9776379845908391,-0.369152338205468,0.1457058934248332,0.6327956387526855,0.31152340225301184,0.9708694779665158,-0.6145853431744432,0.46407218156535346,-0.003200888968673896,-0.5464803043918773,0.8159694460853447,-0.932125083969357,-0.5833321125701344,0.989234344120716,-0.8282912373832908,-0.026952789038562155,-0.8863904222466434,-0.6349687781953954,-0.7973942392818307,-0.8512043873303746,0.9108806745882859,-0.032726461982703056,0.5185443870487907,-0.37061493679689206,0.929764832060265,-0.3039285300791188,0.49283465420463934,0.09875359484011563,-0.5484419690097433,0.3427354362913621,0.372744242634454,-0.5035698443704067,0.47638963435918413,0.011534360738880612,-0.5409611726217803,-0.06247707003302513,0.1732997961344071,-0.42271365916881465,-0.17835633374489163,-0.29054104912065687,0.32274774410342705,-0.13408016887498425,-0.6852134109865506,0.12245966935069325,-0.7354781575476448,-0.8818473603624112,-0.8843027727810621,0.6288919924241703,-0.6411199011595557,0.9499963454724248,-0.6405054060593961,0.29129362537558257,0.13836372445173392,0.7174839135239772,-0.4552531404239463,-0.2829477182818499],[-0.024527588159488176,0.933036137405829,0.4164775109340485,-0.01766697755535117,0.37818829451892144,0.06480828496117767,-0.441386517592117,-0.26792027888358527,0.7897664597888293,0.6097955490674416,-0.7009777012033378,-0.4057090056212772,0.1668628610740112,0.12079101147406947,0.12425592813281607,-0.012657016320989273,-0.4308894207861256,-0.7237434809516262,0.36838409489565777,0.7527321998608182,-0.610822141027751,-0.34712014800642776,0.04111923502989345,0.9041436933274846,-0.3300265885481758,0.413730380927497,-0.9671422401524528,-0.024809611870144282,0.24244194046960305,-0.9992975674152891,-0.8986066477261974,0.9875926651564599,0.26493479476515913,0.8638551612696442,-0.04250830339820949,-0.7825117519799308,0.6619596158428758,0.42634278720165475,0.5738157433651558,0.23777840366887978,-0.17995079814535536,0.12204876541780559,-0.5404774819441248,-0.14141461418889084,0.7684343273983225,0.48667017928462575,-0.2742681163775356,0.23349554632605543,0.5434410297826696,0.7498582411553867,-0.5757783225033589,-0.2348719810257543,-0.894480441252097,0.3799661409541707,0.608378399720656,-0.4137557605291111,-0.7294255544234798,-0.381138185685052,-0.6794925577749296,-0.31035061075755854,-0.028598139387253592,0.5385681963841006,-0.2560936364166491,0.8557793458880851],[-0.7868555536561456,-0.5601474354802772,-0.532344167382049,-0.8283170703106542,0.02358560669289488,0.3716161944483583,-0.8624319457273745,0.047024133546788145,0.5948451963592283,-0.015474317363722883,-0.09067339078673398,-0.6161234430720662,0.9290382487564597,-0.5136909522850455,0.42175047474981164,-0.9901551666817363,0.9436238390975887,0.549635928826894,-0.8356041765679402,0.8295087220346492,-0.945020839116141,-0.3938938677734389,0.810947117077543,-0.8024739119123854,0.8106143018823192,0.038614501963736676,-0.47185344944875157,0.690425328537379,0.4885857258762599,-0.2096579959313562,0.6183293722693656,0.21896117129679163,0.3227527028267321,0.2419498183490584,-0.5466131390188181,0.5594217666882296,0.06233004359666959,-0.7451375953498157,0.42439582665212466,0.21807338848272168,-0.4196439575742974,0.8624851413962066,0.22574487597379497,-0.36987566608254413,-0.4111906387334973,-0.4732011852177311,-0.6386227679764049,-0.6082611678407379,-0.16960734772464858,0.8199121706694013,-0.4483489668734875,-0.46561238344772377,0.4499102301768715,0.09556722542195918,-0.3383791703627709,-0.5490752440848898,-0.6399474222055745,-0.6106290921655425,0.3319179023822198,-0.3962222886673984,-0.6831897456194037,0.7785869069040032,0.04439200629381677,-0.18500366760804798],[0.7220038912526026,-0.5663193502309418,-0.4497777119810238,-0.9126333042671451,0.8841475351895228,0.6896624815651593,-0.392642844179556,0.5019095710551291,-0.32593645176463426,0.29850595511158984,0.6883380976010239,0.2870967731877613,0.25507467308233367,0.7522056958546762,-0.47427215764917885,-0.9068186342701854,0.8897565637951641,0.2719572602841839,0.6844307142561113,-0.3435080316751966,-0.9466282398041411,-0.6090564479614845,-0.9632185914798295,-0.03274220915596707,-0.5926803667480796,-0.08301291335772384,0.7438850010839339,-0.45381144979479976,-0.8303921526413487,-0.23474579360214198,-0.766392690013084,-0.9828549438681586,0.6441869826675397,-0.36487516267998243,0.09188181691731409,-0.012840283008616586,0.26885119407141483,-0.5247828908953059,0.22027651272561113,-0.9531293450649012,0.8163117147673677,-0.32934875368974426,0.33437680057307345,0.5580448002201234,0.014349856644102712,0.8170945616640733,0.8677595512573782,0.21201952299011773,-0.637804966212639,0.7195326335978984,0.1686200584827481,-0.8584824876847327,-0.3529113010314287,-0.4520437980934535,-0.68259175746956,-0.05933471605286646,-0.9652303373637877,0.5662879112124731,-0.878530998112217,-0.2938360302426381,-0.43642737038886376,0.9275303656226644,-0.9741921189896207,0.22431136607653077],[-0.763966687239907,-0.23652146303311133,0.3643411233210456,0.11488452107225827,0.03064217887604031,0.9047417605172982,0.936173843318128,-0.9813762217448131,-0.47733703737590394,-0.13585771705539845,-0.3534664582129061,-0.3161241401865077,-0.7376359492489691,0.948343200043651,0.967949804878436,-0.5004869875595881,0.7288075216163877,-0.9653934879636714,-0.0859944952376553,-0.632646922967492,-0.750632054192515,0.8741119601106434,-0.13905642431157134,-0.7660034994961163,0.6834991521856526,0.24100997377959432,0.2450848689221883,-0.1764130544368237,-0.8495455752880512,-0.6782050366578316,0.12141713708595264,0.5440139749982493,0.342419365314049,0.20790786774860764,-0.39640149231870814,0.9365258662182565,-0.5119233682315895,-0.8730560575429521,0.9755039971871635,0.11303168759185772,0.7919941020127644,-0.7790385587663732,-0.5383293186790052,-0.9871540511562945,0.6056670216717355,-0.7554763983279766,0.7259772334111333,0.8775521787058599,-0.8366661793219011,-0.29385246772337736,0.990680405457518,-0.008297898324466979,-0.5971039930473869,-0.2693728485198769,-0.8626129640059517,0.6537128683967882,-0.3493287617304242,-0.32860789629036896,-0.6866493596164736,-0.5782192926949326,-0.02882662606755884,0.46424556993439176,-0.7859493859781241,0.9102642859725556],[0.6524260118380814,0.5153668275451688,-0.14897405199161948,-0.6925331538795414,0.4041286112691407,-0.8728698328601104,0.13517304497123486,-0.8733684167288361,0.6311231069996418,-0.12451038804512832,-0.7683457282704654,-0.4190123161685666,-0.30609228650635056,-0.10059401438830098,0.41862099876450304,-0.881328665617588,-0.053815534204291825,0.5872307888380579,0.003033609155356623,0.7462827750705652,-0.07600569537217026,-0.5019895884195672,0.9349719794235316,-0.029510643410000967,0.7261150263923836,0.8691634990916801,-0.7278052773530661,-0.08030642617529357,-0.9269069750684235,-0.2030552363180289,-0.26564269951832364,-0.4522671472406708,-0.6415990495123436,-0.5174882036601718,0.5205825734205,-0.5106710032197117,-0.025335291407951894,0.2419651126002435,0.3196141083503619,0.9258800811197592,0.6740079432090107,-0.7812606744222371,-0.6756528472121304,-0.7188132621445518,0.6525420527356615,-0.09742338547006593,-0.5665881516066793,0.974531717244041,0.8565321969852822,-0.11225719233728809,0.7795026266535053,0.08220256832521355,0.9051327665570803,-0.1235303873212406,0.544734885257585,0.04401365540475996,-0.4335064339594865,-0.8334740284897029,-0.2762787946325029,-0.6192446763470746,-0.9953831432631407,-0.9596961315008676,-0.9369290004018688,-0.8458065652410947],[0.6575462102362727,-0.1760360514944736,0.40383015188244936,0.6596900226520674,0.9546547148550975,0.05961506395179305,0.5160368620733583,-0.012044384102768261,-0.14133436871371413,0.2868358393083717,0.9574375207319571,0.11540707474341699,-0.8379500696515196,0.5686351331091559,-0.8947777355547069,-0.7737286780959911,0.7124455062100391,0.943950586436838,-0.28901818868165224,0.06713501419210263,0.060006563916327964,-0.28414937395118656,-0.6401116664039441,0.18700878900978948,-0.784113316014894,0.5960464508842629,0.9974696930943348,-0.6114740539330427,-0.3544454592062781,-0.022498897507198745,-0.01035433389259504,0.5910073901652434,0.949588923795813,-0.16102718876879424,-0.8836007755308695,0.14085067215980018,0.29089253846989027,-0.463881988918209,-0.3048170882938456,-0.08488352449758624,-0.1165788128386473,-0.715800983806088,-0.2622960528532858,-0.10473640801363916,-0.14723442941533643,-0.2805141970185462,-0.11678651435072711,0.692539557652969,-0.2893176089033862,0.07856085420494453,0.47588984891216496,0.453191680401689,0.8975889112136255,0.1117165527249152,-0.49185127196941164,0.23419391936599324,-0.5807106697422719,0.34511946623454465,0.7892079225156429,0.7366214429634234,0.6001537925925714,0.07427648017549536,-0.8930248384481198,-0.46796380024350864],[0.5891953721778465,0.5611024817629922,0.8208505576797754,-0.09788857213914672,-0.7731435877457128,0.4886710571057526,-0.3147706814185856,0.06656825934283395,0.8481088978189227,0.658116462996856,0.8031036776081413,-0.4753694964728668,0.7667885830774127,0.3872364092275359,0.2899138146901358,-0.043816715202602004,0.6268802743745657,-0.5211843060651261,-0.39645125685239974,-0.36092540132431133,0.702039387389865,-0.4317689648853286,0.21431534717384026,0.4190157393755663,0.5840279996956895,0.7266986398957955,0.36069024594010807,-0.7709157592881104,-0.48869779747982534,0.8765775842296077,-0.5380409109181681,-0.8394059020766047,0.9312350219042936,-0.9497247043040258,-0.3169492292783242,0.5775449342607404,0.6916309814868007,0.39774556727394034,-0.9241634068922372,-0.726169436255214,0.5967147270807323,0.5162674103240563,0.9877778783829906,-0.45159560588600794,-0.7029902375220838,-0.7302040684766575,0.9867233738502403,0.35903918573172594,-0.6289398045582286,-0.13537333364827728,-0.7172553224428663,-0.7675817132919486,0.28463504003674056,-0.30111986504065946,0.8108279261287571,0.37508242798518926,-0.19372912964817812,-0.09817912977987536,0.3069344511118484,-0.6282217489639077,-0.7488295934525778,-0.09794656029442017,-0.024417695434350798,-0.4625478466131051],[0.8677981500963015,-0.023049726781265045,-0.8695272243505194,0.8579562182995735,-0.24123717945475487,0.8794004997432732,0.31694961542100475,-0.20081123787944632,-0.1185219479669658,-0.643794105217889,0.3992031091574131,0.5946813417446852,0.5318233573786875,-0.5498042091137001,0.8344536256649016,-0.9653799415704081,0.9375550900859546,-0.4081572294254122,0.6148708385124415,0.9591464147149837,0.8075986512663065,-0.2933070634010281,-0.3874852638870704,-0.6255198020162314,0.5422363746660734,-0.13781821211479606,0.31369736352024136,0.2912112693975264,-0.10365828720959391,0.19993841666462786,0.6422213581637186,-0.35907708520791004,-0.5736908436398016,0.16492668838598812,-0.39451385783044457,-0.6681723796938142,0.5391772758164508,-0.977044284232943,0.1083472251924591,0.33321807827804495,0.4476096327190342,0.6484752793064712,0.6425823433606495,-0.30392022441680944,0.4726698880536846,-0.28723560885080734,-0.6322416382372875,0.6538381681237913,-0.13178979331896,-0.692591580699246,-0.10374198630727738,-0.2157710498599673,0.6014610516921568,0.7259028604152569,-0.6434862760418101,0.2504851884367161,0.5823897419088073,0.7423798884251689,0.17399746063751698,-0.27079795988087096,0.46980883449462807,-0.7887735985666536,0.28878596282875835,0.6624656482450839],[0.8661718642288045,0.34283572818938635,-0.7430945809700688,0.18416406548141806,0.7618351631038849,-0.5556600370248675,-0.24940391444157128,-0.9460703762713638,0.6426320522654887,-0.30473326387250643,-0.12136050938426934,0.12196124419871368,-0.5776736498138925,0.084262143241985,-0.4619277088679239,-0.4254341109044363,0.904809769793187,0.8596283803898945,0.8768715549356394,0.12589580598464067,-0.24665633718755842,-0.7434117690962192,0.8216265324997587,-0.21606272912181146,-0.7799040432225989,-0.26403595299848515,-0.29339622763427164,0.4411169661854364,0.33069759523018494,0.7595193024322442,-0.5278340293033404,-0.5216018392840736,0.795682025107356,-0.5066123383758715,0.9907831636613962,-0.9833527663034956,0.30841428527573256,-0.5546013473144602,-0.8253440462693106,0.4406057108288015,0.48799735470375216,0.6478437377515958,0.40115047403134274,0.9980501827721375,-0.978629082253845,-0.799016144148317,0.35234241277385037,0.02111503684997995,0.9390688777907594,0.3028092525078552,-0.3996614712989678,0.8462458309594161,-0.379546522968115,-0.008839831195224579,0.17031451798818864,0.5341248275966759,-0.2555808137246003,-0.9398762873717549,0.05142899145166702,-0.3131222680500807,0.011118691949017157,0.7060425465925704,0.13479869209200213,0.22271047856836068],[0.6378049753002224,-0.3710413469668402,0.1512826435231689,-0.13437542156726834,0.08974001443271384,-0.7910156128681718,-0.9615752756717966,0.7482982801584064,0.08130144555264907,0.815604918378187,0.9920504758248498,0.023982748624608252,0.10842177371866124,0.772773844045302,-0.3584383929416448,0.9413300515018379,0.3432000897980707,-0.7132891895789659,0.18213575128421944,0.8305031649869596,0.3516106615351726,0.1289634099851631,0.16295291881827612,-0.6796835747045655,0.7485103935404496,0.9746464895291942,-0.19220028161921598,0.925178807592816,-0.49611215029291955,0.15868556423178193,0.963250501027711,0.7693407673877035,0.6062042513894601,-0.16841702889538523,0.6084274335472271,0.7708124212227707,0.6983225556973274,0.54849726417397,0.49443120081590863,-0.1610441273213291,-0.48797081544133813,-0.41499481593128795,-0.4707928224262313,0.4127508822638606,-0.6806213258466857,-0.0814957345393077,-0.16887534917474,-0.8288935409396159,0.6991989728489447,0.70174716177241,0.21360213327077981,0.6808345308253676,-0.30055644662092773,0.2390065985157901,0.04224490921146784,-0.7444265219007784,0.8244455250152145,0.2189290730212261,0.40393899171684056,-0.4483800912635262,0.02320038638480404,-0.26843143124902935,-0.22090636983775813,-0.05818870629150985],[-0.6641775971205477,0.6759337530517211,-0.6235463172205653,-0.8540978251195731,0.8022445464129302,-0.2399387039501315,0.4293470060161313,0.8578716534436963,0.27134757054656866,0.5547733415511222,0.7546654878743515,0.9395613873755251,-0.24913096297099302,-0.0008556252815024035,-0.3061272835651835,-0.8730596250041933,0.11897933423974094,-0.6393031641996627,-0.6425916237322009,0.916272071685289,-0.5608371884131367,0.8680356102384117,0.5438252047321663,0.12811719413387057,0.03850849438964232,0.7987799098633812,0.9138367632926936,0.7826352308374855,0.9605784244587734,0.6513815316528249,0.13722957190490703,-0.01778981200062102,0.4517718490524909,-0.6424557660156811,-0.003650318630705529,-0.8012402930640625,0.6730858631323515,0.05361014518420659,-0.010934631506862025,-0.9588584472689531,-0.5073778900395555,-0.10077074149041154,-0.472563266552783,0.2846357268837638,0.08461091646629959,-0.5908840970701599,-0.0967135003362467,-0.6926967589215225,0.5607320464764589,-0.3809681851005531,-0.010911761908360962,0.6696746026706044,0.9597017071132994,0.47416286867401203,-0.3796990588294491,0.7182016160552867,0.4207379321925937,-0.34553056164597973,-0.67903913886986,-0.5997182714775751,-0.294792219341229,0.7145801710696149,-0.20498059083239517,0.4997597990307807],[-0.061818062783565275,-0.07324282570563401,-0.5513758205071684,0.934313211553421,-0.3203579039770831,-0.544937099844502,-0.8979207496268794,0.3618157792739187,0.8931366638151805,0.4843212005284905,0.22392784706131952,-0.5169492488403629,0.6144671930871317,-0.5352342281814626,-0.5297446053876957,0.8277831369225654,0.5936964860161476,-0.4353537197425905,0.35271789728607406,-0.2279034616171104,0.9312794640280273,-0.7532737232200761,-0.7852907457610906,-0.979020705729223,0.12397899824155534,-0.8528971539219756,0.30313366993967916,0.21985702419311348,0.25469495197559056,0.36041027368197875,-0.04778109947588438,0.9939794307817107,0.9841648551605162,0.5821772695506495,-0.11306850169798177,0.3815179318498032,0.19284214527715227,-0.80379751813516,0.7118507726327479,0.13466738170170123,-0.5344791201873382,0.5401959313357467,0.4413883915759018,0.8014369911432511,0.7575272784139744,-0.7956924869036293,0.27710400818427927,-0.9960393322788654,0.9665974422484878,0.6934653330030673,-0.007451962658150291,-0.3573971114820851,-0.3932171029711107,0.20442533022614695,0.9770625584168697,0.6880904941773596,-0.8159424312800467,0.6018580488555283,-0.6198024460593894,-0.9985575389831953,-0.8937115635855465,-0.3820225518409994,-0.44517426615424927,0.13038873632981285],[0.8161194605577908,0.4185384998941517,-0.10629942736110887,-0.808279712661923,0.17108989867479374,-0.286234243475048,-0.747505539637736,-0.6699768375693316,0.4469303498611561,0.6878938920035562,-0.2733969957692447,0.6496138034444283,-0.29272454527102476,-0.13039835010835943,-0.47754257328589356,-0.36260770271584797,-0.7186452644924595,0.3217888150495456,0.3348267990322906,-0.32361243581336063,-0.5320566274077593,0.8086089900655062,0.8261064476484634,-0.8495865975096053,0.4918933452412284,-0.40205970526891166,0.760524265260353,-0.860575973735655,-0.36988121303361,0.8918990220418281,0.1664225687923131,0.3833430674220166,-0.3842397436363869,0.4519436849259997,0.6376892615818577,0.7737092645005754,-0.3752199471353974,0.3628249262995762,-0.5187439569464848,0.9556768829300433,0.21489317278319398,-0.5189243044131617,0.43432694276791506,0.5676586439604674,-0.45099054074365497,0.5420938419009445,0.6461502838314099,0.3302408807664088,0.5212880952942553,-0.4666077252227575,-0.8240846693830688,-0.8587833963234776,0.06908642908785101,-0.9969594566661089,0.5185270804735775,0.767439749108831,0.5543412254817297,0.9486658466369495,0.5143162181036491,-0.7726032457777087,0.33775232630464913,0.16369021217369162,0.305200091113518,0.15018891398747392],[0.47826242538724095,-0.9064244389976243,-0.08095359716057678,-0.6237078516593096,-0.6162691765833227,0.2532408152759281,0.9440209067205512,0.4386193846081864,-0.9129748396381726,0.48876255561217413,-0.12625909907220859,0.3947666616682412,-0.7500330796724218,-0.263305027117192,0.3223389815697975,0.7521609351290177,0.0112344114297342,-0.11069900537590341,0.4728952677588518,0.6589092358797659,0.7609135479033826,-0.3460421880997543,0.5090685917485297,0.8097301153688954,-0.31405809718583216,0.6315943506251296,0.9591591790409365,-0.46098218734689345,-0.9009086923333947,0.6844890474561416,-0.28646796088071186,-0.16868526267315015,0.18616464239518418,-0.4663911221218762,-0.10701954826059917,-0.4145691836320642,-0.827801839074666,-0.10540081273363737,-0.3057467174650317,-0.8532080586438948,0.7037185855480276,-0.02373940435207822,-0.10889278113023823,0.9104467269012443,0.1373111833231723,0.7653507399234845,-0.6253897974220196,-0.4642797255135326,-0.3451706367418371,0.6133277687113493,-0.2291242721195976,-0.45339444029120624,-0.5416472886875978,-0.9259140973357324,0.2281461332155405,-0.6283366766754132,-0.175376196537781,-0.3243995279674467,-0.5373788544474487,-0.6828063616694475,-0.6672450407543606,-0.12380021254885898,0.4470638955031118,-0.661720195277052],[0.41802859923412294,-0.10941331251057158,-0.9753664299783993,0.44569620955075767,-0.2890256306919225,-0.43682004297176746,0.9392144716370046,0.80670986633668,0.09986863942831399,0.48459740764019643,-0.13893254876011338,-0.8981403081746036,0.5653758109154776,-0.22425633525112984,0.6633266634279594,0.09189850119200539,0.22809317023784956,-0.36337781462332636,0.05377394962965128,0.10158901686783409,-0.4242126389413702,-0.18123969646702606,0.35019941586575315,-0.2388984249291716,0.8769737029992833,-0.14858687878508334,-0.9423506678172378,-0.4428351118199131,-0.09509351371406614,0.77405182566279,0.0632814861429784,-0.8898322768177276,-0.23155533821400096,0.7723727759200018,-0.6661053213777254,-0.24325031391618887,0.874679982380081,0.42323642172394826,0.8086232064711428,-0.8866047237648481,0.08372295222763558,0.29223047857736895,0.5974351723165048,-0.6731315118822582,0.6634673026464322,-0.46423847428070225,0.6092209741571901,0.2975257221254516,0.38766174893087446,0.8854224411681629,-0.508199550406295,0.22657885088990187,0.08106791130719078,0.7736089956500478,0.35946623744332856,0.6044190487790512,0.2387187573490657,0.6853908073145607,0.26014265151143917,0.030621173363853272,-0.38357658845324777,-0.7050578987733355,-0.7164096176263678,0.4235166203545774],[-0.5403436879651969,0.5604391112586178,-0.36318866618947737,-0.6603128857617522,0.38544661969325783,0.9263308155514033,-0.22480188783842991,0.3420959747399027,0.5406723763628309,-0.9736410035232208,0.542534770956445,-0.1310314501146084,0.2818431420387823,-0.865435817978762,-0.9415445545575148,-0.6515085276086288,-0.4103892229655106,0.2575768096683594,0.40247376222350834,0.161792925814977,0.880549544218194,0.23992497492350678,0.26651498559146125,0.013954460054070202,-0.7191914451609208,-0.389079279934342,0.8331720956521902,-0.6963971192304688,-0.5244355255750551,0.7763195944891842,0.04214487472006865,-0.30485460326727615,0.8345688668349073,-0.1599067708827836,-0.7530291720768574,0.5742748642629906,0.9698628085796359,0.6446689000633996,-0.1250764947599279,-0.6597595037214883,0.5909096353229745,-0.2167215168149862,-0.931897169371023,0.23708019581252557,-0.15311576884547645,-0.39641166972375236,0.23399512713695422,0.893386951326774,-0.02696323000959317,-0.25782281782774114,0.08076029982037512,-0.0296791124648851,0.7646236351370781,0.6248223835678548,0.4709725388926681,0.7361547982221652,0.09722397965844415,-0.9388856003226226,-0.1474082888530727,0.4457610509197906,-0.924316404737579,-0.7224635593621951,-0.6567147319920481,0.3171546396318637],[0.4394910049365873,-0.8529883928635468,0.4097924493742055,-0.13912895555255161,0.32292604813690956,0.7251959140800255,-0.05330738926130822,0.9939349671904469,0.822169955580681,0.5243287945740325,-0.906737867545301,0.3383956641259583,0.6387239065365495,0.6772244307137424,0.35863581861493166,0.956387943131912,-0.9802804554752952,0.6928415308498806,0.37116624948935567,-0.8467783844151825,-0.3536199592103845,-0.18368751709289344,0.8495076561194236,0.5061229929889407,0.5559068466082027,-0.27337587066140845,-0.2925719918854593,0.5255659382495971,-0.21170131496366834,-0.5663127802698273,0.4052218175217241,-0.012262264010162826,0.3699660686403716,0.19530265690553486,0.2936559578197195,-0.3703415593327101,0.4320287237890516,-0.236585799582964,0.18436727358455865,-0.8590652850488008,0.6784436809553921,0.28596633490052836,0.8394568831808918,-0.722179739914309,-0.028777971275629546,-0.09127113770297655,0.22606535175411227,0.3212860845922258,0.10044689965851886,-0.3972704847629924,-0.4856106533897752,-0.5589239023882445,0.48979570185085525,-0.6130886695540525,-0.05781547639001205,0.015250322461918783,-0.9741495572271409,0.7983920613321848,0.2610801511833611,0.20111376310445261,-0.08842584053203643,-0.368934125472778,0.980481780722616,-0.5468861366817213],[-0.5689178569532432,0.3067309831965975,-0.5842017911801577,-0.6285688096428084,-0.7143356853021664,0.491035379861671,-0.14087401410965908,-0.9963646173460068,0.2947932724612493,0.15117155038986188,-0.8959880574276567,0.3641315750266473,0.6586794172725253,-0.9722334663066124,0.07192495448677672,0.9355195210163998,-0.731750630107997,-0.9193557253040551,-0.3918334748071243,-0.08894951995725386,0.40961830041148184,0.6241725182292985,0.7432505066842491,0.7098122939405924,-0.4493929213635361,0.9779038844870508,-0.5349467596373658,-0.22876868283212998,0.4190144324230014,0.42619429404759956,0.35507790860119187,-0.9271709106617535,0.23126668979218465,-0.23644293311525114,-0.08395398234516085,0.34206792079679355,-0.689697357593959,0.5925891869253737,-0.7360294655875268,-0.38165472340322215,-0.29395772208389775,0.5165186987307586,-0.338345239359685,-0.01621527520076367,-0.5014436571825912,-0.2660878376901296,-0.1531404641828579,0.20414891125037404,0.8739804570335292,0.6052557349298014,0.3786975346500686,-0.9351342067832135,0.7142957875876125,-0.3241030613387057,0.15293953809718147,-0.8243135928043837,0.6126995940758008,-0.4989623572681607,0.02585116444771077,0.08786670661260003,-0.03287893097949832,-0.65804612093206,-0.7186556858247383,-0.35528186820061686],[0.799987473605269,0.39655215321526927,0.23487233716913022,0.8754035903472729,-0.21166823373377536,-0.05374214483654985,0.02617064829294182,0.11806223634642214,-0.4762444995673513,-0.19868990710094342,0.0908298324246092,-0.7850148598876149,0.9029895502770456,0.28168330708053824,0.688483255194586,0.45559523254297735,0.33151383252569616,-0.5176811008105902,0.504931236788723,-0.28076067365220203,-0.7173718985691088,-0.6839892731623072,-0.6863778559922332,-0.37581094414154975,-0.27205600227284243,-0.07745029974679664,0.5788121088219434,-0.9609123508483464,-0.7058448063946878,0.8200241678570251,-0.6333591297916336,-0.4842009230937979,0.3128699168140588,-0.4898659302988603,-0.6664477177626629,-0.6557453955020129,0.9616578673327998,0.40830596203814745,0.5278238838405264,-0.7624624981596723,0.5271642107700536,-0.17066484531448975,-0.12898257040981737,-0.07444341217362205,-0.439770846109699,0.9946387439170608,-0.615560247694226,-0.07515479235209424,0.8056771910358449,0.8736220330648912,-0.889676862130415,-0.8115750236585652,-0.6528260429915311,0.04830218542513919,-0.07779693211060745,0.3842738937702842,-0.9666544387242133,0.7731178956592257,-0.7003568317693661,-0.774253080513972,0.8854230293544271,-0.16405292247626227,0.5784291150368208,-0.9513632836944091],[-0.8838108778623076,-0.7451752094347162,-0.4713544270060312,-0.49902461668144266,-0.25228054784490817,-0.950299366246991,-0.6510568395987857,-0.651654726105775,-0.8665785665188463,0.2517400495454887,0.9709456891007926,-0.8899363177055354,0.029474849374609723,-0.13025609300077862,0.9071872245142113,-0.4574174383281427,-0.32927896151497327,0.5225432560776069,-0.9062520266389287,-0.8137286445377696,0.0315687424024927,0.6833501985452362,-0.5976190354366151,0.5269295306195971,-0.20413546485193745,0.41380099642172435,-0.9470599130446674,0.8169955657698008,0.09484255109825958,0.9762230381457242,-0.6149429403044274,0.8784235090444248,-0.5553962395998603,0.7362594693126566,0.8960814637051131,0.7029339872009647,-0.48417512833337994,0.4091730097761228,0.9506608213985973,-0.9352783140103357,0.5106256580298434,-0.8932434838314827,-0.6316677419391199,-0.06770844768950912,-0.43559688217661546,0.5255776991926102,-0.5659255858589444,-0.5760044189027526,0.590164662824962,0.582368739844473,0.45992450897105996,-0.9277301145585761,0.058476484216229016,0.0987339782889557,-0.7886037189401459,0.35819785358677875,0.3800164667634045,0.5019632596859508,0.19556689104243843,0.02227000075395876,-0.8262351622293422,-0.661919625375268,-0.2437776580528625,0.24814182598205275],[-0.7460010895496701,0.8033551824147559,0.914798589422469,-0.133354334487661,-0.19155370934242621,-0.8914778044774174,-0.5698000984396344,-0.24222896754078116,0.5083848771708397,-0.1316661889379327,0.7424380893352645,0.23852469445649657,0.8831277223830084,0.9577921025278917,0.7831322063609327,-0.847537164381513,-0.9415276770978761,0.972914645543992,0.9612880884216425,-0.28406446929505036,-0.2571297141796754,0.9554410567616225,0.24084748369537298,0.4062213327640182,0.6803679620138287,0.10438645470257221,0.010365449054017883,0.25559391012975247,-0.7101792461178409,0.3102961535970007,0.3872601670874784,0.07781425603347683,-0.6608299327555277,0.6271291975610874,-0.7708566234335948,0.9303799570611148,0.8265827832223972,0.22704649539737343,0.6697143545159724,-0.5938834341118272,-0.8345438831389916,-0.3324119393097472,0.914403011440132,0.10603468027578977,0.5857009525632104,-0.6347586180719892,0.6173303581179376,-0.06246385260936209,-0.5747333945377668,0.9212268937949402,0.5117128087088401,-0.9116051667947994,0.7501526044777241,-0.8277316282941476,-0.6440787970108969,0.985359871851729,0.6909796628803627,-0.4877844834859634,-0.24399612771418636,-0.17201139460427914,-0.692569103275441,0.995026609755041,0.029986058362559714,-0.4892469408461326],[0.4031283873099327,-0.40001199508325147,-0.9308685225684616,-0.7886920861338762,-0.4745982514135403,-0.5047467469902341,-0.48523274499756097,-0.14645144836418916,-0.16154203895539504,-0.3193248739326452,-0.7353667225166091,-0.8385622508370735,-0.894946368727367,-0.7347629293001662,-0.11263889401380259,-0.29090490242117223,0.8977425125772736,0.19734565952610622,0.7953523108800926,-0.40396055755150945,0.6501762360424204,-0.3543526495707307,0.5355217165598795,-0.40949483312650015,-0.2963899466301028,0.8880212872293688,-0.8640959286681789,-0.15175353233361483,-0.09005941391386424,0.9806427409842509,0.15553997264582067,-0.35467181605067016,-0.617551762737117,0.8357857777861551,0.8887678886598042,0.38373726126272245,0.6763266297823972,0.7435664539758597,0.6034185545964789,-0.6906421394860355,0.7481811505701654,0.517139321344482,-0.6259445749645142,-0.09498902330544944,-0.42872438613681396,-0.5035265075081938,0.532876510512945,-0.19461206231896996,-0.07696033888810196,-0.9453113907951819,0.7210453252543632,0.9390749694959801,0.4081938097242081,0.6735042834510393,-0.402553575317801,-0.14879550619078394,0.6583902886318972,-0.801678472901496,-0.9693279320705536,-0.28129049967138575,-0.7040216791823986,-0.7330833839584205,-0.854847712363375,-0.6460747717593532],[-0.2674176165795368,-0.03024977491517992,0.1682642195293426,0.27592898634667273,0.7856865261126349,0.06952723762555194,-0.8832834216467182,0.9449037006378178,0.2505965010968913,-0.8498450589124548,-0.41730301777597634,0.5832676826191509,-0.008848895911405379,-0.8905397077851813,0.6821122528953575,0.44249139013740646,0.32364941834315136,-0.6836018205059511,-0.9173574875970463,-0.13676430063233078,-0.03406137844801901,0.07609720636706863,-0.9080631520305869,-0.8758553724900252,0.00035081285097876325,-0.36038705109257757,0.3762279493089985,-0.47330177790874134,0.4302106264732251,-0.31479202397465694,-0.9565429011512552,0.23295637997723373,0.36019525780664985,0.6830632932352022,-0.01580649080787365,0.8441021494533163,0.5266854969959859,0.0861527847135437,0.9668117824757567,0.47026017165783823,-0.9616343569758482,0.06115614351662465,-0.795447709841666,0.537228090052716,-0.9062122206950192,0.70954888765554,0.20760082828562237,0.12936802103055614,-0.6036531944092371,0.5807046818933738,0.23932732676773813,-0.681431140460905,-0.7638588276341169,0.5078517440312931,0.6677825432783802,0.04287025965737776,0.06185010266004889,0.23644387497041083,0.9727859430497992,0.1500362627971177,0.1981109208676529,0.6246393867052555,-0.5325586993969486,-0.4085534634201207],[-0.26235517445735274,0.5590667891677655,0.6474434609699798,-0.8356085203410561,0.25847873723524495,-0.7944595191279962,0.9972765679636197,-0.1940237309813565,-0.3211215146730097,-0.25097004405232587,-0.7452731398953292,0.8702925077513418,0.35991234636525377,-0.3721289204938786,0.020886757121845248,-0.17196150974332564,-0.11821057516605203,0.6002902293220709,-0.08857981648034406,0.8485979977948681,-0.772510057464483,-0.7884231691028819,-0.12868579227699856,0.4981428209434398,0.22787102590745192,0.36299705381215536,-0.9114839300684936,0.9597226055544988,-0.734721952351803,0.057589260268428595,-0.8476928611481717,0.8001248237633796,0.8184302618927051,0.5175195236384589,0.047640269055468885,-0.32929255832559523,-0.2717813306896929,0.08225616448270995,0.9236357086836566,0.5966311096523266,0.33905150923360067,-0.8032711373927648,-0.5673550091204341,0.6175222440903139,-0.9695690483359971,0.27685773049215345,0.3485294205553152,0.42310996395115,-0.6009217147192971,-0.5762644265743596,-0.023908580111522207,-0.2469228761829321,0.2083174732855639,0.6931267212426337,0.12923481657195637,0.562703934684291,-0.3396688195519926,0.8299967921540636,-0.6793634935040547,0.6495677172348262,-0.33931866881949996,0.03311920697922277,0.02663723015556958,0.29396248879980114],[-0.6157624667814708,-0.5320799526913825,0.8963727713640932,0.5794390823512348,-1.0195601993390233,0.16974489207518992,-0.08408194796457964,0.10947285273802689,0.10257419064467642,0.3838850118354091,0.1361841237326521,-0.17286467365830133,0.833643981699077,-0.06249760530417701,-0.620492167865261,0.5079382616824438,0.46069983302154904,-0.44783887913194625,0.7075362486823166,-0.2265683166020839,-0.8457398771686536,-0.4452862434277232,1.0201749245552605,0.5848706068228663,-0.3280353842545897,-0.5905089852637657,-0.46555207158527284,-0.9111232947059711,-1.0491145467685041,-0.5700701037620142,0.9776707512641136,0.34756866606630876,0.5803598715521766,-0.593416624668514,0.4661335581146091,0.227984025909663,-0.46533450907723367,0.13898238958692932,0.3340586924842226,-0.03844779072046446,0.6448772738606419,-0.06206338652854929,-0.4198450480226636,-1.0058590507245835,0.053063236858416574,0.05306564036960233,-0.1767079251066651,0.36342786696972224,0.7712312903820007,-0.017912001949841366,-0.867379800436343,0.34362990710612823,-0.39920655484889045,0.954294577432738,0.4982699761054178,-0.05254838536228212,0.8689319131811916,-0.44337331974613775,0.5184970523727345,0.2619209069540332,-0.7053246361480643,0.9652910132915494,-0.5795126432474644,0.28900313196184796],[-0.8786569113809525,-0.9257418153355432,0.3891461965612688,-0.802547878816725,0.9636927964296005,1.059097326031546,0.03808801801842781,0.5885498352700277,0.26981300594865637,0.2058641727867454,-0.6570008030014772,0.8932020760586631,0.9302760529574248,0.8369859532198118,0.07271461167651384,0.8529319476590481,-0.881725625372645,-0.9046233464485008,-0.3724858574780091,-0.13152016186673576,-0.025096154562776547,-1.0631024655868733,0.08837182770659587,-0.14107303317388575,0.8028580988897475,0.7936717821012519,-0.7600574691926838,0.3550105574898204,0.17221729051396406,0.9546734755782044,-0.8608653286716533,0.7242435814206403,-0.3549677053574389,-0.3893653346528099,0.4215256527756043,0.23216387444666353,0.25055595248313417,-0.7824356302177677,0.26246321052571586,0.48940745292260723,0.10869223494608077,0.09263441230831232,0.1485457775398682,0.847309249441939,0.8626168151273519,-0.12552637853812762,0.7646081642968258,-0.378893407225329,0.7196223497292167,0.8146445059156275,0.7615477406467934,-0.7495584691883929,-0.15838209620942528,-0.05182621010139765,-0.05219508199832335,-0.5943767384713328,-0.3097051932466982,-0.2057532635903857,0.21727517811738697,0.7097333685559553,0.5649506322031616,-0.3228165843143297,-0.9975555398408291,-0.18500482815532054],[-0.5983040511027582,0.236732539905611,-0.8603759603432276,0.8080989794524986,-0.8107912666071123,-0.5588863326510213,0.5379535959121212,0.5791531299787248,0.5335529362507155,-0.11905400011499823,-0.4769071582620883,-0.20711143132746318,0.1574795916644308,-0.8682698433665562,-0.6332776923295672,0.6005726094247237,0.6144343581432541,-0.26865044869233823,-0.9100574826970881,-0.5013812900426717,-0.7621703198663274,-0.5599010376935,0.09455613518350692,0.8681957699418049,0.9277959512106189,-0.5886059854227419,0.6735216049434473,0.48127501348971363,0.6960644639454677,-0.3355545543927587,-0.41406213142604104,-0.026028795524477233,-0.13542797530391487,-0.059490609758204145,-0.6730263673048714,0.9251783143733937,0.6993203588629722,-0.6164845199425505,0.3593604329007547,0.6103695895063369,-0.10966491919852048,0.2404219521051429,0.45166103264840823,-0.9381370690007779,-0.8709547553158596,-0.19709679792350446,0.7323120853450295,-0.8515180229917911,0.3989410294246794,-0.6796383312701731,0.27625626088847327,0.4427086951657388,-0.3566225205377471,0.053299553719550884,0.6444823328659901,-0.11877841344917507,0.25856450365187555,0.6416393517650476,-0.8869679302543343,-0.9489569660014916,-0.15422408791714204,0.1174663008908288,-0.7803330268687467,0.08939368538321753],[0.7234149898425281,0.2804402996268536,0.8520925595594308,0.11357232682165244,0.6466862085722118,-0.7526187710006076,0.35525908428819264,0.587440092921802,-0.921940284899096,0.884300160372861,0.9840218559303947,-0.6561113786125106,0.8830624717798562,-0.21318240619447304,0.024967251009673227,0.5003291941099183,-0.8727506464984112,-0.9030445425451957,-0.7986644630013867,-0.9852066816981222,0.18985856876792262,-0.7653391310032903,-0.7563979547619739,0.5753605027083902,0.11439341781982207,0.5801258810346368,-0.013401248241424588,0.5867359384178662,0.6055913751809041,-0.8711011169131315,0.8947047521027052,0.9288963526756723,0.37897589351487465,0.4936546418153015,0.2834281999155062,-0.32336362181588635,-0.5893146218746679,0.5038238847664005,0.5317548107172503,0.9043648589556,-0.3750782332029241,0.815265813970744,0.39987640737996877,-0.6561427580104472,0.02206967072875204,-0.459855310394658,-0.9868893140404124,0.9161199941073592,0.09726316391253426,-0.07123972304519616,1.0331542530588924,0.566627461604285,0.7743442123209315,-0.8020043472457986,-0.10618950735496163,0.8579062097617405,-0.6512979680225968,0.0065780325721736775,-0.0058826751668540475,0.26506086554697406,0.23433977528224798,0.2356275061217688,0.024143081948471482,-0.9055178638129737],[0.49116037790167644,-0.08331867646481944,0.06877290080605697,-0.4115002720405889,-0.9386366259185853,-0.7090685347190053,0.3983910861878118,0.3822271463734596,0.6861840646657008,-0.6691639183618399,0.6682688011516253,-0.48402956909688855,0.5975282427792906,-0.02270193356329493,0.10960106952444665,-0.9147981862994558,-0.05414656005628994,0.28467698682241843,-0.3821569138375665,0.4673542393937749,0.4836527990602402,-0.048636930905845165,0.7626224349093441,-0.6411025188617449,-0.9448908880578004,0.013327649072031532,0.2165996813429733,0.5261454993421362,0.7808254610239496,0.9776882827002485,0.10358230912933185,-0.6702494395507456,-0.5845883850326239,-0.8668162848735169,0.06305746118568878,0.7425940130005511,0.29444393756342735,0.6540458671161445,-0.5115139338959835,0.9416154642063115,-0.48107843659048866,-0.5939533197851394,-0.5171933563021631,0.3965721458318566,0.31774396607549005,-0.43257847423085527,-0.14510131846046354,-0.09839706619494319,0.8309234118054543,0.9156312718347358,0.9138883071557398,-0.1082001190282389,0.03351153517098755,-0.9310320247905677,0.9661410394178528,-0.11999767734852089,-0.6209452992729945,-0.6900911856418613,-0.6609692709041093,-0.3854847601284466,-0.06663018107218079,0.6664104049451901,-0.49557605841223007,-0.8148617141084772],[-0.9511341126834517,0.44002125559391986,0.12004830342673166,0.5318512985802442,-0.714029968702041,0.850694945828069,0.1361228105511048,0.24251105409609774,0.48105347674498516,-0.08325939294145074,-0.40162461002943617,0.9136655866621874,-0.17759210639546513,0.7181370182760483,-0.07789147257554922,-0.22315155275176415,-0.48974792704577047,-0.7768569312552661,0.8428068872569225,-0.0020190937859267356,-0.43946860650780334,-0.5023214682177773,-0.4551465168178495,0.2555104819369092,-0.26304182092815903,0.051681972379690015,0.30583901565783794,0.7032352400675891,0.39592055396283843,-0.7527124729596152,0.31181275428155225,-0.37282729634600553,0.7628677795813636,0.2035528261095002,-0.5969308515777021,0.3363452090613089,0.3842849231131853,-0.1816095797452088,0.8396841939125385,0.33377342963278944,-0.6154285798256132,0.9844932796691601,0.6429398032924455,0.005737448730929721,0.39024553901759435,-0.1686079755152452,-0.5565961329913858,0.12235270636927226,0.8477603600158092,-0.5052460397231896,-0.09344063154007162,-0.2840221104091615,-0.6678819474368917,-0.34335324782082416,0.20602533478314702,0.18037854454871555,0.4038747545766694,0.6020546348789741,0.728323700076195,-0.8942129573035963,0.20832818311357562,-0.5135762558298578,-0.27689107342942704,-0.024529751955152942],[-0.7678426867270836,0.8823848769377768,-0.5977677831449053,-0.28068235044474277,-0.06089411762953871,-0.7392107369887757,-0.3023518040909112,-0.7360143617888792,-0.812124325675805,-0.3971580974540989,-0.03698335488986364,-0.6417534019526778,0.6282443762873913,0.1470123835287401,-0.18257225919312753,0.979959514995234,-0.14711664604090455,-0.7254638436823747,-0.570981223925503,-0.26384746205781395,-0.7574677520753007,-0.8744926536989313,-0.054166578671279296,0.5922911192193797,0.31739786440642104,0.36913979281372195,0.5548488967190451,0.20729673363390472,0.9577565504504271,-0.23137229993925965,0.8877692330039237,0.37637935794878846,0.1755850753619667,-0.49747544225520807,0.2211098851349065,-0.6030707329639092,0.32387633724550413,-0.5453568907107227,0.17199715563465007,0.8114006270756159,-0.3762994517857125,-0.7433035952268786,-0.25233244105750247,0.9480540465237948,0.017710797557808085,0.30406404308803864,-0.00436325499439652,-0.38463019729968967,-0.21329652967167645,0.5518809288711976,0.0834794766511187,-0.7256541773720337,0.787374232748805,-0.09896295762726863,-0.7922556645730443,-0.6624135079455068,-0.5305876605595451,-0.9227478184000428,-0.14926621275602472,0.0033090619173187174,-0.7649263177186927,0.609550636598199,-0.4895698979462909,-0.8510515796886592],[0.372155205643384,-0.592238984154639,-0.32919815716764045,-0.8698720051031377,-0.5819845918884284,-0.5113166106727266,0.6707866917740228,-0.425430699364679,-0.12403274090513003,0.9847590539427787,0.4001669770908579,-0.006876127859669448,-0.13568843636995367,-0.8234441578843481,0.08103468629304487,0.018646031465410464,0.8416895367806645,0.4919414038955824,-0.46937242615694025,-0.2386612270983325,0.7081498586872472,0.659868194187736,0.9483646149385963,0.8073374924944128,-0.5688125304344005,-0.49700309826768485,0.3355991374891447,-0.5842796115859079,-0.2223130789227789,-0.506479915657481,-0.38653666461073743,0.06672497216051912,-0.5225367381423364,0.3271500107693527,0.7589525854319816,-0.7188589271093797,0.7967418968845227,-0.32478324628699057,0.7608554820260294,-0.7650386500960589,-0.6256921970899598,-0.8889627885126649,-0.9098677140181941,0.43327016948560026,0.5558276986330547,-0.032578956848421756,0.4709412584312499,-0.4793493303848918,-0.7912566325670309,0.9203936956942652,-0.39842387217800823,-0.17869878736794115,-0.5530392651700344,-0.8807332514288848,-0.22163270528030307,0.6014735265698645,0.9699222760609469,-0.8838764617438029,0.15616614351903024,-0.7828886316288471,0.6984127783960848,0.05368462951540614,0.3582634952838268,-0.3448901284800076],[-0.09527143885693062,0.43284751678091915,-0.511430485754106,0.7245610415336546,-0.8789481725297812,-0.2652741452416642,-0.8615635306355791,0.18394095670239444,-0.6922182434571438,-0.41426507678591096,0.7309419526989668,0.21004182476158778,0.1024128327198531,-0.3301456759471216,0.20415225458763728,0.5748150050400836,0.6593516970183769,0.3175367791417521,0.9809783733478435,-0.15621434379473068,-0.8341620205566058,-0.8138050331494961,0.6079431792417421,-0.8723345620948891,-0.40494188715989954,0.1114345516794582,0.554738647525414,0.6740979899805798,-0.4218291697651104,-0.9109331591326758,0.5774839977584761,-0.13011710696577167,-0.24300186322994205,0.9242974028494596,-0.5433489833615579,-0.6008092337635293,-0.8708315668324386,0.2775798257704439,0.5620800549705491,0.9067819422759203,-0.5148941568202657,0.40419162267443093,-0.33779679655786143,-0.6004355452044116,0.9360848922109972,-0.6783750039908013,0.8900665851801215,0.16795612968910864,0.2041662488186474,0.829059223279533,-0.40579638225683456,0.5775044492407798,0.5228213904111192,-0.5784425912765501,-0.6007227842068473,0.19718998503938903,